tree
version=v4
num_class=1
num_tree_per_iteration=1
label_index=0
max_feature_idx=15
objective=regression
feature_names=pm25_lag1 pm25_lag2 pm25_lag3 pm25_lag6 pm25_lag12 pm25_lag24 pm25_roll6 pm25_roll24 ws_lag1 wd_lag1 at_c_lag1 rh_lag1 hour dow city_code st_code
feature_infos=[0.25:683] [0.25:683] [0.25:683] [0.25:675.5] [0.25:675.5] [0.25:675.5] [0.29666666666666669:582.08333333333337] [14.279444444444445:375.11805555555549] [0.040000000000000001:46.555] [0.75:359] [7.7999999999999989:59] [1.1875:99.590000000000003] [0:23] [0:6] [0:2] [0:82]
tree_sizes=5154 5183 5208 5192 5194 5194 5205 5207 5198 5217 5227 5215 5205 5214 5208 5232 5233 5214 5200 5219 5213 5211 5223 5250 5211 5227 5264 5237 5268 5278 5246 5253 5264 5295 5291 5275 5277 5278 5277 5261 5289 5302 5285 5282 5316 5257 5336 5295 5336 5327 5293 5333 5289 5299 5342 5315 5306 5317 5321 5358 5310 5292 5315 5325 5332 5310 5302 5337 5336 5351 5339 5329 5384 5346 5351 5345 5373 5320 5321 5349 5328 5391 5322 5367 5373 5394 5358 5339 5354 5361 5347 5356 5385 5385 5325 5393 5354 5365 5360 5394 5353 5380 5377 5379 5359 5356 5376 5391 5424 5407 5387 5368 5383 5401 5409 5393 5377 5359 5429 5379 5384 5341 5391 5390 5393 5397 5370 5408 5386 5355 5363 5394 5398 5396 5409 5379 5416 5383 5378 5336 5400 5400 5398 5387 5404 5415 5414 5405 5364 5394 5407 5353 5401 5383 5434 5368 5405 5362 5361 5390 5380 5385 5404 5389 5373 5410 5386 5382 5391 5401 5410 5410 5406 5376 5381 5413 5383 5356 5389 5364 5346 5398 5450 5403 5406 5439 5409 5403 5371 5434 5403 5387 5420 5396 5391 5396 5387 5363 5417 5385 5395 5402 5381 5427 5427 5404 5359 5408 5432 5405 5409 5441 5384 5436 5377 5390 5380 5405 5386 5422 5397 5413 5353 5409 5377 5412 5364 5367 5414 5380 5376 5414 5408 5381 5414 5416 5383 5396 5378 5424 5405 5406 5386 5411 5438 5407 5402 5370 5414 5393 5405 5428 5430 5415 5412 5388 5384 5371 5378 5421 5417 5422 5444 5379 5428 5383 5391 5379 5362 5380 5411 5406 5414 5430 5392 5377 5430 5399 5436 5423 5410 5416 5426 5394 5406 5379 5394 5394 5402 5373 5434 5412 5436 5400 5368 5401 5410 5436 5384 5387 5429 5405 5406 5413 5400 5445 5416 5471 5404 5406 5429 5422 5421 5423 5423 5441 5380 5392 5371 5405 5425 5380 5389 5424 5417 5417 5397 5431 5395 5418 5415 5404 5422 5415 5398 5451 5437 5379 5430 5427 5419 5418 5405 5393 5421 5425 5405 5395 5452 5435 5419 5404 5437 5380 5460 5434 5383 5379 5448 5397 5436 5454 5422 5399 5426 5442 5391 5436 5449 5485 5427 5427 5417 5431 5408 5413 5368 5426 5403 5432 5446 5383 5411 5380 5432 5388 5427 5441 5411 5414 5465 5423 5452 5445 5426 5466 5457 5441 5422 5442

Tree=0
num_leaves=63
num_cat=0
split_feature=0 15 10 12 14 9 7 13 7 7 13 7 3 7 3 11 8 5 0 5 13 7 6 5 13 0 13 0 13 12 15 12 3 11 15 2 9 11 0 10 10 3 7 13 0 8 4 6 5 7 9 7 9 9 15 10 2 4 3 5 6 15
split_gain=5.36555e+07 6.01095e+06 5.24213e+06 2.78755e+06 1.71519e+06 872742 792496 771343 1.06932e+06 564310 520711 390426 368151 356787 327942 319968 267462 267019 263326 257357 377220 343424 241449 234925 246696 241966 228697 210443 189614 171200 165332 160976 152774 149333 165327 148865 147912 146159 142229 141848 140758 138814 136471 135525 131866 131746 120676 116741 112801 110284 107725 106393 104864 135559 104192 103970 97814.3 97232.5 97010.5 94515.8 108960 91961.5
threshold=94.200000000000017 30.500000000000004 16.487500000000004 11.500000000000002 1.5000000000000002 353.09375000000006 258.09635416666669 4.5000000000000009 258.09635416666669 105.82589285714288 4.5000000000000009 88.707854166666678 230.06250000000003 213.65517361111114 84.96250000000002 77.006250000000009 0.10125000000000002 302.75000000000006 262.72500000000008 86.86375000000001 3.5000000000000004 154.92708333333337 320.82916666666671 110.25000000000001 1.0000000180025095e-35 140.84000000000003 4.5000000000000009 45.263750000000009 5.5000000000000009 7.5000000000000009 70.500000000000014 10.500000000000002 213.58125000000004 88.747500000000016 13.500000000000002 140.84000000000003 216.79500000000004 85.522500000000022 177.62083333333337 14.287500000000003 19.062500000000004 84.96250000000002 249.48958333333334 5.5000000000000009 157.45000000000002 0.47375000000000006 365.83333333333343 389.72500000000008 240.60000000000002 154.92708333333337 236.55833333333337 294.22916666666674 290.12500000000006 135.72250000000005 20.500000000000004 20.776250000000001 79.540000000000006 404.87500000000006 128.55000000000004 220.87500000000003 294.57458333333335 21.500000000000004
decision_type=2 2 8 2 2 8 8 2 10 10 2 10 8 10 8 10 10 10 2 8 2 10 10 8 2 2 2 2 2 2 2 2 8 8 2 10 10 8 2 10 8 10 10 2 2 8 8 10 10 10 10 10 10 10 2 8 10 10 8 10 10 2
left_child=1 40 3 5 6 7 10 14 33 27 19 35 18 44 39 -7 31 -14 -10 21 55 -4 37 -16 42 -26 41 -3 -24 56 -11 -8 -15 48 -35 -5 51 57 -28 54 -1 -18 -25 50 -12 -42 -33 -45 -9 -46 -19 -20 53 -27 -2 -21 -22 -13 -47 60 -40 -39
right_child=2 9 4 11 -6 15 16 8 12 30 13 22 17 32 23 -17 26 43 36 20 29 -23 28 24 25 52 38 -29 -30 -31 -32 46 -34 34 -36 -37 -38 61 59 -41 45 -43 -44 47 49 58 -48 -49 -50 -51 -52 -53 -54 -55 -56 -57 -58 -59 -60 -61 -62 -63
leaf_value=171.39992322939764 184.78427750453753 162.78614063535463 167.29858304247659 173.65401940765815 163.47799786515574 187.51609565167664 175.91193643899817 172.81836870271096 175.77312610405812 171.05598988630504 167.46494565339859 171.28505721549246 170.10085297710401 173.39125878471265 172.56232323283086 179.77742617667201 170.52206071633231 171.36598991173636 179.30874013680349 172.83099381972181 173.42693827635748 172.6668943793924 174.34880482347273 172.72201285700885 175.36940978359644 177.45743451215952 169.66543391433061 163.68812024638842 171.22652060253813 172.92751355162724 165.18706693458685 169.84061669004871 170.4356955261062 175.28959484445073 170.96248027086534 177.67376377611913 178.47525010163326 171.22875910914533 172.14803614859724 177.43610600955978 166.86823606097286 175.11813583319471 176.61771930092704 179.97621221957735 167.84812666202876 169.17268614275667 175.08304366300064 175.85011502060422 176.00392760692171 170.32953027721155 176.20749630036528 183.98626942198828 175.96305937228729 180.28330029892024 180.39310893792043 169.73950397080958 177.43825529745078 174.13549001927447 171.40651370245348 170.49063990610594 175.4307519563705 168.66711268061843
leaf_weight=125 22 1037 55 51 68 22 112 66 49 30 130 104 21 64 25 34 20 20 20 43 21 65 135 29 54 60 70 1718 76 72 20 23 138 27 121 42 59 65 91 23 44 92 100 30 67 159 21 40 48 135 27 31 24 145 35 74 55 42 70 50 35 76
leaf_count=125 22 1037 55 51 68 22 112 66 49 30 130 104 21 64 25 34 20 20 20 43 21 65 135 29 54 60 70 1718 76 72 20 23 138 27 121 42 59 65 91 23 44 92 100 30 67 159 21 40 48 135 27 31 24 145 35 74 55 42 70 50 35 76
internal_value=168.843 164.26 173.397 175.279 171.237 176.732 171.605 176.415 175.128 163.444 170.726 172.496 177.182 169.715 177.807 182.818 173.177 175.292 178.822 172.127 172.997 170.206 171.94 177.269 177.554 178.38 172.424 163.349 173.224 174.675 168.708 174.905 171.372 172.8 171.752 175.469 180.18 170.996 171.572 180.751 170.01 174.297 175.742 176.224 168.707 169.374 172.343 177.618 174.16 169.506 174.147 182.152 179.09 179.456 182.088 170.876 176.33 172.105 169.856 172.33 173.06 169.848
internal_weight=6427 3203 3224 1723 1501 1132 1433 1076 559 2805 919 591 297 534 517 56 514 138 159 385 265 120 498 437 412 283 358 2755 211 148 50 156 202 262 148 93 110 287 246 80 398 112 129 117 332 273 44 70 114 202 47 51 229 205 57 117 76 146 229 176 126 141
internal_count=6427 3203 3224 1723 1501 1132 1433 1076 559 2805 919 591 297 534 517 56 514 138 159 385 265 120 498 437 412 283 358 2755 211 148 50 156 202 262 148 93 110 287 246 80 398 112 129 117 332 273 44 70 114 202 47 51 229 205 57 117 76 146 229 176 126 141
is_linear=0
shrinkage=1


Tree=1
num_leaves=63
num_cat=0
split_feature=0 15 10 12 14 9 7 13 7 7 13 7 3 7 13 5 11 0 3 5 13 7 5 0 6 0 9 8 5 13 15 12 3 11 11 15 9 7 0 3 13 13 0 11 0 9 2 8 11 6 5 3 13 4 9 7 10 4 9 2 9 12
split_gain=4.84315e+07 5.57516e+06 4.66417e+06 2.50204e+06 1.42755e+06 783014 724862 718381 965061 634084 463169 380962 332257 318511 297961 357136 288771 274526 245589 244754 330051 294714 240984 237651 217768 193191 186881 195639 180459 179401 170096 156322 137878 136574 134773 149208 133491 132091 131653 123993 122311 120737 194252 129268 141634 117912 114721 109712 172904 105358 101803 101613 97579.7 97429.3 97221.9 96020 90510.1 87949.1 87451.6 86427.4 85356 84456.5
threshold=95.448750000000018 30.500000000000004 16.487500000000004 11.500000000000002 1.5000000000000002 353.09375000000006 258.09635416666669 4.5000000000000009 258.09635416666669 105.82589285714288 4.5000000000000009 88.707854166666678 230.06250000000003 213.65517361111114 1.0000000180025095e-35 115.25000000000001 77.006250000000009 148.58750000000001 227.67500000000004 86.86375000000001 3.5000000000000004 154.92708333333337 302.75000000000006 262.72500000000008 317.78833333333341 48.026250000000012 324.55625000000003 1.9662500000000003 350.12500000000006 5.5000000000000009 70.500000000000014 7.5000000000000009 213.58125000000004 85.522500000000022 88.747500000000016 13.500000000000002 216.79500000000004 249.48958333333334 60.121250000000011 176.62500000000003 5.5000000000000009 4.5000000000000009 185.80000000000004 78.007500000000007 309.58333333333343 201.01000000000002 140.84000000000003 0.90125000000000022 71.77000000000001 389.72500000000008 240.60000000000002 68.166250000000019 5.5000000000000009 104.07125000000002 236.55833333333337 294.22916666666674 20.776250000000001 404.87500000000006 122.37375000000002 79.540000000000006 169.53500000000003 11.500000000000002
decision_type=2 2 8 2 2 8 8 2 10 10 2 10 8 10 2 8 10 2 10 8 2 10 10 2 10 2 10 8 10 2 2 2 8 8 8 2 10 10 2 8 2 2 2 10 2 8 10 8 10 10 10 10 2 10 10 10 8 10 10 10 8 2
left_child=1 38 3 5 6 7 10 14 34 25 19 46 23 45 37 -16 -7 -17 28 21 56 -4 -14 -10 33 -3 27 39 47 -26 -11 59 -15 57 50 -36 55 -2 -1 53 54 -20 52 44 -44 -12 -5 51 -49 -42 -9 -8 -43 -19 -24 -25 -21 -13 -41 -22 -34 -47
right_child=2 9 4 11 -6 16 18 8 12 30 13 24 22 32 15 17 -18 26 41 20 31 -23 40 36 29 -27 -28 -29 -30 -31 -32 -33 60 -35 35 -37 -38 -39 -40 58 49 42 43 -45 -46 61 -48 48 -50 -51 -52 -53 -54 -55 -56 -57 -58 -59 -60 -61 -62 -63
leaf_value=-0.49947445990240324 3.6498982952487085 -5.7010102779152634 -1.4780904805218733 4.8105281094710035 -5.0586101910424617 17.738968485051938 0.82634967721026875 3.7761270595319347 6.5831462573336097 2.3066813291822164 -2.7377236482344181 2.3048890473523946 1.194487054007394 4.3203725248575209 4.207289120182395 7.065064105077794 10.387231605193195 13.843424358367921 5.3694804500449784 3.8480961607396602 4.326798801422119 3.5744113399136452 2.3963671493530274 9.9419793891906743 5.2216535179079449 -4.8561050676750117 5.8059215545654297 6.0778169631958008 9.8729748725891113 2.2337996541699279 -3.473609576225281 3.8798146131965852 -0.50464331444941068 0.89545806117736504 6.1237918429904514 2.0130330697564056 9.1501640707759542 7.3855097770690925 1.6335029668026384 7.7141655568723326 10.576078135172526 -0.75049362819879617 3.4200062432765961 0.16621851558270662 7.1479810431599624 1.1931049273298011 8.3887520835513154 5.055947970121335 10.266971473693848 6.6562859606742864 6.8024079163869224 4.7176506738508897 3.0669759016770586 10.581122310741527 6.9957982805040153 14.385632865659653 0.88168452299820876 5.0273922885457676 10.88701918318465 8.1650193301114182 2.2791352600455284 -0.51992309077766297
leaf_weight=94 31 1181 54 48 63 22 23 66 49 35 38 101 21 64 32 76 34 60 55 40 20 62 20 20 138 1584 20 20 21 79 20 72 38 137 27 121 59 100 314 27 30 47 125 23 32 127 42 78 20 40 48 62 26 37 27 31 72 42 111 55 100 166
leaf_count=94 31 1181 54 48 63 22 23 66 49 35 38 101 21 64 32 76 34 60 55 40 20 62 20 20 138 1584 20 20 21 79 20 72 38 137 27 121 59 100 314 27 30 47 125 23 32 127 42 78 20 40 48 62 26 37 27 31 72 42 111 55 100 166
internal_value=1.16468e-08 -4.32086 4.36003 6.13488 2.30632 7.51155 2.63308 7.21073 5.97016 -5.11124 1.78479 3.48708 7.92141 0.837569 8.55992 9.26397 13.2754 9.72498 4.13747 3.13109 3.98596 1.22238 6.12632 9.47942 2.94503 -5.21699 10.4601 10.8251 5.48302 4.13391 0.204757 5.54394 2.40218 2.02365 3.75824 2.76297 10.7696 6.50151 1.14208 11.2291 7.01152 3.24626 2.78469 3.667 4.17985 -0.11727 6.48037 4.97926 6.11942 8.3362 5.05035 3.66471 0.609153 12.599 5.03859 12.643 1.94112 3.10451 10.2662 7.14149 1.51259 0.222584
internal_weight=6427 3228 3199 1716 1483 1129 1420 1073 559 2820 908 587 297 533 514 383 56 351 512 375 259 116 138 159 497 2765 275 255 204 217 55 147 202 280 262 148 110 131 408 235 117 308 253 180 157 331 90 183 98 70 114 85 73 97 47 51 112 143 138 75 138 293
internal_count=6427 3228 3199 1716 1483 1129 1420 1073 559 2820 908 587 297 533 514 383 56 351 512 375 259 116 138 159 497 2765 275 255 204 217 55 147 202 280 262 148 110 131 408 235 117 308 253 180 157 331 90 183 98 70 114 85 73 97 47 51 112 143 138 75 138 293
is_linear=0
shrinkage=0.05


Tree=2
num_leaves=63
num_cat=0
split_feature=0 15 10 12 14 14 9 7 13 7 7 13 7 5 7 12 3 5 13 0 5 11 3 7 5 0 1 1 8 9 10 12 11 15 15 15 9 13 7 3 9 4 5 3 7 13 2 11 0 5 13 8 6 9 10 11 5 7 0 7 13 9
split_gain=4.37181e+07 4.6726e+06 4.36753e+06 2.3046e+06 1.48025e+06 772905 721839 707096 632191 762016 417855 417326 435263 299767 363035 275608 260020 254717 296300 295180 204552 202777 196423 204109 235072 180907 147333 143140 140230 140702 131399 130372 125094 170551 116313 145376 114620 112512 110861 104950 103220 102698 96393.8 96223.9 94539.1 93140.1 92121 90076.1 102924 114458 97873 89827.5 87593.5 85765.3 84621.6 81610.7 80465.6 77150.4 71689.2 91376.3 71378.8 69682.4
threshold=93.015000000000015 30.500000000000004 16.487500000000004 11.500000000000002 1.5000000000000002 1.0000000180025095e-35 17.058750000000003 313.95788043478268 4.5000000000000009 258.09635416666669 119.9459090909091 4.5000000000000009 213.65517361111114 176.43333333333337 209.4849479166667 9.5000000000000018 191.18750000000003 115.25000000000001 1.0000000180025095e-35 148.58750000000001 305.97500000000008 77.006250000000009 81.613750000000024 139.48767361111115 96.125000000000014 45.692500000000003 259.08750000000003 305.91666666666669 1.7741666666666671 252.32000000000002 18.627500000000001 14.500000000000002 88.747500000000016 22.500000000000004 30.500000000000004 43.000000000000007 326.28875000000005 5.5000000000000009 249.48958333333334 176.62500000000003 232.87500000000003 88.735000000000014 240.60000000000002 213.58125000000004 256.91046875000006 1.0000000180025095e-35 99.037500000000009 84.50500000000001 206.52500000000001 134.96500000000003 5.5000000000000009 0.25166666666666676 71.630208333333357 216.79500000000004 15.277500000000003 88.267500000000013 130.30500000000004 211.59548611111111 157.45000000000002 154.92708333333337 3.5000000000000004 93.502500000000012
decision_type=2 2 8 2 2 2 10 8 2 10 10 2 10 10 8 2 8 8 2 2 10 10 8 10 8 2 10 8 8 10 8 2 10 2 2 2 8 2 10 8 10 10 10 8 10 2 10 10 2 8 2 8 8 10 8 10 10 10 2 10 2 10
left_child=1 30 3 6 5 -4 21 11 17 32 25 22 58 14 -5 36 26 -8 38 -20 -18 -2 46 24 -24 -3 -11 -15 29 39 -1 61 42 -34 -16 -36 -14 40 -19 41 -22 -21 -10 -23 -38 -25 -7 48 50 -50 -17 -32 60 -28 -27 -41 57 -47 -13 -60 -53 -9
right_child=2 10 4 13 -6 7 8 31 9 16 -12 12 15 27 34 47 20 18 19 28 37 43 23 45 -26 54 53 -29 -30 -31 51 -33 33 -35 35 -37 44 -39 -40 55 -42 -43 -44 -45 -46 56 -48 -49 49 -51 -52 52 -54 -55 -56 -57 -58 -59 59 -61 -62 -63
leaf_value=2.5227116062803177 14.992121024926504 -5.461560401208839 -3.9754410298665364 1.5889943125696542 -4.8224646790386885 4.1256810348767505 3.6238891447744059 5.4244669620807358 3.3930515906390024 7.2761722660064692 0.39678737891686933 -0.91800576429160552 2.3993630170822144 0.67893737837419676 5.7969538187243277 -0.26357339553228798 2.5363913844613468 3.5020941471231399 6.369562534852462 14.834053887261286 2.3064797401428225 11.674986325777494 -1.4776071999935394 1.7871155979456725 3.8109732540030232 -1.3970401740074159 13.091758092244469 3.106984453773499 6.3455124354362491 7.8151552998501321 -2.3641162725595328 4.1791242820749046 4.4774033965771656 0.81650217639075395 1.1826781846795764 6.0657928961294667 4.3192621298730378 8.1591224567310245 7.0428716064781272 11.118275833129884 6.8853972405195236 10.933476782904732 6.1943334443228588 8.3614700775146495 7.869643428325654 2.816184102881838 8.2588239329201851 -1.0708549728760353 4.8056481710836003 1.9481006381800399 2.4499115728941123 -1.4761353306472302 1.37826367628925 9.2738609916285473 -4.6688189823493111 8.3909185727437343 6.6562808266392466 4.7060989256258372 -0.87305742705410183 1.3970479759463559 1.7353228449821474 8.0808988188175448
leaf_weight=103 24 1068 45 96 73 26 31 52 68 60 37 114 41 118 194 73 34 29 77 27 20 39 47 54 38 20 24 125 25 46 26 109 57 72 35 27 50 74 93 64 32 45 56 50 30 108 28 26 51 112 61 62 170 38 1668 48 27 108 66 135 24 47
leaf_count=103 24 1068 45 96 73 26 31 52 68 60 37 114 41 118 194 73 34 29 77 27 20 39 47 54 38 20 24 125 25 46 26 109 57 72 35 27 50 74 93 64 32 45 56 50 30 108 28 26 51 112 61 62 170 38 1668 48 27 108 66 135 24 47
internal_value=2.64747e-09 -4.1696 4.07848 5.79839 2.1245 2.47473 7.12163 2.68161 6.70157 5.51638 -4.88142 2.21331 1.50513 3.27867 4.21114 2.51366 7.30374 8.00895 8.30837 9.08268 5.97797 10.9134 3.44613 3.04712 0.886699 -4.95228 9.04245 1.92793 9.90194 10.2885 0.994297 5.37211 3.52415 2.43411 5.19445 3.3092 4.54898 6.90665 6.20121 10.9068 5.12428 12.3962 4.65815 9.81346 5.65066 3.66542 6.26879 1.7512 1.99825 2.84218 0.97167 0.436047 0.720438 10.7518 -4.63005 9.94941 4.08282 3.76114 0.0835779 0.65164 -0.579914 6.6856
internal_weight=6427 3178 3249 1728 1521 1448 1133 1403 1020 535 2793 1195 759 595 352 444 282 485 454 332 160 113 436 382 85 2756 122 243 255 230 385 208 253 129 256 62 121 126 122 184 52 72 124 89 80 297 54 323 297 163 134 282 256 62 1688 112 243 216 315 201 86 99
internal_count=6427 3178 3249 1728 1521 1448 1133 1403 1020 535 2793 1195 759 595 352 444 282 485 454 332 160 113 436 382 85 2756 122 243 255 230 385 208 253 129 256 62 121 126 122 184 52 72 124 89 80 297 54 323 297 163 134 282 256 62 1688 112 243 216 315 201 86 99
is_linear=0
shrinkage=0.05


Tree=3
num_leaves=63
num_cat=0
split_feature=0 15 10 12 14 9 7 13 7 7 7 13 4 7 5 1 13 0 11 5 13 12 3 12 12 9 0 5 15 2 4 9 3 3 8 12 6 11 15 3 5 4 15 8 0 13 0 11 12 5 9 4 9 7 5 13 5 4 9 9 9 12
split_gain=3.94631e+07 4.53575e+06 3.80029e+06 2.05345e+06 1.16261e+06 668605 596714 555562 805860 520361 436668 376890 301995 257172 243318 242750 241973 214659 209476 205580 246225 210188 204412 195825 167253 158865 158158 152997 148453 136586 132178 120808 117984 117603 116491 151563 128063 111895 112662 110816 109205 106730 103617 127646 99688.6 99575.8 165502 125372 104426 96388.7 95919.5 94827.2 90440.2 90094.3 87162.3 84414 77241.9 76556.9 73404.1 72288.6 71602.1 71248.6
threshold=95.448750000000018 30.500000000000004 16.487500000000004 10.500000000000002 1.5000000000000002 353.09375000000006 258.09635416666669 4.5000000000000009 258.09635416666669 105.82589285714288 86.252774003623202 4.5000000000000009 130.27500000000003 213.65517361111114 336.08333333333343 305.91666666666669 5.5000000000000009 148.58750000000001 77.006250000000009 76.277500000000018 3.5000000000000004 17.500000000000004 227.67500000000004 7.5000000000000009 7.5000000000000009 168.14375000000004 48.026250000000012 350.12500000000006 70.500000000000014 140.84000000000003 91.351250000000007 256.46000000000004 201.80000000000004 213.58125000000004 0.27750000000000008 7.5000000000000009 69.452500000000015 88.747500000000016 13.500000000000002 285.25000000000006 178.62500000000003 113.79625000000001 34.500000000000007 0.40125000000000005 126.03000000000002 4.5000000000000009 206.52500000000001 78.007500000000007 12.500000000000002 220.87500000000003 114.76875000000001 138.58333333333334 199.12500000000003 156.33369791666669 86.86375000000001 5.5000000000000009 240.60000000000002 68.047500000000014 169.53500000000003 170.77875000000003 169.53500000000003 10.500000000000002
decision_type=2 2 8 2 2 8 8 2 10 10 10 2 10 10 8 10 2 2 10 8 2 2 10 2 2 10 2 10 2 10 8 10 8 8 8 2 8 10 2 8 10 8 2 8 2 2 2 10 2 10 8 10 10 10 10 2 10 10 8 8 10 2
left_child=1 34 3 5 6 7 11 12 37 26 29 19 17 44 32 42 39 -2 -7 21 51 -4 27 59 31 -18 -3 50 -11 -5 -26 41 -10 -15 -1 -36 -37 56 -39 -16 -17 52 43 -12 -13 -24 55 48 -48 -50 -8 -21 -19 -25 -52 -47 -9 -46 -35 -22 -31 -59
right_child=2 9 4 10 -6 18 22 8 14 28 15 13 -14 33 16 40 25 24 -20 20 23 -23 45 53 30 -27 -28 -29 -30 60 -32 -33 -34 58 35 36 -38 38 -40 -41 -42 -43 -44 -45 57 46 47 -49 49 -51 54 -53 -54 -55 -56 -57 -58 61 -60 -61 -62 -63
leaf_value=-1.9718509745597839 6.2189864564297812 -5.1469806299383212 -1.3169813853616898 4.4383408115460323 -4.5645564730205228 16.147032893787731 2.2315464870349784 3.3218409254270442 7.0110988554747209 2.1661600412641255 1.107922502769821 -1.7365887403488161 6.0071371759687153 3.9301283679902554 7.8097172323262916 5.5957818828051602 13.209372145554116 11.302321105307721 9.7675871372222911 -1.4948565445095303 3.9207319450378422 3.8845420875856953 4.8568582881580706 0.48480636129776644 6.1165857371645718 8.7990218286928918 -4.3825105045630472 9.0114653314862938 -3.2338751411065463 5.6354606548945112 9.6155764493075289 7.5229979583195279 3.3895266283642167 -0.53368868325885976 3.7444043220214129 -1.0164557316458562 1.3855706027408285 5.397127060268236 1.4888715338963336 4.0068503427505489 3.3260719279324791 9.5134095368561926 0.7318406466733326 3.5568572752667174 -2.3331465331216652 -0.33014919701321377 7.2340917587280273 0.088825852974601424 4.3269027067082275 0.98353811001469349 6.1312991508415777 2.2966343238315683 15.316754608154298 3.9933624307830615 3.6597151056412729 2.7263493215715564 5.8680657886109264 1.6781388857207884 2.0478451768551023 7.4145313748142172 9.2908739553915485 -0.095605505743752359
leaf_weight=30 67 1181 52 52 63 22 37 68 46 35 87 73 147 64 53 79 29 47 31 20 20 31 55 24 53 69 1584 21 20 21 55 28 44 38 53 71 254 23 93 30 161 54 110 137 24 58 22 23 84 29 84 94 20 77 62 37 53 96 100 57 37 138
leaf_count=30 67 1181 52 52 63 22 37 68 46 35 87 73 147 64 53 79 29 47 31 20 20 31 55 24 53 69 1584 21 20 21 55 28 44 38 53 71 254 23 93 30 161 54 110 137 24 58 22 23 84 29 84 94 20 77 62 37 53 96 100 57 37 138
internal_value=7.29365e-09 -3.90033 3.93569 5.53777 2.08191 6.9459 2.37678 6.64978 5.50289 -4.61324 3.41323 1.60712 7.88677 0.752671 7.36522 2.86018 8.42168 8.73957 12.4157 2.82158 3.44573 0.625756 3.74174 4.60768 9.39668 10.1041 -4.70903 4.96931 0.202511 6.2991 7.89848 10.4826 5.24055 2.15858 1.02712 1.26513 0.86082 3.37338 2.26378 6.43519 4.07318 11.1675 1.98857 2.60571 -0.105313 2.92867 2.50949 3.50111 4.08246 3.46887 4.50546 1.63146 12.5007 3.15965 5.08172 0.860277 4.43713 0.356249 1.33699 6.50705 7.96736 0.632085
internal_weight=6427 3228 3199 1716 1483 1032 1420 979 508 2820 684 908 471 533 271 574 181 324 53 375 292 83 512 178 257 98 2765 204 55 110 108 149 90 202 408 378 325 237 116 83 240 121 334 224 331 308 253 158 135 113 183 114 67 101 146 95 121 258 138 77 58 234
internal_count=6427 3228 3199 1716 1483 1032 1420 979 508 2820 684 908 471 533 271 574 181 324 53 375 292 83 512 178 257 98 2765 204 55 110 108 149 90 202 408 378 325 237 116 83 240 121 334 224 331 308 253 158 135 113 183 114 67 101 146 95 121 258 138 77 58 234
is_linear=0
shrinkage=0.05


Tree=4
num_leaves=63
num_cat=0
split_feature=0 15 10 12 14 14 9 7 13 7 7 13 7 5 7 12 5 13 0 3 5 11 3 7 0 5 1 8 9 1 10 12 11 15 15 15 9 7 3 10 10 11 7 4 5 7 3 13 11 0 13 5 7 9 8 5 11 7 1 10 9 5
split_gain=3.56208e+07 3.8015e+06 3.55606e+06 1.89031e+06 1.20684e+06 658957 598541 589646 513547 620237 346365 344082 350381 255547 304328 229054 217809 244943 241577 215618 173732 162987 159997 220717 156856 146899 128424 122530 121763 120810 111688 109534 104573 123910 103880 124258 100827 100590 99380.5 98847.9 96548 84810 82633.6 80127.8 78777.3 78534 76550.1 76197.2 75843.3 84868.9 100198 86646.8 74620.3 74432.4 73351.2 67837 66972.2 64136.7 62509.3 62373.1 61882.5 61605.3
threshold=93.015000000000015 30.500000000000004 16.487500000000004 11.500000000000002 1.5000000000000002 1.0000000180025095e-35 17.058750000000003 313.95788043478268 4.5000000000000009 258.09635416666669 127.03494949494952 4.5000000000000009 213.65517361111114 176.43333333333337 209.4849479166667 9.5000000000000018 115.25000000000001 1.0000000180025095e-35 148.58750000000001 191.18750000000003 305.97500000000008 76.156250000000014 87.001250000000013 139.48767361111115 49.498750000000008 96.125000000000014 259.08750000000003 1.7741666666666671 295.75000000000006 305.91666666666669 18.627500000000001 14.500000000000002 88.747500000000016 13.500000000000002 30.500000000000004 43.000000000000007 326.28875000000005 249.48958333333334 285.25000000000006 12.012500000000001 16.002500000000005 89.741250000000022 247.91145833333334 64.501250000000013 240.60000000000002 256.91046875000006 120.53750000000001 1.0000000180025095e-35 84.50500000000001 188.58333333333334 5.5000000000000009 174.02500000000003 291.14583333333343 216.79500000000004 1.6512500000000003 130.30500000000004 47.288750000000007 252.72526041666671 75.46250000000002 11.662500000000003 93.502500000000012 118.46250000000002
decision_type=2 2 8 2 2 2 10 8 2 10 10 2 10 10 8 2 8 2 2 8 10 10 8 10 2 8 10 8 10 8 8 2 8 2 2 2 8 10 8 10 8 10 8 10 10 10 8 2 10 2 2 10 10 10 8 10 10 10 10 10 10 8
left_child=1 30 3 6 5 -4 21 11 16 32 24 22 -13 14 -5 36 -8 37 -19 26 -21 -2 43 25 -3 -24 -11 28 -20 59 58 60 44 -34 61 -36 -14 -18 -22 -40 -26 -41 -23 -7 -10 -38 -32 -25 49 50 -17 -51 -44 -28 -35 57 -33 -49 -1 -15 -9 -16
right_child=2 10 4 13 -6 7 8 31 9 19 -12 12 15 29 34 48 17 18 27 20 38 42 23 47 40 -27 53 -29 -30 -31 46 56 33 54 35 -37 45 -39 39 41 -42 -43 52 -45 -46 -47 -48 55 -50 51 -52 -53 -54 -55 -56 -57 -58 -59 -60 -61 -62 -63
leaf_value=3.7581658994042599 13.859117221832276 -4.8706739084282855 -3.721202998691135 1.4115187507122755 -4.354360474625679 8.0389258003234865 3.1726868160309332 4.8979810769741352 3.2083587541244927 6.5278972880045574 1.1273677119186947 0.079462331599659389 2.0990955364413377 2.1928708887253054 3.96634994686627 -0.71291555093632919 3.0176084649973904 5.7540798342073121 9.6660577028138306 2.214625008316601 8.3012004482746118 10.934470490848318 -1.4570184368154278 1.5892573235081693 -1.5926026215424409 2.9543384477496151 11.952717272440594 5.6252539596557618 5.583168529868126 2.7874070139467717 -0.19387992749480826 1.8230468496199579 5.3428971149303299 2.1559819919522853 0.96496346133095878 5.4794837916338892 3.9350267882347105 6.3903712775117611 6.9406997084617617 5.6917726625095719 -4.1789024221317019 1.1930237996578217 5.9083003785875112 4.2353069951799176 5.9210355675738793 7.1709502617518117 1.5632209017224934 2.9314050973741557 -1.02485144505134 3.3134573221743646 2.5533713939862377 1.212728575346145 9.5037216886397342 8.3959999184859431 -1.1725434885546566 6.0781200739520571 4.5703237909537098 4.9481317148758812 1.2604046885420879 -0.25091966980054409 7.401327543055757 5.8854131180989118
leaf_weight=43 21 1269 45 96 73 20 31 52 64 60 28 315 41 39 61 59 29 77 210 34 40 34 46 51 37 32 24 25 20 125 190 31 27 96 35 27 50 93 44 22 1459 20 27 45 46 30 92 163 26 111 39 88 31 38 20 27 78 52 60 79 47 133
leaf_count=43 21 1269 45 96 73 20 31 52 64 60 28 315 41 39 61 59 29 77 210 34 40 34 46 51 37 32 24 25 20 125 190 31 27 96 35 27 50 93 44 22 1459 20 27 45 46 30 92 163 26 111 39 88 31 38 20 27 78 52 60 79 47 133
internal_value=-2.92557e-08 -3.76371 3.68146 5.23339 1.91832 2.23455 6.43181 2.42558 6.0493 4.9811 -4.40575 1.99793 1.35489 2.95136 3.81231 2.25975 7.22763 7.50451 8.20853 6.59363 5.38635 9.88454 3.11735 2.71644 -4.46178 0.352769 8.17694 8.94967 9.31102 1.70422 0.894038 4.88249 3.18373 2.29218 4.71261 2.93096 4.11523 5.58865 6.24221 5.28454 -4.11494 3.54951 8.9773 5.40565 4.34275 5.1485 0.379359 3.34568 1.56467 1.79136 0.586933 2.38449 7.82999 9.77279 1.5821 3.71583 3.78899 3.41917 2.30316 0.556774 6.08644 5.282
internal_weight=6427 3178 3249 1728 1521 1448 1133 1403 1020 535 2793 1195 759 595 352 444 485 454 332 282 160 113 436 371 2765 78 122 255 230 243 385 208 253 143 256 62 121 122 126 86 1496 42 92 65 110 80 282 293 323 297 98 199 58 62 116 242 109 215 103 118 99 194
internal_count=6427 3178 3249 1728 1521 1448 1133 1403 1020 535 2793 1195 759 595 352 444 485 454 332 282 160 113 436 371 2765 78 122 255 230 243 385 208 253 143 256 62 121 122 126 86 1496 42 92 65 110 80 282 293 323 297 98 199 58 62 116 242 109 215 103 118 99 194
is_linear=0
shrinkage=0.05


Tree=5
num_leaves=63
num_cat=0
split_feature=0 15 10 12 14 14 7 9 13 7 7 13 5 7 3 6 3 4 7 3 5 5 5 3 12 0 15 1 0 5 9 11 15 8 12 7 15 1 11 15 15 7 9 8 10 9 10 6 11 15 13 9 9 8 5 15 15 7 4 4 12 5
split_gain=3.21564e+07 3.68912e+06 3.09883e+06 1.51774e+06 983993 554358 591421 491506 453795 552464 429652 360301 348779 329873 235036 220260 194396 193440 189026 174174 182060 160528 156364 145843 134762 131913 127345 124708 123844 106674 106271 106258 107254 104797 131830 113223 101566 101206 92554.4 83652.6 82515.2 96375.3 81158 127423 82050 75780.5 75377.9 80981 70901.1 69010.8 72847.6 67175.2 66777.8 63683.1 62471.8 87065.6 58983.8 58279.5 57251.6 55880.7 56323.5 54589.3
threshold=95.448750000000018 30.500000000000004 15.562500000000002 10.500000000000002 1.5000000000000002 1.0000000180025095e-35 313.95788043478268 17.058750000000003 4.5000000000000009 258.09635416666669 105.82589285714288 4.5000000000000009 578.75000000000011 213.65517361111114 186.81250000000003 317.78833333333341 87.001250000000013 130.27500000000003 139.48767361111115 191.18750000000003 305.97500000000008 115.25000000000001 96.125000000000014 201.80000000000004 14.500000000000002 44.315000000000005 70.500000000000014 138.58333333333334 148.58750000000001 176.43333333333337 295.75000000000006 89.242500000000021 13.500000000000002 0.29750000000000004 7.5000000000000009 95.952948717948743 45.500000000000007 259.08750000000003 37.763750000000009 21.500000000000004 6.5000000000000009 234.65625000000003 186.44750000000002 0.3262500000000001 12.012500000000001 324.55625000000003 22.225000000000005 290.20833333333337 89.991250000000022 10.500000000000002 3.5000000000000004 216.79500000000004 6.5837500000000011 0.89291666666666691 62.017500000000005 79.500000000000014 40.500000000000007 135.67083333333338 304.62500000000006 112.00625000000001 17.500000000000004 350.12500000000006
decision_type=2 2 8 2 2 2 8 10 2 10 10 2 8 10 8 10 8 10 10 8 10 8 8 8 2 2 2 10 2 10 10 10 2 8 2 8 2 10 10 2 2 10 10 8 10 8 8 10 10 2 2 10 10 10 8 2 2 8 10 10 2 8
left_child=1 33 3 7 5 -4 11 23 17 31 25 16 15 -13 61 39 -7 21 22 37 -21 -9 -18 -2 49 56 -12 -14 -23 -17 36 -10 -33 -1 -35 -36 57 -11 40 -5 41 -16 -22 44 -44 -20 47 -40 -41 50 -8 -39 -25 -26 -27 -56 -3 -30 -19 -47 -61 -15
right_child=2 10 4 12 -6 6 24 8 9 19 26 13 27 14 38 29 18 58 45 20 42 28 -24 52 53 54 -28 -29 30 -31 -32 32 -34 34 35 -37 -38 51 46 48 -42 -43 43 -45 -46 59 -48 -49 -50 -51 -52 -53 -54 -55 55 -57 -58 -59 -60 60 -62 -63
leaf_value=-1.8714434454517983 11.65782350580743 -5.3751761949394812 -3.6294222220396386 2.5349055439986365 -4.118610691645789 5.571302531046026 4.1971840708863501 3.5255663397163155 4.1105569476527828 6.3084576948633737 2.0308961153030398 0.12416285231160971 4.2904630483086432 3.8414784960448745 3.2525325475067932 4.9540889835357671 -1.3463504356272677 4.9710576850588959 3.8153891467868384 1.5016017762514262 8.9540500822521398 6.0476488182761452 3.2282819955579698 9.6390177249908451 2.9939978016837641 -4.2907005905700029 -2.9705213612318042 7.693626703686185 11.265627490452358 2.8252632599893737 5.2312878203392037 5.0097471757368615 1.088013404607773 3.4645968784701147 -1.3630096973564765 1.1833721450803911 5.6791236490011219 11.355081494649252 1.2136969458585405 1.7117005869098332 4.1870707528065827 -1.2591330474615097 6.5677490407770343 8.3203101193463365 2.6919546931982041 4.3213609116077425 -0.1399808271297891 3.6327864386314568 -0.61806306415988566 7.9674504771377102 7.7576486802101137 7.9762000435277036 6.1539866822106504 5.6073156902866979 -3.7721668911308699 -0.43553614854812628 -4.4881824560664798 8.9877192218538742 7.5630049387613942 0.96500884773026052 3.81199600385583 6.7793547777902523
leaf_weight=31 47 251 39 99 63 68 51 20 112 53 35 326 67 64 29 90 47 101 199 26 21 55 31 27 94 883 20 45 35 170 20 22 84 53 52 272 20 24 177 69 59 20 22 27 36 25 76 43 62 33 20 38 28 31 871 20 740 142 27 71 23 21
leaf_count=31 47 251 39 99 63 68 51 20 112 53 35 326 67 64 29 90 47 101 199 26 21 55 31 27 94 883 20 45 35 170 20 22 84 53 52 272 20 24 177 69 59 20 22 27 36 25 76 43 62 33 20 38 28 31 871 20 740 142 27 71 23 21
internal_value=-1.46496e-08 -3.52079 3.5527 5.11914 2.0067 2.25615 2.40836 6.32597 5.94718 4.87114 -4.16373 1.98937 3.1405 1.35616 2.17749 2.56511 3.10158 7.1385 2.67749 6.49025 5.25095 7.84895 0.471773 9.61258 4.74846 -4.25077 0.212199 5.65781 8.16685 3.56216 8.70397 3.03665 1.90196 0.923063 1.15285 0.774694 9.05653 7.91275 1.67469 1.43801 2.92757 1.41104 6.17061 5.48293 4.16208 3.21852 1.21755 1.68652 0.609064 6.07822 5.20013 9.28415 7.86482 3.6421 -3.99265 -3.69727 -4.71284 9.43815 5.5178 2.22038 1.66161 4.56731
internal_weight=6427 3228 3199 1589 1610 1547 1508 987 885 465 2820 1279 602 815 489 490 464 420 396 247 132 292 78 102 229 2765 55 112 272 260 217 218 106 408 377 324 197 115 404 230 108 49 106 85 58 318 296 220 131 104 71 62 55 125 1774 891 991 177 128 119 94 85
internal_count=6427 3228 3199 1589 1610 1547 1508 987 885 465 2820 1279 602 815 489 490 464 420 396 247 132 292 78 102 229 2765 55 112 272 260 217 218 106 408 377 324 197 115 404 230 108 49 106 85 58 318 296 220 131 104 71 62 55 125 1774 891 991 177 128 119 94 85
is_linear=0
shrinkage=0.05


Tree=6
num_leaves=63
num_cat=0
split_feature=0 15 10 12 14 14 9 7 5 13 7 13 7 5 7 0 11 12 6 13 5 7 5 12 13 12 0 0 7 11 11 12 15 15 3 4 10 13 7 12 9 13 10 15 8 7 3 9 7 7 15 6 7 9 7 11 0 5 5 0 7 11
split_gain=2.90218e+07 3.09249e+06 2.90248e+06 1.55421e+06 983705 535117 501938 480703 439784 432270 285802 281047 285704 215840 251916 211184 210082 190714 187211 163541 152954 132766 131623 216239 191275 152745 130104 128518 127944 125991 123323 117516 116550 111468 108177 100389 96588.1 96264.5 91793 88883.7 86811.4 85589.3 85588.1 84032.1 82240.5 73598 73476.8 72698.2 69450.1 69026.3 83203.7 67109.4 65234.2 64084.4 63857.6 63524.8 73128.4 94435 73923.8 60065.2 80187.9 58863.5
threshold=93.015000000000015 30.500000000000004 16.487500000000004 11.500000000000002 1.5000000000000002 1.0000000180025095e-35 353.09375000000006 313.95788043478268 345.75000000000006 4.5000000000000009 127.03494949494952 4.5000000000000009 213.65517361111114 203.25000000000003 209.4849479166667 313.50000000000006 77.006250000000009 9.5000000000000018 334.58333333333343 5.5000000000000009 244.75000000000003 119.9459090909091 76.277500000000018 17.500000000000004 3.5000000000000004 7.5000000000000009 45.263750000000009 136.67500000000004 256.91046875000006 89.242500000000021 89.776250000000019 13.500000000000002 30.500000000000004 21.500000000000004 103.06500000000001 91.351250000000007 19.062500000000004 5.5000000000000009 156.33369791666669 14.500000000000002 326.28875000000005 5.5000000000000009 15.277500000000003 37.500000000000007 0.47375000000000006 294.22916666666674 143.85000000000002 236.55833333333337 256.91046875000006 277.81929347826093 22.500000000000004 341.08333333333343 115.59278002699057 194.25250000000003 216.18750000000003 84.50500000000001 206.52500000000001 156.18333333333337 113.51250000000002 157.45000000000002 154.92708333333337 47.288750000000007
decision_type=2 2 8 2 2 2 8 8 8 2 10 2 10 10 8 2 10 2 10 2 10 8 8 2 2 2 2 2 10 10 8 2 2 2 10 10 8 2 10 2 8 2 8 2 8 10 10 10 10 10 2 10 8 10 10 10 2 8 10 2 10 10
left_child=1 36 3 6 5 -4 8 11 9 15 26 22 59 14 -5 34 -8 40 19 21 46 -10 23 -7 -24 -26 -3 -23 -20 54 -22 -15 -16 37 -2 -29 -1 -32 -27 -9 -14 47 -28 -34 -38 -21 -11 -30 -42 50 -36 -33 -46 -48 -17 56 58 -58 -19 -13 -61 -41
right_child=2 10 4 13 -6 7 16 39 18 20 -12 12 17 31 32 29 -18 55 28 45 30 27 24 -25 25 38 42 35 41 -31 33 51 43 -35 49 -37 44 -39 -40 61 48 -43 -44 -45 52 -47 53 -49 -50 -51 -52 -53 -54 -55 -56 -57 57 -59 -60 60 -62 -63
leaf_value=1.9806435016791024 7.7293951381336559 -4.467577302136184 -3.3514091322157125 1.2357239963360205 -3.9330849013916436 -1.0506600927196297 14.234118981794879 5.4906464120354315 9.9683194259117389 3.4871068935183924 1.0498344438416618 -0.84804357551691822 1.8598735074217363 2.7865178351542532 4.7015549613215102 11.083631719391922 7.9635327479418594 -0.90612561131931013 1.2981980252265932 8.1533003358279963 6.0142319343459443 4.1097044720649718 1.709731394533188 3.7046815535757278 5.9781192214865442 0.3791459977626801 -0.58758963176182344 8.0046837423528938 2.8161498615235994 6.3413967417432122 2.5590704636140305 -0.50271608955875224 0.40812430650957171 1.4279326715929943 4.6705271773868136 6.0117746973859854 -1.7305619722188905 7.1380110939343773 3.7762136180339194 1.5779795862013295 3.5482662017345428 7.2674726785497477 -3.7992743942159066 3.8957392044556451 -0.29687037955630913 11.815458165044371 -0.90531742622454969 6.1350179831186935 6.5912942935029664 6.3826887798309331 1.1366883835484904 1.9338275801051747 1.4274347083355354 2.1308781154808543 7.4111429500579833 -0.9666098255377551 3.7811387711627917 1.3294102899499776 1.5805159113380347 -0.83958238202965618 1.2870068364231675 4.1535780219695502
leaf_weight=120 22 1044 45 103 73 51 22 99 29 68 28 114 41 85 214 29 34 45 20 34 71 50 124 45 76 24 21 112 33 77 22 79 31 44 36 145 43 24 116 31 50 47 1700 39 99 23 24 33 30 20 31 44 123 63 20 26 66 97 89 66 135 78
leaf_count=120 22 1044 45 103 73 51 22 99 29 68 28 114 41 85 214 29 34 45 20 34 71 50 124 45 76 24 21 112 33 77 22 79 31 44 36 145 43 24 116 31 50 47 1700 39 99 23 24 33 30 20 31 44 123 63 20 26 66 97 89 66 135 78
internal_value=2.45816e-08 -3.39724 3.323 4.72508 1.7301 2.01561 5.81174 2.18775 5.57177 4.58458 -3.97632 1.80162 1.22046 2.65584 3.354 6.20856 10.427 2.03755 6.60587 7.15462 3.37687 6.73452 2.81333 1.17841 3.27495 4.17351 -4.02722 6.42905 4.98439 7.60266 4.45622 1.35686 4.12225 3.22712 4.59703 6.88028 0.803759 4.94808 3.19386 4.40611 3.73064 5.63681 -3.76008 2.35122 0.270831 9.63101 2.25575 4.47558 4.6894 3.80494 3.03547 0.368893 0.658488 1.29331 9.58466 1.4033 1.61077 2.32213 0.74545 0.0687509 0.588724 3.42107
internal_weight=6427 3178 3249 1728 1521 1448 1133 1403 1077 551 2793 1195 759 595 387 235 56 444 526 393 316 336 436 96 340 216 2765 307 133 126 161 208 284 90 109 257 385 46 140 208 121 113 1721 70 265 57 155 66 80 87 67 123 222 87 49 323 297 163 134 315 201 109
internal_count=6427 3178 3249 1728 1521 1448 1133 1403 1077 551 2793 1195 759 595 387 235 56 444 526 393 316 336 436 96 340 216 2765 307 133 126 161 208 284 90 109 257 385 46 140 208 121 113 1721 70 265 57 155 66 80 87 67 123 222 87 49 323 297 163 134 315 201 109
is_linear=0
shrinkage=0.05


Tree=7
num_leaves=63
num_cat=0
split_feature=0 15 10 12 14 14 7 9 13 7 7 5 13 7 3 2 13 3 7 3 0 0 5 3 12 15 1 6 13 12 4 3 4 4 11 15 0 7 11 15 5 15 7 6 10 6 5 9 3 10 2 11 10 1 8 12 8 7 7 9 4 9
split_gain=2.62018e+07 3.00183e+06 2.53088e+06 1.238e+06 800804 453746 482949 411947 375674 455343 354784 298498 294188 268394 196677 187226 161902 157360 158149 155311 149799 142645 130037 125501 110563 109238 108644 108568 104235 101391 114757 97207.4 94448.3 93854.2 91598.2 94222.9 88404 86413.3 80377 78593.9 78240.7 73344.2 84610.9 67898.3 66060.6 64273.8 80616.5 63885.5 61495.1 61418.2 60100.2 59678.6 59869 56603.4 55890.2 79385.3 55623.9 53899.6 53694.2 52618.7 65530.4 52017.6
threshold=95.448750000000018 30.500000000000004 15.562500000000002 10.500000000000002 1.5000000000000002 1.0000000180025095e-35 313.95788043478268 17.058750000000003 4.5000000000000009 258.09635416666669 105.82589285714288 578.75000000000011 4.5000000000000009 213.65517361111114 186.81250000000003 306.39166666666671 1.0000000180025095e-35 87.001250000000013 139.48767361111115 452.62500000000006 260.18125000000003 148.58750000000001 96.125000000000014 201.80000000000004 14.500000000000002 70.500000000000014 138.58333333333334 23.556666666666672 5.5000000000000009 7.5000000000000009 91.351250000000007 285.25000000000006 96.72375000000001 222.62500000000003 89.242500000000021 22.500000000000004 60.121250000000011 243.82291666666671 37.763750000000009 21.500000000000004 48.248750000000008 6.5000000000000009 229.80399305555559 456.81666666666672 15.562500000000002 288.02777777777783 193.61250000000004 324.55625000000003 234.25000000000003 12.012500000000001 405.58333333333343 89.991250000000022 11.323750000000002 388.75000000000006 0.29750000000000004 7.5000000000000009 0.89291666666666691 275.37381944444451 115.59278002699057 217.81833333333336 233.78750000000002 6.5837500000000011
decision_type=2 2 8 2 2 2 8 10 2 10 10 8 2 10 8 10 2 8 10 8 2 2 8 8 2 2 10 8 2 2 8 10 8 10 10 2 2 10 10 2 8 2 10 10 10 10 10 8 8 10 10 10 10 10 8 2 10 10 8 10 10 10
left_child=1 36 3 7 5 -4 12 23 16 34 27 15 17 -14 -15 39 37 -7 22 20 -11 -18 -19 -2 48 -12 -13 -3 43 32 50 59 -23 -30 -10 -36 -1 -9 41 -5 -29 42 -16 -17 -40 -46 -47 -20 -8 -33 -31 -41 -53 -34 -38 -56 -26 -43 -57 60 -22 -25
right_child=2 10 4 11 -6 6 24 8 9 19 25 26 13 14 38 28 21 18 47 -21 31 29 -24 61 56 -27 -28 40 33 30 -32 49 53 -35 35 -37 54 -39 44 51 -42 57 -44 -45 45 46 -48 -49 -50 -51 -52 52 -54 -55 55 58 -58 -59 -60 -61 -62 -63
leaf_value=-0.51471369196759897 10.618648305852362 -4.8331219527616085 -3.2899461159339318 2.4145623880015181 -3.7160258944072417 5.0209399361820779 6.998762718933385 2.1623245775699615 3.7183164481073621 3.8148200117811868 1.9027830181803023 3.8881118400161392 0.11044528802593977 4.1486928406927523 3.3609624214470388 3.5348573361833893 4.9812256271188913 -1.2582140595989024 3.4602339878753199 1.9438604271930195 6.5620563316345217 10.481928535787072 2.9135649668593562 8.6659925390172887 2.6793361116596994 -2.7294412142038347 7.0645316977798949 -4.1726580896182943 3.9400980445316862 3.0441544391490796 7.9919823206388036 6.6967060512966583 7.0587584332721995 0.6821136837204298 3.4372798096049912 0.41190580437260294 -1.2585603552205225 5.5470413641496137 -0.34553772979415953 1.4978523352079922 -3.5595091103792096 5.2938961090580108 -0.79532586479187017 6.3577310256958013 1.0271834606129822 4.6334976873090197 0.56184081071987746 1.9957503300504524 4.5107941583981592 3.1806326951669615 6.6604170727729795 1.7001565891504289 -1.5766361060349838 10.025429401397705 3.3438186875979108 -0.035223336498458664 5.1217025587635661 2.2674781671592168 1.5548465926309079 6.7785382485389709 10.149819275992257 5.5901396410805839
leaf_weight=94 47 249 39 88 63 68 41 24 112 49 35 67 326 85 24 144 66 47 199 23 20 41 31 27 94 20 45 735 35 27 52 27 82 60 44 62 21 88 64 72 1781 31 25 25 181 31 20 119 63 23 20 20 46 20 45 77 31 28 171 70 35 28
leaf_count=94 47 249 39 88 63 68 41 24 112 49 35 67 326 85 24 144 66 47 199 23 20 41 31 27 94 20 45 735 35 27 52 27 82 60 44 62 21 88 64 72 1781 31 25 25 181 31 20 119 63 23 20 20 46 20 45 77 31 28 171 70 35 28
internal_value=-2.48082e-09 -3.17813 3.20694 4.62257 1.80977 2.03481 2.17252 5.71252 5.36574 4.38669 -3.7581 2.83556 1.7939 1.22172 1.96258 2.30326 6.44968 2.7989 2.41734 5.85661 6.25837 7.04166 0.399801 8.72139 4.28716 0.218338 5.16435 -3.83719 3.20755 7.60359 6.37357 6.94256 8.45515 1.88242 2.72124 1.66772 0.830455 4.82174 1.50263 1.24692 -3.73863 2.67019 1.24041 3.95244 1.07663 1.46895 3.03677 2.9122 5.49163 5.07931 4.58299 0.502342 -0.583669 7.64046 1.23315 1.41174 3.28504 3.85763 1.06116 7.68786 8.84518 7.1001
internal_weight=6427 3228 3199 1589 1610 1547 1508 987 885 465 2820 602 1279 815 489 490 420 464 396 247 224 308 78 102 229 55 112 2765 264 242 99 175 143 95 218 106 408 112 404 226 2516 108 49 169 296 232 51 318 104 50 47 138 66 102 314 293 125 59 248 125 55 55
internal_count=6427 3228 3199 1589 1610 1547 1508 987 885 465 2820 602 1279 815 489 490 420 464 396 247 224 308 78 102 229 55 112 2765 264 242 99 175 143 95 218 106 408 112 404 226 2516 108 49 169 296 232 51 318 104 50 47 138 66 102 314 293 125 59 248 125 55 55
is_linear=0
shrinkage=0.05


Tree=8
num_leaves=63
num_cat=0
split_feature=0 15 10 12 14 9 5 7 13 7 13 7 11 0 6 7 6 3 5 5 13 7 13 5 12 7 11 7 11 0 15 13 0 15 13 3 11 1 0 4 13 8 12 3 6 3 5 13 10 2 0 3 13 7 8 0 3 5 7 15 4 12
split_gain=2.36471e+07 2.70916e+06 2.28789e+06 1.24345e+06 694894 415850 375572 374404 352357 320193 224096 211315 188993 177656 163887 147643 144579 137642 135984 134007 198353 151273 133727 132323 118609 108570 108438 108088 105462 101792 98587.5 94568.1 127522 94187.8 91046.7 85853 85773.9 84413 84175.5 84038.4 83931.7 81407.1 108406 94242.9 80648.5 79985.1 79127.5 74264 71458.8 67708.9 66778.9 66623.4 66187.3 63071.9 60467.2 60415.2 62353.8 60088.8 58656 72330.7 57791.3 85087.9
threshold=95.448750000000018 30.500000000000004 16.487500000000004 11.500000000000002 1.5000000000000002 353.09375000000006 345.75000000000006 258.09635416666669 4.5000000000000009 105.82589285714288 4.5000000000000009 315.94791666666669 77.006250000000009 313.50000000000006 334.58333333333343 213.65517361111114 317.78833333333341 227.67500000000004 350.12500000000006 80.705000000000013 3.5000000000000004 154.92708333333337 5.5000000000000009 244.75000000000003 7.5000000000000009 119.9459090909091 89.242500000000021 256.91046875000006 89.776250000000019 41.400000000000013 70.500000000000014 4.5000000000000009 206.52500000000001 21.500000000000004 5.5000000000000009 103.06500000000001 78.007500000000007 302.58333333333343 136.67500000000004 91.351250000000007 5.5000000000000009 0.27750000000000008 7.5000000000000009 104.51375000000002 166.82916666666668 213.58125000000004 61.503750000000004 5.5000000000000009 20.776250000000001 80.877500000000012 391.70000000000005 143.85000000000002 5.5000000000000009 294.22916666666674 0.82625000000000004 118.13750000000002 195.73375000000001 184.77500000000003 277.81929347826093 22.500000000000004 73.63375000000002 10.500000000000002
decision_type=2 2 8 2 2 8 8 8 2 10 2 8 10 2 10 10 10 8 8 8 2 10 2 10 2 8 10 10 8 2 2 2 2 2 2 10 10 10 2 10 2 8 2 8 10 8 10 2 8 10 2 10 2 10 8 2 10 10 10 2 10 2
left_child=1 41 3 5 7 6 8 10 13 29 19 16 -7 35 22 46 -5 18 -9 21 48 -4 25 51 49 -8 -15 -16 -25 -3 -11 54 -33 40 -18 -2 37 -34 -27 -40 -30 -1 -43 -44 -20 -17 -12 50 -21 -22 -29 -10 55 -24 -19 -13 -57 -53 59 -37 -48 -62
right_child=2 9 4 11 -6 12 14 17 23 30 15 52 -14 26 27 45 34 31 44 20 24 -23 53 28 -26 38 -28 47 33 -31 -32 32 36 -35 -36 58 -38 -39 39 -41 -42 42 43 -45 -46 -47 60 -49 -50 -51 -52 57 -54 -55 -56 56 -58 -59 -60 -61 61 -63
leaf_value=-1.7180795365571975 6.9090792926875029 -4.0949546005546704 -1.5596788228882685 1.1192003829697312 -3.5302245719092236 13.071623169292105 9.1152222788759651 2.9815602150002727 3.1698200163595818 1.8076438752242496 -2.2954037202729118 3.3328647187415594 7.1240936559789318 8.7140621457781116 1.0987539601325989 3.0939210396260024 3.6677661900175735 2.3038942279967856 4.2917677831649783 2.8220938026905062 2.8665307050659545 2.3997107394039632 7.3894423092112822 5.4847634369218854 2.5852401703596115 3.9159574326048507 5.7051960858431734 2.1520419755152296 2.2585876367308879 -3.4406364646397138 -2.5929691269248725 0.45847681050702022 2.2822614522843527 1.2535125285387041 1.0946034190502574 4.228091913461685 -0.076613492032755984 4.8603058872222906 7.2460827350616457 5.4226802634884574 6.5341678361097983 3.0846862869442635 -0.20809691313792161 1.4947852267992277 8.022916284629277 0.95536464958087264 -1.8923023386858404 6.6054732274501893 0.19905603107165648 6.2039337088844997 5.3700772937975429 -0.73043616056442273 2.3486763702971594 10.779616803708285 4.6988489715258286 7.3474132744471241 4.1744756761938335 2.0341378889585799 5.7891621208190926 0.93323443628126579 1.5739739988446235 -0.27437899441430064
leaf_weight=30 22 865 45 261 63 22 28 89 68 35 36 47 34 49 20 64 128 47 30 40 21 52 34 71 88 47 77 28 22 1900 20 98 87 44 47 36 23 50 112 145 24 53 162 163 28 138 30 47 74 55 38 30 42 23 60 30 32 57 20 31 100 165
leaf_count=30 22 865 45 261 63 22 28 89 68 35 36 47 34 49 20 64 128 47 30 40 21 52 34 71 88 47 77 28 22 1900 20 98 87 44 47 36 23 50 112 145 24 53 162 163 28 138 30 47 74 55 38 30 42 23 60 30 32 57 20 31 100 165
internal_value=-6.93303e-09 -3.01922 3.04659 4.28966 1.60823 5.26016 5.04094 1.8362 4.13045 -3.57019 1.22654 2.42304 9.46062 5.59665 6.00201 0.567678 1.86475 2.9174 4.20921 2.16301 2.72133 0.562881 6.52005 3.04007 3.83485 6.13592 6.87531 4.48686 4.04399 -3.64533 0.207421 2.39714 1.87884 2.90737 2.97669 4.11857 2.74881 3.22315 5.86151 6.21731 4.48933 0.788932 0.987901 0.645964 6.09301 1.63293 -0.0824131 5.08653 1.11942 5.28176 4.00485 1.99729 4.03506 8.75741 3.64686 4.68486 5.70977 1.08084 3.41293 2.70361 0.187647 0.423113
internal_weight=6427 3228 3199 1716 1483 1129 1073 1420 551 2820 908 587 56 235 522 533 436 512 147 375 278 97 389 316 164 332 126 133 161 2765 55 365 258 90 175 109 160 137 304 257 46 408 378 325 58 202 331 113 114 76 66 155 151 57 107 109 62 87 87 67 295 265
internal_count=6427 3228 3199 1716 1483 1129 1073 1420 551 2820 908 587 56 235 522 533 436 512 147 375 278 97 389 316 164 332 126 133 161 2765 55 365 258 90 175 109 160 137 304 257 46 408 378 325 58 202 331 113 114 76 66 155 151 57 107 109 62 87 87 67 295 265
is_linear=0
shrinkage=0.05


Tree=9
num_leaves=63
num_cat=0
split_feature=0 15 10 12 14 14 9 7 11 7 13 7 1 5 5 7 15 15 9 12 5 0 11 10 13 13 7 5 12 13 12 10 15 15 1 10 4 13 7 9 5 5 7 12 7 6 8 8 7 3 0 7 0 7 7 5 0 3 10 11 0 13
split_gain=2.13457e+07 2.26952e+06 2.13611e+06 1.14798e+06 724208 412405 380042 361847 315606 215715 211299 207807 189268 311628 174670 201345 150213 240811 169964 147467 116158 114032 112960 111084 110382 99159.7 143816 97369.6 172647 154178 117148 86963.5 85577.6 88959.9 83405.7 80405.9 79754.8 75864.2 74844.6 73037.7 71769.1 68584.3 67984 66688.2 65407.4 64551.1 64442.9 62420.1 57815.4 57783 56893.7 59633.7 53179.8 70547.4 52951.8 51628 58493.8 51589.7 51019.9 50098.1 56828.8 84638.9
threshold=93.015000000000015 30.500000000000004 16.487500000000004 11.500000000000002 1.5000000000000002 1.0000000180025095e-35 17.058750000000003 313.95788043478268 89.471250000000012 127.03494949494952 4.5000000000000009 213.65517361111114 321.10000000000008 250.05000000000004 176.43333333333337 209.4849479166667 21.500000000000004 23.500000000000004 222.13125000000002 9.5000000000000018 257.16666666666669 65.687500000000014 76.156250000000014 15.712500000000004 4.5000000000000009 5.5000000000000009 146.3368229166667 76.277500000000018 17.500000000000004 3.5000000000000004 7.5000000000000009 11.662500000000003 30.500000000000004 43.000000000000007 305.91666666666669 19.062500000000004 242.17250000000004 5.5000000000000009 156.33369791666669 326.28875000000005 184.77500000000003 300.25000000000006 119.9459090909091 14.500000000000002 247.91145833333334 23.556666666666672 0.47375000000000006 3.7100000000000004 256.91046875000006 209.12500000000003 136.67500000000004 351.28819444444451 157.45000000000002 154.92708333333337 291.14583333333343 193.61250000000004 201.12500000000003 227.67500000000004 11.662500000000003 84.50500000000001 188.58333333333334 5.5000000000000009
decision_type=2 2 8 2 2 2 10 8 8 10 2 10 8 8 10 8 2 2 10 2 10 2 10 8 2 2 10 8 2 2 2 10 2 2 8 8 10 2 10 8 10 10 8 2 8 8 8 10 10 8 2 8 2 10 10 10 2 10 10 10 2 2
left_child=1 35 3 6 5 -4 22 10 12 21 27 52 13 37 15 -5 25 -18 24 39 -14 45 -2 -23 -19 26 -10 28 -7 -29 -31 41 -17 -34 58 -1 -22 -8 -32 -13 -39 -26 -15 -9 -24 -3 -37 -25 -41 -48 -44 -52 -12 -54 -46 56 -45 -55 -16 60 61 -21
right_child=2 9 4 14 -6 7 8 43 16 -11 11 19 20 42 34 32 17 18 -20 59 36 23 44 47 31 -27 -28 29 -30 30 38 -33 33 -35 -36 46 -38 40 -40 48 -42 -43 50 55 54 -47 49 -49 -50 -51 51 -53 53 57 -56 -57 -58 -59 -60 -61 -62 -63
leaf_value=1.7591127623120943 11.046702643803188 -4.3894273500288685 -2.9833040301005047 1.0333164742837349 -3.375803740914554 -0.97627569723363017 3.8152652401442921 4.7435217809195471 7.1395084312983927 0.95699198586600165 -0.8043673851968427 1.5102158941146806 8.3743572228391407 8.6893891203403477 1.7695463744493631 4.235194210183912 -0.38781673701722985 4.2312465142286744 5.734221782684326 -0.81635259026187956 4.8329870827600994 0.79491814374923708 8.7238359226899984 -2.8551352178490061 1.0357693841060003 6.7725926942013688 3.0017655403663714 1.4134320073610833 3.2727874851226808 5.2058238945509263 0.22587856749693552 -0.67131032983462013 0.43781177350452971 4.2576677993491847 2.1432505585670474 -1.5725544877177062 7.9840546880449565 -0.85798288881778717 3.2933428353276746 3.0644137597084047 3.0636362160955155 4.5443304616671343 3.82053368497226 2.7724323922854204 4.3430271254645456 -3.5309049462701241 0.27470635718852282 -4.8289202046948816 5.8408715200424197 2.9744354356418956 5.3861490258677254 7.1547485459018763 -0.79215636213846286 1.9402989620299533 7.371763623145319 0.84668476024399641 5.8077750932602656 -0.092390622898023966 -0.44066985143890869 -0.92495580819936907 1.8492505418520477 2.1856399239637914
leaf_weight=120 21 248 45 96 73 51 109 99 28 28 114 41 71 20 39 194 46 65 65 59 71 20 34 585 30 47 84 124 45 76 24 30 35 27 125 43 28 20 116 50 28 26 36 65 27 1869 200 43 30 22 145 71 66 86 31 23 21 49 79 26 199 39
leaf_count=120 21 248 45 96 73 51 109 99 28 28 114 41 71 20 39 194 46 65 65 59 71 20 34 585 30 47 84 124 45 76 24 30 35 27 125 43 28 20 116 50 28 26 36 65 27 1869 200 43 30 22 145 71 66 86 31 23 21 49 79 26 199 39
internal_value=-5.85393e-09 -2.91353 2.84986 4.05268 1.48334 1.72831 4.9866 1.87944 4.6818 -3.40961 1.54443 1.04052 5.41914 4.85965 2.27431 2.9861 3.6327 2.89696 3.59649 1.73737 6.83103 -3.45383 7.73785 -2.87346 2.67627 4.84507 4.0362 2.42166 1.01547 2.8187 3.62542 1.501 3.71839 2.1013 1.24323 0.685331 5.7242 3.0859 2.76749 3.22616 1.42963 2.66474 5.88348 3.8041 6.98257 -3.63148 0.199091 -2.99028 4.10559 0.542247 5.66079 5.96749 0.0582805 0.547544 5.96183 2.95087 3.51362 1.20251 0.289825 1.17965 1.36389 0.378318
internal_weight=6427 3178 3249 1728 1521 1448 1133 1403 1020 2793 1195 759 599 429 595 352 421 262 216 444 170 2765 113 648 151 159 112 436 96 340 216 86 256 62 243 385 99 157 140 121 48 56 272 208 92 2117 265 628 80 222 252 216 315 201 58 109 86 135 118 323 297 98
internal_count=6427 3178 3249 1728 1521 1448 1133 1403 1020 2793 1195 759 599 429 595 352 421 262 216 444 170 2765 113 648 151 159 112 436 96 340 216 86 256 62 243 385 99 157 140 121 48 56 272 208 92 2117 265 628 80 222 252 216 315 201 58 109 86 135 118 323 297 98
is_linear=0
shrinkage=0.05


Tree=10
num_leaves=63
num_cat=0
split_feature=0 15 10 12 14 11 14 7 9 7 0 15 12 9 5 15 7 0 3 0 8 15 7 15 13 10 10 5 11 0 13 13 0 15 6 9 6 7 11 0 13 12 0 5 3 11 7 4 9 1 15 5 8 15 9 6 5 10 7 6 10 3
split_gain=1.92665e+07 2.20541e+06 1.86422e+06 1.02653e+06 565766 402987 316047 335291 291142 262881 257740 260347 227694 215940 193575 144938 143465 136213 112292 111377 110259 103156 102207 109226 165469 102632 100730 175306 99823.8 94759.2 91667.4 89181.1 87162.4 84327 82069.3 81978.1 74724.7 74394.2 70516.8 70345.6 69342.2 74839.4 66722.9 73023.9 65339.7 62936.8 88875.5 72028.6 70061.7 61433.8 59597.5 59807.6 59256.2 56426.8 54854.3 61770.9 54366.9 54297.5 53122.3 51458.3 50659.2 55061.9
threshold=95.448750000000018 30.500000000000004 16.487500000000004 12.500000000000002 1.5000000000000002 89.471250000000012 1.0000000180025095e-35 88.707854166666678 353.09375000000006 105.82589285714288 294.58875000000006 9.5000000000000018 1.5000000000000002 273.14250000000004 203.25000000000003 34.500000000000007 254.19424603174608 175.25000000000003 76.503750000000011 399.29291666666671 0.30125000000000007 43.000000000000007 146.3368229166667 25.500000000000004 5.5000000000000009 11.108750000000002 11.605000000000002 438.75000000000006 96.387500000000017 211.57500000000002 5.5000000000000009 4.5000000000000009 51.815000000000005 70.500000000000014 127.64520833333336 280.07125000000002 345.02777777777789 77.125329861111126 53.761250000000011 341.25000000000006 4.5000000000000009 7.5000000000000009 188.58333333333334 113.51250000000002 105.71250000000001 83.262500000000017 185.67213541666669 253.66875000000002 190.64500000000001 256.01250000000005 6.5000000000000009 169.08875000000003 0.87375000000000014 34.500000000000007 106.75750000000002 323.87500000000006 156.18333333333337 12.862500000000002 317.70833333333343 170.91979166666667 22.997500000000006 89.378750000000011
decision_type=2 2 8 2 2 8 2 10 8 10 2 2 2 10 10 2 8 2 8 2 8 2 10 2 2 10 10 8 10 2 2 2 2 2 8 10 10 8 10 2 2 2 2 8 8 10 8 8 10 10 2 8 8 2 8 10 10 10 10 8 10 10
left_child=1 37 3 5 6 8 -4 52 12 32 11 29 30 18 16 17 49 -7 -14 -15 21 45 -19 24 57 -25 39 -28 50 34 -2 -13 -3 -11 -9 -26 -16 -1 -31 -17 41 -39 43 -33 -43 -20 -47 -48 -49 -5 51 -12 -8 -18 -52 -56 59 -24 -57 -22 61 -34
right_child=2 9 4 14 -6 15 7 10 -10 33 28 31 13 19 36 26 53 22 20 -21 56 -23 23 25 35 -27 27 -29 -30 38 -32 42 60 -35 -36 -37 -38 40 -40 -41 -42 44 -44 -45 -46 46 47 48 -50 -51 54 -53 -54 -55 55 58 -58 -59 -60 -61 -62 -63
leaf_value=-1.1605155448647257 4.1476780200272465 -3.5702737291596658 -2.8411593964225368 0.74182266471337299 -3.1849231417216952 1.2626037693288374 2.6892159116895575 1.1113166818738376 9.6350939237154449 1.6804754086903164 4.2721074781417849 2.7089824720799367 8.8827470134286326 2.6178174315265528 -0.29987852503271667 2.3265764019399322 4.0244224780923004 7.1078050315380104 4.9726430822259342 6.6576441634785049 4.2985085623604915 9.1136386986934781 3.087315015915113 2.5811035475560598 6.4835401837403586 5.9985649003702051 -1.3058243687336262 4.2761779660528356 -0.16604173975912007 1.695910664371082 1.1864831789119825 -0.67302486621698399 -2.85306370001598 -2.3894425374269486 -0.82152472183936176 2.6734271717071536 1.9123547809045824 3.2234681156965403 -0.9056958332657814 5.4248099497386386 -1.3066773449220968 0.085620383984512757 2.0750644191709489 1.4607804580886139 1.5879867295424144 9.828257236480713 5.2707330531195593 5.6863675158956779 9.4417111290825755 3.0468508278451316 2.1595083267458022 1.2961827459530189 5.0824000410459664 1.976851445978338 5.8977697889855571 2.1475881632981877 3.7164725484270038 0.90629829270972151 5.2391875962416332 6.9393794814745595 -3.3545372517956715 -1.1378611543178558
leaf_weight=47 89 1387 38 98 63 38 38 76 39 35 25 214 34 76 102 53 143 32 78 22 35 33 78 28 48 102 39 22 22 140 37 61 729 20 198 20 61 39 32 28 31 135 191 117 156 20 76 23 27 41 31 52 81 44 47 33 66 45 24 39 599 50
leaf_count=47 89 1387 38 98 63 38 38 76 39 35 25 214 34 76 102 53 143 32 78 22 35 33 78 28 48 102 39 22 22 140 37 61 729 20 198 20 61 39 32 28 31 135 191 117 156 20 76 23 27 41 31 52 81 44 47 33 66 45 24 39 599 50
internal_value=4.9544e-10 -2.72526 2.74996 3.87204 1.45159 4.64406 1.6573 1.78099 5.43817 -3.22237 1.54193 1.20132 5.18827 5.64324 1.93489 3.61009 2.63832 4.10697 6.12495 3.52472 5.88877 6.50377 4.41316 4.14454 3.38363 5.2625 2.24192 0.707357 3.03975 0.292026 3.27812 1.89694 -3.29046 0.200505 -0.285408 5.36292 0.528012 0.710659 1.21189 3.39757 0.954274 1.16667 1.426 0.729533 0.891013 6.11928 6.73187 6.24038 7.71425 1.42172 3.37243 2.26239 4.31819 3.54264 4.00556 4.55583 4.75979 2.28938 3.44931 5.69032 -3.00881 -2.74297
internal_weight=6427 3228 3199 1716 1483 1227 1420 1382 694 2820 1263 1029 655 529 489 533 326 391 431 98 397 257 353 321 191 130 142 61 234 446 126 583 2765 55 274 68 163 408 172 81 361 330 369 178 291 224 146 126 50 139 212 77 119 187 135 104 140 123 57 74 1378 779
internal_count=6427 3228 3199 1716 1483 1227 1420 1382 694 2820 1263 1029 655 529 489 533 326 391 431 98 397 257 353 321 191 130 142 61 234 446 126 583 2765 55 274 68 163 408 172 81 361 330 369 178 291 224 146 126 50 139 212 77 119 187 135 104 140 123 57 74 1378 779
is_linear=0
shrinkage=0.05


Tree=11
num_leaves=63
num_cat=0
split_feature=0 10 15 12 14 14 9 7 13 7 12 15 11 7 7 5 2 4 0 13 0 3 0 15 6 0 11 10 12 4 10 3 7 4 7 15 10 1 5 6 4 9 13 4 8 2 4 13 7 8 6 0 13 0 5 7 7 9 10 15 3 4
split_gain=1.73936e+07 1.8121e+06 1.71416e+06 956373 661577 342238 329320 308942 253897 351429 190036 214011 178899 174928 173795 131877 130526 129965 127649 127300 163119 121435 111101 107434 105376 83476.4 80237.7 85207.9 80227.9 87735.2 78512.2 73441 72962.8 71249.3 67338.7 66665.5 65026.9 63123.4 62894.4 88081.7 61959.5 60552.9 60172.9 64805 60104 59840.8 59595.8 73358.7 57283.9 57104.2 56804.3 56604.6 94559 55772.5 54596.1 53130.8 55608 52765.3 50563.3 49788.5 49707.8 77008.8
threshold=90.02500000000002 16.487500000000004 30.500000000000004 10.500000000000002 1.5000000000000002 1.0000000180025095e-35 17.058750000000003 313.95788043478268 4.5000000000000009 258.09635416666669 9.5000000000000018 9.5000000000000018 96.048750000000013 86.252774003623202 127.03494949494952 395.55000000000001 140.84000000000003 312.25000000000006 309.58333333333343 1.0000000180025095e-35 134.14375000000004 452.62500000000006 260.18125000000003 26.500000000000004 323.87500000000006 65.687500000000014 85.522500000000022 11.662500000000003 7.5000000000000009 87.575000000000017 16.002500000000005 285.25000000000006 255.77083333333334 91.351250000000007 249.48958333333334 22.500000000000004 16.312500000000004 388.75000000000006 147.10000000000002 320.82916666666671 423.15000000000003 169.53500000000003 4.5000000000000009 166.31666666666669 0.25166666666666676 292.9500000000001 169.67000000000002 5.5000000000000009 332.69444444444451 2.5625000000000004 23.556666666666672 195.16666666666671 5.5000000000000009 184.16666666666671 156.18333333333337 238.00052083333335 291.14583333333343 78.732500000000016 12.012500000000001 21.500000000000004 116.01500000000001 94.165000000000035
decision_type=2 8 2 2 2 2 10 8 2 10 2 2 10 10 10 8 10 10 2 2 2 8 2 2 10 2 8 10 2 8 8 10 10 8 10 2 8 10 10 10 10 10 2 10 8 10 8 2 10 10 8 2 2 2 10 8 10 10 10 2 10 10
left_child=2 3 36 6 5 -3 23 10 19 38 12 17 15 16 25 45 -5 24 26 34 35 22 -11 -2 -12 50 40 32 29 -22 -27 -24 -28 -30 -8 -21 -1 -31 -10 -40 -15 -18 43 -13 -38 60 -20 -48 -9 -32 -4 52 -44 -35 -53 -25 -57 -56 -33 -29 -7 -62
right_child=1 4 14 13 -6 7 8 48 9 21 11 42 -14 18 -16 -17 41 -19 46 20 28 -23 31 55 -26 30 27 59 33 37 49 58 -34 53 -36 -37 44 -39 39 -41 -42 -43 51 -45 -46 -47 47 -49 -50 -51 -52 54 -54 -55 57 56 -58 -59 -60 -61 61 -63
leaf_value=2.3895096556706861 9.787074073155722 -2.5659596472370385 -3.9917749749075981 2.407199111536368 -2.9692833207374396 2.6089654520083716 1.7835442403631827 4.0741743581425123 0.2929759851098061 3.2063108239257545 -0.85866308728812124 0.14709443370501202 -1.9230047777295114 1.5111768131959253 0.90051352668691576 4.5783837881455058 3.502587536686943 2.3047149044771991 4.2775936157120906 5.257698415673298 9.1146221229008262 1.318708851253209 6.3834886321871309 8.3123037598349825 2.4373775853051081 0.45843156933784485 1.0004894552551782 0.92856212757966095 3.6754494767239758 5.7701321354279154 -2.5899199134688398 5.5887692098264345 4.3905213514963783 4.8731650785966352 4.4744019972380773 1.7286049520596862 -2.1235969393797545 8.718097513372248 2.9948725041630979 0.24774965412086913 3.601953441512828 6.8641492908065391 -0.80225484498341881 2.6794838180765512 0.53181014570696605 3.569743767014721 3.2971675113202581 0.99108492418871086 2.3628595171036659 -4.460248028148305 -3.1864143758916548 2.7876918278057259 1.8486569014729046 7.907117789132255 2.8968481240364223 3.3900869914463594 6.7013366594910622 0.25903351664543156 2.3985038892082549 -1.1514715994397799 -0.93878228700522226 1.7935312844939153
leaf_weight=44 30 49 248 67 86 106 31 134 40 57 238 30 24 128 27 65 21 48 55 23 35 23 127 22 27 20 65 51 47 104 563 27 21 33 93 32 23 22 154 36 49 37 75 160 290 57 83 59 77 44 1869 73 61 28 26 21 32 70 23 66 33 118
leaf_count=44 30 49 248 67 86 106 31 134 40 57 238 30 24 128 27 65 21 48 55 23 35 23 127 22 27 20 65 51 47 104 563 27 21 33 93 32 23 22 154 36 49 37 75 160 290 57 83 59 77 44 1869 73 61 28 26 21 32 70 23 66 33 118
internal_value=1.5873e-09 2.53281 -2.67127 3.64068 1.2933 1.54251 4.60321 1.68408 4.30505 3.51479 1.37645 0.934102 2.26334 2.21472 -3.0914 2.52844 3.91048 -0.0892214 1.84736 5.1641 5.68551 4.78543 5.12618 7.25826 -0.52284 -3.13068 1.31189 0.63346 6.1928 6.90002 -2.62393 5.74444 1.82829 5.13852 3.80169 3.20441 0.589694 6.28486 2.09499 2.47437 2.08998 5.64703 1.58117 2.27963 0.336684 2.10408 2.88024 2.33901 3.44967 -2.7255 -3.28076 1.14607 0.386757 6.2658 1.75711 6.24674 5.38933 0.973442 4.12125 -0.24479 1.77902 1.1964
internal_weight=6427 3299 3128 1742 1557 1471 1040 1422 935 487 1211 808 403 702 2771 379 125 313 577 448 324 257 234 105 265 2744 380 203 269 161 627 177 86 108 124 55 357 126 230 190 177 58 495 190 313 314 197 142 211 607 2117 305 136 61 169 75 53 96 50 117 257 151
internal_count=6427 3299 3128 1742 1557 1471 1040 1422 935 487 1211 808 403 702 2771 379 125 313 577 448 324 257 234 105 265 2744 380 203 269 161 627 177 86 108 124 55 357 126 230 190 177 58 495 190 313 314 197 142 211 607 2117 305 136 61 169 75 53 96 50 117 257 151
is_linear=0
shrinkage=0.05


Tree=12
num_leaves=63
num_cat=0
split_feature=0 15 10 12 14 14 7 9 13 7 7 5 12 15 11 5 0 3 4 15 0 3 5 4 6 9 8 0 3 0 5 9 11 12 7 7 5 4 11 15 13 1 13 5 4 0 1 2 8 15 12 0 7 15 4 9 9 9 10 6 4 3
split_gain=1.56983e+07 1.79319e+06 1.51968e+06 758054 479716 296219 302655 254131 239243 303394 217267 199271 190685 197281 167842 164608 123388 112192 109346 103770 99295 98083.6 96839.2 92397.6 92726.6 87414.5 80716.5 85718.5 79495.3 79063.9 74543.9 73061.3 68087.3 103939 86040.2 67383.8 67146.2 79056 65117.5 72270.2 63492.4 72663.9 112300 73384.7 62817 62225.9 60367.1 58470.2 57095.7 52954.5 50771.4 50507.9 49594.3 46246.5 45600.2 45340.2 64448.2 45318.3 45027.2 42483.9 42166.4 41839.8
threshold=95.448750000000018 30.500000000000004 15.562500000000002 10.500000000000002 1.5000000000000002 1.0000000180025095e-35 313.95788043478268 17.058750000000003 4.5000000000000009 258.09635416666669 92.36955128205129 578.75000000000011 9.5000000000000018 9.5000000000000018 96.048750000000013 426.51250000000005 221.62500000000003 452.62500000000006 130.27500000000003 70.500000000000014 260.18125000000003 201.80000000000004 115.25000000000001 312.25000000000006 323.87500000000006 302.71500000000009 0.20333333333333339 177.62083333333337 234.25000000000003 162.51875000000004 48.248750000000008 182.89375000000004 94.00500000000001 11.500000000000002 95.952948717948743 272.25267857142865 176.43333333333337 242.17250000000004 89.242500000000021 22.500000000000004 4.5000000000000009 218.02500000000003 5.5000000000000009 156.18333333333337 167.9666666666667 309.58333333333343 23.761250000000004 453.57500000000005 1.1012500000000003 35.500000000000007 20.500000000000004 262.72500000000008 258.09635416666669 34.500000000000007 247.56250000000003 166.18333333333337 218.51500000000004 211.05875 17.005000000000006 170.91979166666667 229.81250000000003 162.05750000000003
decision_type=2 2 8 2 2 2 8 10 2 10 10 8 2 2 10 8 2 8 10 2 2 8 8 10 10 10 10 2 8 2 8 10 10 2 8 10 10 8 10 2 2 10 2 10 10 2 8 8 8 2 2 2 10 2 10 10 10 10 10 10 8 10
left_child=1 32 3 7 5 -4 12 21 18 38 30 16 14 23 15 45 35 20 22 -12 59 -2 -9 24 -14 26 -24 -28 58 53 -3 -22 33 -1 -35 -5 52 -38 54 -40 44 42 -42 51 -15 -7 -32 -33 -30 55 -44 -43 -18 61 -10 -29 -57 -50 -8 -11 -23 -13
right_child=2 10 4 11 -6 6 28 8 9 17 19 29 13 40 -16 -17 36 -19 -20 -21 31 60 25 -25 -26 -27 27 49 48 -31 46 47 -34 34 -36 -37 37 -39 39 -41 41 43 50 -45 -46 -47 -48 -49 57 -51 -52 -53 -54 -55 -56 56 -58 -59 -60 -61 -62 -63
leaf_value=2.4616660725325348 8.4726699149354978 -3.3455708047515857 -2.7284817866789992 -0.14354749212328058 -2.8772127906481426 1.6780701080976794 5.3607153580106548 2.2009776854515075 3.3443529139508259 4.3728595981597902 1.5763706888907996 2.503653603076935 -0.78401023484274157 0.015163377858698368 -1.8268545551846427 4.8486671616954196 2.341109183004924 1.2527734225210938 3.8062569972680649 -2.4560260613759359 7.4498561859130863 6.4086459176880979 3.1049254846005212 2.0036415437112249 2.3155086958849873 2.7842383281751113 5.0361876230181002 5.0063252396881586 1.974545085460556 6.9328815090656279 -3.9940093035649777 5.4670823006196461 -1.8375960391301378 -1.3953834734721617 0.78816736288279654 2.7023300262597894 2.6227542587256032 0.7765144178349721 2.6805023648522117 0.030902765192572148 -1.0497185926158707 2.0333181168063215 0.21119053415954114 0.80493797827302738 2.5658582129308156 3.246926618771381 -2.7247348431318179 2.9078977218696052 2.8734084347883861 9.1081732529860275 2.5906871295881038 4.6442225526880341 4.3514079467923032 1.5772748505075773 0.75952259600162508 8.6279688772701082 5.9460144807895032 5.8896960020065308 2.6094921779632569 1.4277271389961244 3.530681028366089 5.0759135013402901
leaf_weight=76 47 913 39 104 63 265 58 20 91 25 39 25 227 28 24 62 77 23 128 27 37 35 21 45 27 22 81 32 98 20 99 110 26 55 251 26 118 114 44 62 77 59 40 89 175 83 1742 28 33 26 51 27 51 24 21 42 48 20 20 24 20 43
leaf_count=76 47 913 39 104 63 265 58 20 91 25 39 25 227 28 24 62 77 23 128 27 37 35 21 45 27 22 81 32 98 20 99 110 26 55 251 26 118 114 44 62 77 59 40 89 175 83 1742 28 33 26 51 27 51 24 21 42 48 20 20 24 20 43
internal_value=2.2146e-09 -2.45999 2.48229 3.57925 1.39964 1.57381 1.68508 4.43215 4.15977 3.37847 -2.90824 2.18089 1.38535 0.947817 2.23723 2.47512 1.74597 4.57832 5.02478 -0.0732462 4.91978 6.79541 5.55892 -0.0845743 -0.454534 5.80583 6.07173 6.3438 3.3591 4.08364 -2.97618 5.47683 0.638218 0.806729 0.395699 0.425628 2.22276 1.71555 2.01901 1.13074 1.51317 1.09838 0.355621 1.81142 2.21404 2.05225 -2.79299 4.94783 2.68955 7.05945 1.54475 2.85302 3.14209 3.46424 2.8597 6.62283 7.19759 4.01163 4.65527 2.93035 5.36211 4.13023
internal_weight=6427 3228 3199 1589 1610 1547 1508 987 885 465 2820 602 1279 845 434 410 490 247 420 66 224 102 292 299 254 272 250 229 229 112 2754 175 408 382 306 130 360 232 218 106 546 343 168 175 203 348 1841 138 151 148 91 86 128 92 112 122 90 53 78 49 55 68
internal_count=6427 3228 3199 1589 1610 1547 1508 987 885 465 2820 602 1279 845 434 410 490 247 420 66 224 102 292 299 254 272 250 229 229 112 2754 175 408 382 306 130 360 232 218 106 546 343 168 175 203 348 1841 138 151 148 91 86 128 92 112 122 90 53 78 49 55 68
is_linear=0
shrinkage=0.05


Tree=13
num_leaves=63
num_cat=0
split_feature=0 10 15 12 14 9 14 7 13 7 15 12 15 11 7 11 0 3 4 3 10 5 7 10 0 11 11 9 4 2 12 9 6 1 7 1 12 5 0 1 10 15 15 5 6 12 1 5 7 15 7 7 3 4 4 9 11 13 5 6 15 1
split_gain=1.41774e+07 1.4758e+06 1.39503e+06 780898 538582 279392 276420 252984 202058 344220 164592 156273 189641 164660 148520 132279 128319 127344 120908 117487 114427 107064 100793 100251 99152.2 91657.3 90584.9 86221.7 79510.5 74544.4 74497.3 72034 63410.7 59831.2 87801.9 74509.9 66476 58085.8 68174.7 65161.2 57566.9 60253 55696.4 53086.3 71761.4 51465 51432.4 57214 50873.3 50446.9 50224.9 49855.8 63259.9 59654.2 60939 49728 49368.4 49356.1 48924.4 48530.4 47709.9 47428.7
threshold=90.02500000000002 16.487500000000004 30.500000000000004 10.500000000000002 1.5000000000000002 353.09375000000006 1.0000000180025095e-35 313.95788043478268 4.5000000000000009 258.09635416666669 81.500000000000014 10.500000000000002 9.5000000000000018 96.387500000000017 312.34895833333337 77.006250000000009 309.58333333333343 84.96250000000002 312.25000000000006 230.06250000000003 12.012500000000001 426.51250000000005 119.9459090909091 14.287500000000003 294.58875000000006 94.760000000000005 84.77500000000002 216.79500000000004 130.27500000000003 292.9500000000001 13.500000000000002 193.91875000000002 23.556666666666672 379.70000000000005 148.09895833333334 228.16500000000005 7.5000000000000009 311.12500000000006 221.62500000000003 132.33750000000003 19.062500000000004 2.5000000000000004 81.500000000000014 147.10000000000002 320.82916666666671 14.500000000000002 327.75000000000006 178.62500000000003 76.144679608585875 34.500000000000007 300.57638888888897 273.92361111111114 126.03000000000002 87.575000000000017 140.56250000000003 93.502500000000012 49.262500000000003 4.5000000000000009 48.248750000000008 323.87500000000006 20.500000000000004 138.58333333333334
decision_type=2 8 2 2 2 8 2 8 2 10 2 2 2 10 8 10 2 8 10 8 10 8 10 10 2 8 10 10 10 8 2 10 8 10 10 10 2 10 2 8 8 2 2 10 10 2 8 10 8 2 10 10 10 10 10 10 10 2 8 10 2 10
left_child=2 3 40 5 6 8 -3 11 17 43 22 13 18 21 16 -7 37 23 59 24 -21 29 32 60 -11 28 30 50 33 51 61 -22 -4 34 35 -19 -35 38 39 -5 -1 -42 57 -10 -45 55 -31 -48 -43 -40 -26 52 -8 -54 -55 -9 -47 -14 -34 -13 -2 -16
right_child=1 4 10 14 -6 15 7 45 9 19 -12 12 42 -15 26 -17 -18 25 -20 20 31 -23 -24 -25 27 -27 -28 -29 -30 46 -32 -33 58 36 -36 -37 -38 -39 49 -41 41 48 -44 44 -46 56 47 -49 -50 -51 -52 -53 53 54 -56 -57 -58 -59 -60 -61 -62 -63
leaf_value=1.5071255456304775 9.453441061756827 -2.2993791137422837 -3.6175477237080131 2.5141645774245265 -2.6778985564272073 10.657953977584839 2.1532956887841226 2.9045591295849196 0.2487138219177723 3.8441089373081923 1.5168679681691257 -0.87412302651527252 2.1944662622616184 -1.782748850297045 3.8915121227502825 5.5884944531225393 2.7217918743753131 4.6313852763862062 2.0930954571813345 5.0308124208450318 4.0352264134780222 4.2387945812324004 0.21472549902068244 3.717991754283076 6.2688468468189242 1.4660873548342632 1.7703602511112888 5.0492436274042669 3.5692577690962288 5.4434056577228365 3.0431737332232296 0.50714698265760372 -3.1222582937020773 8.510483868916829 1.6120978071576073 7.8267472857520692 5.0054079063477062 -1.2295229655724986 2.5885763475269665 0.0029068880339167013 1.7528776830305224 -2.1898921308846311 -0.66791540066401167 2.707934749354223 0.33563965827226644 0.84722021222114563 4.3272998161937881 0.93370113152044798 0.070253195215693939 0.63658569187534109 9.7308530287309125 3.7319831748803463 -0.99993299736482344 3.5216459854789401 0.53875336286736963 5.1193892470065592 3.1097546246770311 1.132252863124285 -2.6349259751970169 1.6416106950669063 6.4979755573802525 7.1055608510971071
leaf_weight=106 22 49 248 32 86 22 125 55 41 64 22 220 182 27 22 31 157 139 48 50 23 58 27 23 20 26 75 53 135 21 80 39 731 24 21 21 31 27 102 134 46 29 30 157 40 36 23 27 176 49 22 24 41 23 67 47 73 274 1743 21 36 24
leaf_count=106 22 49 248 32 86 22 125 55 41 64 22 220 182 27 22 31 157 139 48 50 23 58 27 23 20 26 75 53 135 21 80 39 731 24 21 21 31 27 102 134 46 29 30 157 40 36 23 27 176 49 22 24 41 23 67 47 73 274 1743 21 36 24
internal_value=-4.0305e-09 2.28669 -2.4117 3.28649 1.1681 4.15624 1.39295 1.52018 3.96633 3.27306 -2.7907 1.2418 0.815778 1.99906 1.99797 7.6928 1.53731 4.70457 -0.198494 4.49158 3.25116 2.24872 -2.82517 6.51132 5.36534 4.33593 3.14616 6.39016 4.53705 1.91987 3.96508 1.81595 -2.85533 5.09067 4.65181 5.05078 6.5349 0.996724 1.18634 0.487005 0.530099 0.11749 1.41891 1.88558 2.22625 3.11789 3.36689 2.49476 -0.249475 1.95515 8.08228 1.55295 1.34867 0.580894 1.30105 3.92512 2.3625 1.55621 -2.77892 -0.65491 7.61901 5.56841
internal_weight=6427 3299 3128 1742 1557 1040 1471 1422 987 509 2771 1211 775 436 702 53 501 478 289 271 112 409 2749 81 159 397 201 95 371 351 126 62 2722 236 181 160 55 344 317 166 357 251 486 238 197 211 71 50 205 151 42 280 256 131 90 102 109 456 2474 241 58 46
internal_count=6427 3299 3128 1742 1557 1040 1471 1422 987 509 2771 1211 775 436 702 53 501 478 289 271 112 409 2749 81 159 397 201 95 371 351 126 62 2722 236 181 160 55 344 317 166 357 251 486 238 197 211 71 50 205 151 42 280 256 131 90 102 109 456 2474 241 58 46
is_linear=0
shrinkage=0.05


Tree=14
num_leaves=63
num_cat=0
split_feature=0 10 15 12 14 11 14 7 9 9 4 15 5 5 12 15 11 0 15 4 10 5 5 15 7 7 15 0 3 9 15 8 15 0 12 11 7 15 5 5 10 6 2 6 0 13 0 5 15 7 3 15 3 11 8 11 15 15 1 10 15 5
split_gain=1.27951e+07 1.33191e+06 1.25901e+06 712842 486070 329319 249469 228318 201544 182714 168283 148544 147428 141549 141036 171151 148605 125834 128565 110430 99437.3 141720 97562.1 99683.4 94827.4 91632.5 98276.8 84181.7 81936.5 86526.2 101783 74001.2 71853.1 68449.3 67652.8 82246.8 73981.2 71322 66210.2 65639.8 62282.8 58880.4 56961.4 55666 55468.5 52143 51374.5 90136.7 50266 48698 48183.1 47906.2 47727 46247.6 94198.1 46183.5 46159 45967.5 45756 45192.7 49351 41479.8
threshold=90.02500000000002 16.487500000000004 30.500000000000004 12.500000000000002 1.5000000000000002 89.471250000000012 1.0000000180025095e-35 313.95788043478268 353.09375000000006 290.12500000000006 132.04125000000002 81.500000000000014 476.53333333333336 203.25000000000003 10.500000000000002 9.5000000000000018 96.387500000000017 168.03750000000002 34.500000000000007 356.58333333333343 11.605000000000002 438.75000000000006 257.16666666666669 9.5000000000000018 209.4849479166667 92.36955128205129 56.500000000000007 195.16666666666671 76.503750000000011 126.70000000000002 21.500000000000004 0.3987500000000001 30.500000000000004 262.72500000000008 9.5000000000000018 91.278750000000016 146.3368229166667 25.500000000000004 325.62500000000006 287.25000000000006 12.862500000000002 345.02777777777789 265.41250000000008 23.556666666666672 60.121250000000011 5.5000000000000009 211.57500000000002 130.30500000000004 81.500000000000014 332.69444444444451 116.01500000000001 25.500000000000004 438.25000000000006 97.017500000000013 0.20333333333333339 78.761250000000004 37.500000000000007 25.500000000000004 342.12083333333339 16.312500000000004 2.5000000000000004 48.248750000000008
decision_type=2 8 2 2 2 8 2 8 8 10 10 2 10 10 2 2 10 2 2 10 10 8 8 2 8 10 2 2 8 10 2 10 2 2 2 10 10 2 8 10 10 10 10 8 2 2 2 8 2 10 10 2 8 8 10 10 2 2 10 8 2 8
left_child=2 3 44 5 6 8 -3 14 9 10 28 25 27 24 16 19 22 -7 34 46 -20 -22 42 39 -5 43 -27 -12 -2 -30 31 38 -26 -11 36 -36 -19 40 -31 -24 -38 -15 50 -4 -1 52 -16 -48 51 53 -8 -17 -37 54 -9 -35 -34 -51 -42 -46 -61 -45
right_child=1 4 11 13 -6 17 7 49 -10 33 12 -13 -14 41 15 48 -18 18 20 -21 21 -23 23 -25 32 26 -28 -29 29 30 -32 -33 56 55 35 45 37 -39 -40 -41 58 -43 -44 61 59 -47 47 -49 -50 57 -52 -53 -54 -55 -56 -57 -58 -59 -60 60 -62 -63
leaf_value=-0.53889843621786604 7.8161831477109125 -2.1844101750120823 -3.4366703124776965 0.71314140236779544 -2.5440036151298262 0.61617205414855691 2.0546539156883958 7.2669966936111452 7.9741957507454435 1.0698326047861353 1.9624608720200403 1.4410245705734601 7.5429892261823017 -0.41320013903702302 -0.96941504123505584 1.0777015549357809 -1.6936113595962525 6.5551385526303889 3.0663315213990936 3.0591789455463489 -1.5950698769406269 3.4475683006373319 3.4325670999915978 4.9196112796372056 3.095225633791908 1.318506837816074 -3.2374501037597656 3.9810702799767408 3.2180882967842948 7.5791287422180176 7.0608906510588412 2.6241405048677997 -0.37158683473244314 1.8995251086354257 1.0261634765813747 1.3663293456209118 3.9310018142575731 4.8514321068237578 4.542640595343606 0.99991055153034358 2.8833143272570201 1.5505399483149169 2.9635787335206878 -2.9661453718933624 2.5220366319848431 5.3840120502880646 2.7891149356447418 -0.62491685193160496 -0.63451963057120642 0.98391122741902126 0.45391323644863935 2.1338675827132483 4.454680438475175 2.3894699364900589 3.3128410988166688 5.0954069302632261 2.3885289694323686 3.4890462309122086 -0.24795497894287111 2.504379881620407 0.32748651477286056 -2.5165730265356094
leaf_weight=94 34 49 248 89 86 57 80 20 39 53 70 22 24 102 178 283 27 27 66 24 38 22 57 51 189 29 20 197 45 26 77 31 28 20 48 29 68 87 58 54 28 61 53 731 36 28 29 58 30 47 114 173 22 53 61 26 33 30 20 30 197 1721
leaf_count=94 34 49 248 89 86 57 80 20 39 53 70 22 24 102 178 283 27 27 66 24 38 22 57 51 189 29 20 197 45 26 77 31 28 20 48 29 68 87 58 54 28 61 53 731 36 28 29 58 30 47 114 173 22 53 61 26 33 30 20 30 197 1721
internal_value=-1.20274e-09 2.17235 -2.29111 3.12216 1.10969 3.76571 1.3233 1.44417 4.48139 4.27531 4.62421 -2.65117 3.78926 1.53251 1.17971 0.774989 1.89911 2.83799 3.10019 -0.188569 1.72708 0.253897 2.13628 3.08983 2.1147 -2.68391 -0.541067 3.45185 5.52078 5.19148 5.654 4.71199 2.61366 2.29467 3.58482 2.65854 4.09628 3.76924 5.48251 2.24911 2.9576 0.321696 1.51088 -2.7228 0.503594 3.65037 -0.482705 0.513094 1.34797 2.96199 1.11401 1.4784 2.69856 3.5378 4.28918 3.70589 1.12159 1.95994 1.57862 0.876196 0.615182 -2.6506
internal_weight=6427 3299 3128 1742 1557 1240 1471 1422 700 661 562 2771 291 502 1211 775 436 540 483 289 126 60 409 162 339 2749 49 267 271 237 192 115 250 99 357 127 230 203 84 111 116 163 247 2700 357 79 265 87 486 211 194 456 51 134 81 46 61 77 48 263 227 2452
internal_count=6427 3299 3128 1742 1557 1240 1471 1422 700 661 562 2771 291 502 1211 775 436 540 483 289 126 60 409 162 339 2749 49 267 271 237 192 115 250 99 357 127 230 203 84 111 116 163 247 2700 357 79 265 87 486 211 194 456 51 134 81 46 61 77 48 263 227 2452
is_linear=0
shrinkage=0.05


Tree=15
num_leaves=63
num_cat=0
split_feature=0 15 10 12 14 11 14 5 9 12 7 7 0 5 8 12 7 15 0 3 15 4 7 10 5 4 5 4 2 7 11 12 0 11 12 7 3 9 0 5 12 11 13 13 13 12 0 10 1 7 1 0 11 1 0 15 15 6 13 13 7 6
split_gain=1.15514e+07 1.31319e+06 1.12168e+06 560494 353518 291909 222940 225167 165386 182098 165365 159099 142082 124741 111541 108563 106023 103109 95489.6 88019.1 84120.6 83192.7 81559.1 78018.3 125862 70244.9 103004 87292.2 67646 63982.9 72822.8 76410.5 60287.4 59219.3 88167.5 69921 59207.5 57055.3 56488.7 96824.4 97128.8 74596.1 82880.8 51871.5 72870.8 52419.4 51866.4 50780.3 50659.6 50552.1 80878.5 51190.4 50297 50111.7 48822.3 48576.3 47349.3 46703.3 46334.9 46124 44430.2 44805.2
threshold=95.448750000000018 30.500000000000004 15.562500000000002 12.500000000000002 1.5000000000000002 89.471250000000012 1.0000000180025095e-35 389.75000000000006 236.55833333333337 1.5000000000000002 213.65517361111114 92.36955128205129 313.50000000000006 203.25000000000003 0.30125000000000007 6.5000000000000009 247.91145833333334 34.500000000000007 175.25000000000003 84.001250000000013 70.500000000000014 365.83333333333343 308.85937500000006 11.605000000000002 438.75000000000006 242.17250000000004 405.33333333333343 183.73333333333338 149.31666666666669 146.3368229166667 91.003333333333345 7.5000000000000009 44.315000000000005 94.00500000000001 11.500000000000002 95.952948717948743 126.03000000000002 215.00500000000002 229.37500000000003 163.62500000000003 10.500000000000002 94.760000000000005 5.5000000000000009 4.5000000000000009 5.5000000000000009 20.500000000000004 211.57500000000002 16.312500000000004 383.83333333333343 254.19424603174608 408.75000000000006 354.60000000000008 88.267500000000013 360.91875000000005 179.53750000000002 26.500000000000004 34.500000000000007 345.02777777777789 5.5000000000000009 1.0000000180025095e-35 154.92708333333337 228.18486111111116
decision_type=2 2 8 2 2 8 2 8 10 2 8 10 2 10 8 2 8 2 2 8 2 8 10 10 8 10 10 10 10 10 10 2 2 10 2 8 8 8 2 10 2 10 2 2 2 2 2 10 8 10 8 2 10 10 2 2 2 10 2 2 10 10
left_child=1 33 3 5 6 8 -4 10 9 58 12 32 36 16 19 -9 -5 18 -7 -11 -13 55 48 53 -25 27 -27 37 -12 -20 31 -31 -3 34 -1 -36 -8 52 43 -40 41 42 -41 -30 54 -46 47 -38 -10 50 -32 -51 -21 -19 -45 -17 -18 -15 -2 -34 -48 -62
right_child=2 11 4 13 -6 17 7 15 22 14 28 20 -14 57 -16 21 56 23 29 25 -22 -23 -24 24 -26 26 -28 -29 38 30 49 -33 59 -35 35 -37 46 -39 39 40 -42 -43 -44 44 45 -47 60 -49 -50 51 -52 -53 -54 -55 -56 -57 -58 -59 -60 -61 61 -63
leaf_value=2.2224886117012876 3.2753515639382864 -2.8646996882823319 -2.3836800917600978 0.91313626682474502 -2.4722570905609738 0.79331595207515526 1.1617411892828735 4.1080421132345997 2.2174154650789637 8.4156548730258276 2.6761747322403471 1.4174421086525306 2.9171502959053472 -0.39712722920709187 4.0263762838156651 0.12954086862757044 3.4996552622951236 1.6900907211578808 5.5632350802421575 5.4906683945874555 -2.2131626998936689 3.2112357671444229 5.3541280418634418 -1.4545645436415306 3.2751899881796405 4.8515854875246687 9.4374378051757812 2.5427115435230321 2.1503064539121546 3.560755102231469 2.2062170647863133 1.2646838308588879 -3.21566912929217 -1.767842000264388 -1.2949044021151284 0.67350855357128669 -0.92619442145029707 7.3767172227620676 3.3362059238377739 1.9103682067394256 0.31793344353770353 -0.19140470027923584 5.2346387426058456 -1.3137693266399573 0.42549821121825115 2.3921582818031313 -0.72092017065733671 0.85170557767737154 4.9191257691383363 6.1654428636705561 5.7623741694859101 3.7224632810143867 2.8697580185803502 4.2841583087526516 0.91734864915289538 2.502325197090121 1.4979350292682649 1.4129198791617055 0.39263493537902838 -2.2991054668040523 3.1175822423564066 0.4814950494468212
leaf_weight=76 46 988 39 105 63 38 115 96 131 29 130 39 53 90 129 59 113 52 32 109 27 78 32 39 22 24 25 29 69 71 67 74 150 26 55 251 189 33 85 50 111 21 30 61 72 64 32 51 20 37 21 51 22 29 41 34 40 59 20 1616 27 40
leaf_count=76 46 988 39 105 63 38 115 96 131 29 130 39 53 90 129 59 113 52 32 109 27 78 32 39 22 24 25 29 69 71 67 74 150 26 55 251 189 33 85 50 111 21 30 61 72 64 32 51 20 37 21 51 22 29 41 34 40 59 20 1616 27 40
internal_value=-7.76282e-10 -2.1102 2.12933 3.07176 1.19919 3.6228 1.34871 1.44524 4.33487 4.83506 1.16184 -2.4938 0.467378 1.47145 5.23655 2.76244 2.13666 2.75575 3.17484 5.8126 -0.0678053 2.00701 3.06118 1.60177 0.251249 5.50067 7.19131 5.07144 1.64153 3.43121 3.21867 2.38897 -2.55193 0.541118 0.698272 0.319709 0.181391 5.51859 1.41885 1.91046 1.33881 2.46077 3.15697 0.943246 0.5933 1.35099 -0.151176 -0.548391 2.57526 3.90224 3.05485 4.74963 5.05052 2.61883 -0.416947 0.99701 2.97633 0.319603 2.4018 -2.37696 0.811768 1.5438
internal_weight=6427 3228 3199 1589 1610 1182 1547 1508 649 466 1241 2820 507 407 400 267 258 533 391 271 66 171 183 142 61 242 49 193 734 353 321 145 2754 408 382 306 454 164 604 297 212 101 80 307 238 136 339 240 151 176 88 88 131 81 102 93 153 149 66 1766 99 67
internal_count=6427 3228 3199 1589 1610 1182 1547 1508 649 466 1241 2820 507 407 400 267 258 533 391 271 66 171 183 142 61 242 49 193 734 353 321 145 2754 408 382 306 454 164 604 297 212 101 80 307 238 136 339 240 151 176 88 88 131 81 102 93 153 149 66 1766 99 67
is_linear=0
shrinkage=0.05


Tree=16
num_leaves=63
num_cat=0
split_feature=0 10 15 12 14 11 14 7 9 9 4 15 5 5 12 4 11 10 0 15 7 10 5 7 15 5 7 3 9 15 5 8 15 13 2 0 0 5 12 11 7 15 15 5 0 8 13 6 8 12 6 3 8 13 10 13 4 5 13 6 3 15
split_gain=1.04286e+07 1.0872e+06 1.02481e+06 581242 395448 269656 201156 192173 169250 153998 144081 133313 124070 115679 114984 145983 130070 113320 103183 104584 85311.3 81380.7 115586 78537.5 74118.3 97261.3 73226.5 70951.1 75797.7 89924.6 67423.7 64090.6 60157.9 59271.9 58700.3 58275.3 57762.4 61131.2 57120.2 67310.5 62528.9 59277 57141.1 55591.3 53009.4 54583.9 50080.9 48463.2 48225.9 69202.5 47401.8 44711 48035.2 44479 43886.3 43279.5 42428.7 51093.6 44593.1 41981.4 41856.9 41598.8
threshold=90.02500000000002 16.487500000000004 30.500000000000004 12.500000000000002 1.5000000000000002 89.471250000000012 1.0000000180025095e-35 313.95788043478268 353.09375000000006 290.12500000000006 132.04125000000002 81.500000000000014 275.10750000000002 203.25000000000003 10.500000000000002 282.08750000000003 96.387500000000017 16.668333333333337 168.03750000000002 34.500000000000007 88.707854166666678 11.605000000000002 438.75000000000006 209.4849479166667 8.5000000000000018 257.16666666666669 125.48489583333334 76.503750000000011 135.72250000000005 21.500000000000004 476.53333333333336 0.3987500000000001 30.500000000000004 4.5000000000000009 292.9500000000001 262.72500000000008 206.52500000000001 156.18333333333337 9.5000000000000018 91.278750000000016 143.26073717948722 25.500000000000004 21.500000000000004 325.62500000000006 61.771250000000002 3.7100000000000004 5.5000000000000009 345.02777777777789 0.27750000000000008 11.500000000000002 69.452500000000015 227.67500000000004 1.1012500000000003 5.5000000000000009 16.002500000000005 5.5000000000000009 93.077500000000015 186.56250000000003 4.5000000000000009 355.70833333333337 438.25000000000006 37.500000000000007
decision_type=2 8 2 2 2 8 2 8 8 10 10 2 10 10 2 10 10 10 2 2 10 10 8 8 2 8 10 8 10 2 10 10 2 2 8 2 2 8 2 10 10 2 2 8 2 10 2 10 8 2 8 8 8 2 8 2 10 8 2 10 8 2
left_child=2 3 48 5 6 8 -3 14 9 10 27 26 -12 23 16 17 20 59 -7 38 -8 -21 -23 -5 34 -26 44 -2 -29 31 -14 43 -25 -17 56 -11 55 -38 40 -40 -20 42 46 -30 -4 54 -42 -15 -1 -50 -51 -9 -53 60 -46 -35 58 -58 -22 -16 -41 -34
right_child=1 4 11 13 -6 18 7 51 -10 35 12 -13 30 47 15 33 -18 -19 19 21 24 22 -24 32 25 -27 -28 28 29 -31 -32 -33 61 36 -36 -37 37 -39 39 53 41 -43 -44 -45 45 -47 -48 -49 49 50 -52 52 -54 -55 -56 -57 57 -59 -60 -61 -62 -63
leaf_value=-1.6647628374099732 7.1451148846570183 -1.9560196878958722 -2.5835324372086781 0.63469542352001318 -2.2944402342618897 0.5490279657798901 4.7027059928728985 3.7856460938086878 7.2488232368077989 0.91071142340606126 2.3493811505781093 1.4834560944275423 3.9487731490135189 -0.37741531753072555 -0.69853059369926307 2.3558463593151262 -1.651955572322563 1.2781510753894416 6.0662303848266603 2.7715195482427424 1.3838194889326891 -1.4425881461093302 3.1114304314960135 2.804922673224457 1.6596342211159376 4.5390124678453239 0.59013586595654488 2.9512161245151445 6.9186440834632297 6.5164683309761262 6.8421744902928667 2.3382893741130828 -0.41846442499331071 -0.66003687983435222 2.7599589956207922 3.3429877186598986 2.8251354227773846 0.65637638370196028 0.90763446868707742 1.1549315137595968 2.4107141526563773 4.4077517387639178 0.45135895013809207 4.1287462000261277 0.27723667025566101 -3.6095569506558505 4.8396872241050009 1.4041619976035884 2.1188840865127503 -0.85329047533018254 0.65847728794068106 1.5041037634506331 3.3757528296383947 4.8828065054757257 -2.0432140178485629 1.2120935736031369 -0.054247909849104672 1.9530197379928009 -1.4311437322812921 1.6262457126662846 4.047131976214323 2.201764371268677
leaf_weight=25 34 49 1967 89 86 57 26 65 39 53 142 22 125 102 258 115 27 127 25 66 24 38 22 189 78 47 20 49 26 74 24 31 28 66 52 46 64 66 48 29 63 87 23 57 21 55 32 61 62 70 200 91 55 28 686 58 46 102 34 21 22 33
leaf_count=25 34 49 1967 89 86 57 26 65 39 53 142 22 125 102 258 115 27 127 25 66 24 38 22 189 78 47 20 49 26 74 24 31 28 66 52 46 64 66 48 29 63 87 23 57 21 55 32 61 62 70 200 91 55 28 686 58 46 102 34 21 22 33
internal_value=-1.59029e-09 1.9612 -2.06841 2.81933 1.00111 3.40045 1.19378 1.30231 4.04806 3.85921 4.17953 -2.39326 3.40694 1.3839 1.05969 0.694253 1.70926 0.0400381 2.56096 2.79839 1.93115 1.55995 0.227219 1.91021 1.743 2.74228 -2.42428 5.00912 4.70269 5.1592 4.41482 4.27816 2.36429 1.41407 1.25885 2.04086 0.987671 1.72407 3.23549 2.38437 3.70546 3.41756 2.68751 5.00269 -2.44637 -2.09232 3.22889 0.28931 0.452988 0.612458 0.266537 2.69482 2.20918 3.28163 -1.97429 0.215637 0.879929 1.32914 -0.266331 -0.523547 2.40255 0.999036
internal_weight=6427 3299 3128 1742 1557 1240 1471 1422 700 661 562 2771 291 502 1211 775 436 406 540 483 409 126 60 339 383 125 2749 271 237 188 149 114 250 369 258 99 254 130 357 127 230 205 118 83 2729 762 95 163 357 332 270 211 146 79 707 124 206 148 58 279 51 61
internal_count=6427 3299 3128 1742 1557 1240 1471 1422 700 661 562 2771 291 502 1211 775 436 406 540 483 409 126 60 339 383 125 2749 271 237 188 149 114 250 369 258 99 254 130 357 127 230 205 118 83 2729 762 95 163 357 332 270 211 146 79 707 124 206 148 58 279 51 61
is_linear=0
shrinkage=0.05


Tree=17
num_leaves=63
num_cat=0
split_feature=0 15 10 12 10 7 13 7 15 7 5 13 0 5 0 3 7 3 9 9 3 2 0 12 10 12 6 5 7 3 9 1 8 0 2 5 15 0 4 11 12 7 5 10 6 7 10 5 4 9 15 10 4 3 6 6 11 15 8 15 13 9
split_gain=9.41264e+06 1.06745e+06 916738 457990 292737 184584 169078 310186 138123 136737 133732 118646 117547 118844 117334 105760 105656 95591.8 89809.5 89488.3 123110 84364.7 79209.8 78526.7 77852.1 77807.9 73842 73326.6 65870.8 69801.7 63576.3 82263.9 62274.8 57685 62680.6 55919.9 71924.5 65393.5 50404.5 50319.7 72473.1 58995.6 49200.5 55218.8 48371.8 47660.9 47197 45410.5 43913.3 42393.8 47863.1 41951.3 40704.7 39473.5 39379.2 37362.9 37056.7 48044.4 37021.9 46745.7 70458.9 58404.5
threshold=95.448750000000018 30.500000000000004 15.562500000000002 10.500000000000002 22.355000000000008 272.25267857142865 4.5000000000000009 268.69886775362323 81.500000000000014 329.44791666666669 578.75000000000011 1.0000000180025095e-35 298.12500000000006 3.9825000000000008 359.25000000000006 234.25000000000003 92.36955128205129 173.97625000000002 214.76250000000002 265.12125000000009 72.827500000000001 259.91875000000005 68.725000000000023 7.5000000000000009 11.862500000000002 5.5000000000000009 378.95833333333343 289.95125000000007 213.65517361111114 183.12500000000003 140.66750000000005 163.62500000000003 0.3262500000000001 166.35416666666671 358.12500000000006 171.25000000000003 9.5000000000000018 347.75000000000006 157.01250000000002 94.00500000000001 11.500000000000002 95.952948717948743 176.43333333333337 11.532500000000002 23.556666666666672 243.82291666666671 12.212500000000004 61.503750000000004 59.265000000000008 198.29166666666671 27.500000000000004 17.005000000000006 105.58750000000001 81.613750000000024 118.12916666666668 446.66666666666669 90.480000000000018 34.500000000000007 0.77750000000000019 34.500000000000007 4.5000000000000009 67.375000000000014
decision_type=2 2 8 2 10 8 2 10 2 10 8 2 2 10 2 8 10 8 8 8 8 10 2 2 10 2 10 10 10 10 10 10 8 2 10 8 2 2 8 10 2 8 10 10 8 10 10 10 10 10 2 10 10 8 10 10 10 2 8 2 2 10
left_child=1 39 3 6 5 12 11 33 16 17 21 45 13 25 19 51 44 18 -9 20 -13 -5 -18 52 -19 -4 27 -26 47 -30 -12 -32 -22 54 -35 -14 -37 -38 -6 40 -1 -42 55 -44 -3 -2 -25 -15 -34 -47 -51 -7 -16 -49 -8 -23 -45 -58 -17 60 61 -60
right_child=2 8 4 10 38 15 7 9 -10 -11 30 14 35 28 23 58 22 24 -20 -21 32 42 -24 46 26 -27 -28 -29 29 -31 31 -33 48 34 -36 36 37 -39 -40 -41 41 -43 43 56 -46 49 -48 53 -50 50 -52 -53 -54 -55 -56 -57 57 -59 59 -61 -62 -63
leaf_value=2.0123256302977865 0.76800918554266295 -2.9919222047530027 3.8654820981479832 0.29873315540294276 -2.3129003108411594 3.6805989491830178 1.3399213563828241 7.0748016834259033 1.5262466693917911 7.6034317811330157 1.4790242757116046 7.3867731291672287 3.3859470603758832 -1.33338582381033 8.3427478175009462 0.94808113881519862 -2.6876662799715998 4.5305271562264897 3.7320155157535164 1.6644236248400475 4.5671908076467185 2.1616885116079239 1.2178730181745581 5.9339836033907805 0.72508256272836169 1.1710314528764907 0.28306919568114813 4.2473359166251283 2.3537250470829334 0.57535115610972976 3.0483127427952632 6.717892746698289 3.5722271761369138 2.2767892244250278 -0.017524857156806524 0.36418928439098019 5.1053047513961793 1.0619931387901307 0.23530240737729602 -1.6428560091898992 -1.1959209927645598 0.61217808692281939 2.2919662654399873 1.4896729046052011 -2.2610142025700117 2.2638687708798577 2.6588373509320347 1.7270658877491951 0.81468568281693887 2.9426680931678186 6.1961455345153809 1.8206835567951203 5.8547538593837203 0.075140897686585828 -1.7601420941948893 4.4836426201320831 0.71996498277876531 -2.1968582843244078 2.4325735622218678 0.39215252143996104 1.6284573693965614 5.8751821344549011
leaf_weight=76 24 249 42 141 69 109 21 32 24 24 35 29 57 52 31 140 20 49 54 36 116 99 37 22 22 74 36 45 73 226 56 21 42 172 36 62 20 20 27 26 55 251 89 72 2490 51 22 40 22 26 20 42 35 377 20 21 48 20 28 35 95 22
leaf_count=76 24 249 42 141 69 109 21 32 24 24 35 29 57 52 31 140 20 49 54 36 116 99 37 22 22 74 36 45 73 226 56 21 42 172 36 62 20 20 27 26 55 251 89 72 2490 51 22 40 22 26 20 42 35 377 20 21 48 20 28 35 95 22
internal_value=6.8082e-10 -1.90486 1.92212 2.77412 1.08124 1.25102 3.43706 2.80545 -2.2507 4.00639 1.6872 4.11511 0.880017 0.654901 4.57597 2.07257 -2.28312 3.64366 4.97584 3.96688 4.36348 1.33091 -0.152492 5.93258 2.88992 2.14661 2.10944 3.09078 0.429591 1.00954 3.24596 4.04911 3.87639 1.54182 1.8797 2.1316 1.43064 3.08365 -1.59622 0.485548 0.630413 0.287193 1.74793 1.31818 -2.32746 2.76299 4.29641 0.0598607 2.62432 3.25659 4.35722 3.16327 7.02336 0.233599 -0.172305 2.56803 0.699126 -0.137924 1.55789 2.03219 2.42807 3.94732
internal_weight=6427 3228 3199 1589 1610 1514 987 511 2820 262 602 476 1043 884 355 471 2796 238 86 245 209 490 57 110 152 116 103 67 768 299 112 77 180 249 208 159 102 40 96 408 382 306 349 229 2739 121 44 469 64 97 46 151 66 417 41 120 140 68 320 180 145 50
internal_count=6427 3228 3199 1589 1610 1514 987 511 2820 262 602 476 1043 884 355 471 2796 238 86 245 209 490 57 110 152 116 103 67 768 299 112 77 180 249 208 159 102 40 96 408 382 306 349 229 2739 121 44 469 64 97 46 151 66 417 41 120 140 68 320 180 145 50
is_linear=0
shrinkage=0.05


Tree=18
num_leaves=63
num_cat=0
split_feature=0 10 15 12 14 14 7 9 11 13 7 10 13 0 4 12 15 4 13 7 9 12 5 12 15 15 3 10 5 0 7 0 11 7 3 5 12 13 12 6 11 7 9 15 11 7 4 10 15 5 12 4 4 8 8 7 6 9 10 13 1 9
split_gain=8.49978e+06 887661 834230 429431 337123 193752 187546 149156 146407 140158 194953 134502 111981 124688 112033 111907 108254 101259 87998 158566 85315 78576.3 139143 69237.8 65634.3 65528.8 64832.4 65122.8 63410.3 62738.2 95418.7 58860.2 57006 55269.7 53450.3 52097 112826 105032 78358.5 47448.8 47337 46268 45934 75484.8 45766.7 44787.3 46099 43736.8 48094 43402.1 77814 43215.5 40988 40322.5 40067.9 40058.5 40048.9 39051.6 38829.9 38811.1 43359.6 38001.9
threshold=90.02500000000002 15.562500000000002 30.500000000000004 9.5000000000000018 1.5000000000000002 1.0000000180025095e-35 313.95788043478268 22.970000000000002 90.25500000000001 4.5000000000000009 258.09635416666669 11.605000000000002 4.5000000000000009 211.57500000000002 87.575000000000017 13.500000000000002 81.500000000000014 113.79625000000001 5.5000000000000009 247.91145833333334 266.00875000000008 9.5000000000000018 134.96500000000003 7.5000000000000009 43.000000000000007 30.500000000000004 189.05000000000001 12.012500000000001 250.05000000000004 65.687500000000014 92.36955128205129 185.80000000000004 94.760000000000005 264.19847222222228 234.25000000000003 76.277500000000018 17.500000000000004 3.5000000000000004 7.5000000000000009 234.20833333333334 91.278750000000016 156.33369791666669 256.46000000000004 17.500000000000004 89.057500000000019 249.48958333333334 177.53750000000002 19.062500000000004 2.5000000000000004 110.25000000000001 19.500000000000004 300.25000000000006 247.56250000000003 1.1012500000000003 3.7100000000000004 213.65517361111114 126.14236111111113 163.59375000000003 20.776250000000001 4.5000000000000009 156.18333333333337 231.96250000000003
decision_type=2 8 2 2 2 2 8 10 8 2 10 10 2 2 10 2 2 8 2 8 8 2 8 2 2 2 8 10 10 2 10 2 10 10 8 8 2 2 2 10 10 10 10 2 8 10 10 8 2 10 2 8 10 8 10 10 8 10 8 2 10 10
left_child=2 3 47 7 5 -3 12 18 15 17 44 45 35 49 -15 20 29 23 19 -2 57 32 -23 42 51 31 39 -28 33 -4 54 -13 -16 -17 -8 36 -7 58 -39 -12 -33 -40 43 -9 52 -10 -47 -1 -49 50 -14 -19 -11 -36 -31 -51 -50 -5 -37 60 -59 -41
right_child=1 4 16 8 -6 6 34 9 11 10 26 25 13 14 21 28 -18 24 -20 -21 -22 22 -24 -25 -26 -27 27 -29 -30 30 -32 40 -34 -35 53 37 -38 38 41 61 -42 -43 -44 -45 -46 46 -48 48 56 55 -52 -53 -54 -55 -56 -57 -58 59 -60 -61 -62 -63
leaf_value=1.2591647924468765 6.6264942593044713 -1.930849087625742 -2.3195821737489579 2.585227431320563 -2.0808355675533763 -1.0206185017975995 3.5842521301284438 8.9007593767983586 1.156754069419011 2.6461576204648929 3.5237222623134006 -1.5892510681152343 0.74429609573493583 -1.2158379235863688 3.2597575117801796 1.4242635480231709 1.3329709552905777 2.2277905551407655 7.8465745250384025 1.8281551379145999 0.93308212578296656 2.8883981633830715 0.28857046507695727 3.1983778657139958 5.2063297310390988 -1.6215084465841454 4.1763116396608808 1.665073467279548 -0.17642724484205247 -1.7816506159740411 0.90738134111743429 -0.38502478418928204 0.29937786012887957 3.3581083386032669 1.3795393693507936 1.6712845379815382 2.2267497524067208 3.7251170575618744 -0.086346212717202997 7.2346104335784922 1.9657578623197118 2.2227276848472712 3.6942279478907589 5.2572463279420685 0.57386651798246469 4.2097698161096284 1.8114161741499808 1.5089921841154927 -0.50973368378205075 -0.23475569468418153 -1.6191447917415815 3.6230685243649141 0.15059912204742432 3.061427353322506 -3.3652431310609332 0.9477473669319969 1.8455397395789626 3.2772316342308407 0.031686125511859918 3.0068761294707658 6.0490101902983913 4.2835483014583593
