tree
version=v4
num_class=1
num_tree_per_iteration=1
label_index=0
max_feature_idx=15
objective=regression
feature_names=pm25_lag1 pm25_lag2 pm25_lag3 pm25_lag6 pm25_lag12 pm25_lag24 pm25_roll6 pm25_roll24 ws_lag1 wd_lag1 at_c_lag1 rh_lag1 hour dow city_code st_code
feature_infos=[0.050000000000000003:741] [0.050000000000000003:741] [0.050000000000000003:741] [0.050000000000000003:741] [0.050000000000000003:741] [0.050000000000000003:741] [0.30541666666666667:616] [10.219561403508772:404.31666666666666] [0.040000000000000001:45.577500000000001] [0.72999999999999998:357] [7.6499999999999995:59.539999999999999] [0.87333333333333341:99.969999999999999] [0:23] [0:6] [0:2] [0:82]
tree_sizes=5168 5223 5224 5210 5227 5242 5231 5230 5227 5212 5219 5255 5240 5214 5212 5241 5233 5201 5261 5262 5247 5249 5229 5227 5243 5262 5262 5251 5266 5231 5244 5280 5255 5304 5261 5261 5305 5314 5259 5318 5286 5293 5292 5317 5319 5338 5299 5312 5335 5316 5323 5326 5335 5338 5343 5344 5349 5361 5349 5359 5320 5352 5349 5340 5331 5330 5359 5356 5355 5364 5369 5344 5345 5369 5372 5371 5377 5376 5382 5400 5359 5317 5386 5357 5365 5353 5362 5365 5375 5340 5373 5376 5344 5396 5391 5395 5394 5414 5388 5403 5372 5453 5424 5407 5445 5342 5378 5377 5354 5358 5435 5337 5378 5387 5407 5394 5370 5397 5418 5329 5350 5388 5376 5364 5338 5371 5367 5360 5326 5379 5395 5364 5421 5392 5358 5360 5404 5374 5393 5361 5380 5314 5411 5366 5389 5362 5363 5393 5344 5455 5379 5397 5366 5388 5425 5332 5435 5373 5400 5444 5330 5382 5373 5383 5397 5366 5430 5353 5412 5337 5349 5417 5395 5426 5364 5385 5423 5383 5365 5440 5419 5383 5369 5402 5363 5384 5396 5367 5399 5395 5405 5368 5357 5409 5342 5438 5365 5386 5374 5362 5380 5442 5395 5439 5396 5421 5364 5391 5373 5357 5455 5451 5396 5326 5395 5346 5454 5374 5397 5425 5352 5432 5364 5410 5409 5370 5356 5374 5344 5388 5386 5365 5373 5385 5394 5381 5384 5372 5396 5391 5415 5323 5396 5338 5398 5433 5416 5423 5427 5412 5390 5418 5440 5362 5360 5388 5413 5461 5432 5419 5353 5414 5394 5436 5390 5439 5392 5386 5422 5445 5428 5388 5449 5436 5383 5447 5380 5400 5383 5471 5393 5407 5382 5373 5378 5391 5402 5428 5333 5400 5400 5397 5373 5396 5378 5389 5377 5377 5369 5386 5405 5421 5382 5467 5340 5429 5418 5424 5406 5431 5424 5408 5412 5412 5387 5433 5396 5395 5434 5414 5434 5438 5419 5418 5449 5427 5391 5382 5394 5392 5435 5423 5457 5365 5401 5416 5364 5430 5426 5380 5403 5432 5408 5432 5417 5383 5411 5423 5395 5446 5401 5452 5381 5449 5407 5405 5438 5443 5452 5378 5391 5415 5483 5432 5399 5387 5436 5439 5447 5438 5377 5402 5426 5411 5419 5413 5423 5428 5452 5412 5442 5370 5411 5383 5378 5441 5374 5414 5420 5335 5412 5473 5420 5397 5401 5416 5401 5390 5440 5432

Tree=0
num_leaves=63
num_cat=0
split_feature=7 12 5 11 15 12 5 15 13 12 0 12 13 7 7 13 7 7 0 12 7 13 10 7 7 0 7 4 1 7 8 5 12 5 10 7 5 5 12 7 12 3 7 7 7 3 10 4 6 4 4 0 13 6 5 10 7 10 0 15 15 7
split_gain=8.04353e+07 1.23553e+07 4.57889e+06 3.17496e+06 1.47227e+06 1.361e+06 1.2871e+06 679389 642728 588252 588046 574216 695956 466679 464709 1.06851e+06 531685 439409 393243 382813 358130 350290 313864 297027 277974 259306 291900 236997 236560 219256 215409 214368 203028 202871 201332 180125 165020 160517 150168 142268 140429 185487 140393 128522 126392 125561 120374 114723 113960 113564 127920 145121 111379 111118 106291 105709 95663.8 93845.4 92829.4 92303.4 180062 90668.7
threshold=101.26559895833334 13.500000000000002 160.03750000000002 89.242500000000021 30.500000000000004 14.500000000000002 346.28750000000008 10.500000000000002 2.0000000000000004 2.5000000000000004 42.797500000000007 14.500000000000002 2.0000000000000004 266.6419044384059 240.90451388888891 3.5000000000000004 162.77343750000003 202.49062500000005 338.66250000000008 11.500000000000002 246.32562500000003 3.5000000000000004 14.887500000000001 240.90451388888891 129.63497023809526 296.08750000000003 219.10572916666669 240.98750000000004 335.03750000000008 91.458655753968273 1.6275000000000004 88.711250000000021 12.500000000000002 106.23666666666668 22.001250000000002 60.736979166666679 88.711250000000021 229.05625000000003 12.500000000000002 294.50729166666673 20.500000000000004 281.47500000000008 294.50729166666673 41.986964285714294 132.1015974967062 223.10000000000002 19.327500000000004 290.97500000000008 182.30486111111114 133.84875000000002 80.950000000000017 426.80625000000003 2.0000000000000004 88.300416666666692 269.55750000000006 13.012500000000001 91.458655753968273 16.883750000000003 122.03750000000001 16.500000000000004 21.500000000000004 286.85724637681164
decision_type=10 2 10 8 2 2 10 2 2 2 2 2 2 10 10 2 10 10 2 2 10 2 8 10 10 2 10 8 8 8 8 10 2 10 10 10 10 8 2 10 2 8 10 10 10 8 10 10 10 8 10 2 2 10 10 8 10 8 2 2 2 10
left_child=4 2 9 7 5 36 19 37 20 28 43 23 27 32 15 24 44 21 -8 25 -5 -10 53 -9 59 26 -4 -13 -2 -7 -26 -15 33 52 40 -24 58 -3 -33 -19 41 -16 -21 -6 -17 -20 -25 -22 -18 50 -27 -52 -11 -12 -51 -53 -37 -43 -1 -14 -61 -42
right_child=1 3 6 8 10 29 18 11 17 13 22 12 14 31 34 16 48 39 45 42 47 -23 35 46 30 49 -28 -29 -30 -31 -32 38 -34 -35 -36 56 -38 -39 -40 -41 61 57 -44 -45 -46 -47 -48 -49 -50 54 51 55 -54 -55 -56 -57 -58 -59 -60 60 -62 -63
leaf_value=151.13239448576965 156.91852122388312 157.96498240384656 156.2826894707531 155.41671531649348 149.14549722022426 157.62791869303155 159.87316295835069 159.1970294991601 164.4194773596474 156.18966396496793 156.84525935876209 159.61661420709336 167.9573835537276 161.32720139236923 168.45744474899763 154.70853183409142 164.94880744316393 162.5675201165183 164.9906123733989 159.85223271717427 159.12983836246997 159.07269672163756 150.3426225839292 162.68370716983927 170.42018986028177 157.80677666017627 158.41446705297139 163.94997122387653 162.94580492212276 163.46325004327139 164.65290075918602 154.96054272129894 156.11208227565291 154.62937373138087 172.09169521774868 151.08080953749985 156.55626317640707 162.95419779576568 159.85260047984119 165.85135715147422 163.49870938524873 168.30760429131826 163.24625491568014 150.2754731643245 159.87523732703184 162.29433389936361 166.89274411744594 163.2214616918904 161.73936686504257 157.33542378697967 159.82587273365033 161.1756871716324 152.41184432490147 152.71773268150523 159.39065702628608 166.14598207613395 154.33435010033804 164.41195883743836 152.68739386887393 161.26966702931 166.83336182372699 166.6179953523372
leaf_weight=195 41 38 237 74 847 60 193 51 37 21 22 47 26 27 224 20 85 188 53 78 93 178 1570 49 85 37 498 96 27 22 20 62 91 243 22 1277 20 28 21 40 34 22 50 358 29 233 26 21 41 97 73 23 275 63 179 20 23 52 189 26 33 74
leaf_count=195 41 38 237 74 847 60 193 51 37 21 22 47 26 27 224 20 85 188 53 78 93 178 1570 49 85 37 498 96 27 22 20 62 91 243 22 1277 20 28 21 40 34 22 50 358 29 233 26 21 41 97 73 23 275 63 179 20 23 52 189 26 33 74
internal_value=155.288 160.184 157.98 163.415 150.716 153.32 159.403 165.004 160.575 154.861 150.412 165.31 165.736 154.452 166.315 165.005 162.186 161.614 161.617 158.583 158.125 159.993 150.792 162.141 167.601 158.297 157.727 162.526 159.312 159.193 169.322 157.457 153.928 153.559 167.433 150.703 152.128 160.082 156.198 163.144 167.181 167.74 161.178 149.481 157.766 162.794 164.143 159.884 163.904 159.274 160.367 161.183 152.68 153.786 158.668 163.487 151.138 165.57 151.898 165.475 164.382 165.636
internal_weight=8984 4338 2579 1759 4646 486 1771 1128 631 808 4160 1062 936 740 793 365 175 443 479 1292 188 215 2955 126 190 1164 735 143 68 82 105 110 630 539 428 2870 404 66 83 228 406 298 128 1205 49 286 75 114 126 429 153 116 296 85 276 43 1300 74 384 85 59 108
internal_count=8984 4338 2579 1759 4646 486 1771 1128 631 808 4160 1062 936 740 793 365 175 443 479 1292 188 215 2955 126 190 1164 735 143 68 82 105 110 630 539 428 2870 404 66 83 228 406 298 128 1205 49 286 75 114 126 429 153 116 296 85 276 43 1300 74 384 85 59 108
is_linear=0
shrinkage=1


Tree=1
num_leaves=63
num_cat=0
split_feature=7 12 5 11 15 12 5 15 13 12 0 12 13 7 7 13 7 7 0 12 4 13 10 7 7 0 7 4 1 7 8 5 5 12 3 7 12 5 5 12 12 7 8 12 7 13 7 3 7 10 10 3 6 4 4 0 2 5 10 11 1 12
split_gain=7.25928e+07 1.11506e+07 4.13245e+06 2.8654e+06 1.32872e+06 1.22831e+06 1.16161e+06 613149 580062 530898 530712 518230 628100 421178 419400 964328 479846 396567 354902 345489 325362 316137 283262 268067 250872 234023 263440 219966 213496 197878 194406 193467 185905 182943 246945 162563 149478 148930 139705 135526 135192 131825 128502 120328 115991 114990 114069 113319 110869 110333 108638 104694 102849 102492 115448 130972 97076.1 95927.9 95402.7 92156.8 91434.1 89158.3
threshold=101.26559895833334 13.500000000000002 160.03750000000002 89.242500000000021 30.500000000000004 14.500000000000002 346.28750000000008 10.500000000000002 2.0000000000000004 2.5000000000000004 42.797500000000007 14.500000000000002 2.0000000000000004 266.6419044384059 240.90451388888891 3.5000000000000004 162.77343750000003 202.49062500000005 338.66250000000008 11.500000000000002 172.08750000000003 3.5000000000000004 14.887500000000001 240.90451388888891 129.63497023809526 296.08750000000003 219.10572916666669 282.16666666666674 335.03750000000008 91.458655753968273 1.6275000000000004 88.711250000000021 122.03750000000001 19.500000000000004 276.50000000000006 60.736979166666679 16.500000000000004 88.711250000000021 143.81666666666669 12.500000000000002 12.500000000000002 254.79336805555559 0.78875000000000017 11.500000000000002 41.986964285714294 2.0000000000000004 132.1015974967062 223.10000000000002 315.29166666666669 18.687500000000004 19.327500000000004 79.226250000000007 182.30486111111114 133.84875000000002 80.950000000000017 426.80625000000003 244.27500000000003 269.55750000000006 13.012500000000001 61.502500000000005 249.13750000000002 20.500000000000004
decision_type=10 2 10 8 2 2 10 2 2 2 2 2 2 10 10 2 10 10 2 2 10 2 8 10 10 2 10 8 8 8 8 10 10 2 8 10 2 10 10 2 2 10 8 2 10 2 10 8 10 10 10 10 10 8 10 2 10 10 8 10 10 2
left_child=4 2 9 7 5 37 19 36 20 28 44 23 27 32 15 24 46 21 -8 25 -5 -10 51 -9 -14 26 -4 60 -2 -7 -26 -15 40 34 49 -24 -3 -1 -36 -33 45 -21 -19 -34 -6 -11 -17 -20 -22 -16 -25 -12 -18 54 -27 -56 -44 -55 -57 -43 -13 -23
right_child=1 3 6 8 10 29 18 11 17 13 22 12 14 31 33 16 52 42 47 41 48 61 35 50 30 53 -28 -29 -30 -31 -32 39 43 -35 38 -37 -38 -39 -40 -41 -42 59 56 -45 -46 -47 -48 -49 -50 -51 -52 -53 -54 57 55 58 -58 -59 -60 -61 -62 -63
leaf_value=-3.2206546089262704 1.5490821128938257 1.6026078171454945 0.94504186467342244 0.055350798161493409 -5.8352908374286461 2.2230096121629077 4.3559916735930768 3.7136648276272943 8.6749900946745999 0.50234519132546018 0.26711367328058588 2.8959162804388234 9.6780634971225972 5.7373281125669129 12.643269615031002 -0.55040788047015665 9.1778536807789521 9.2280736251616151 9.2175684119170569 3.2582145859192062 3.3596138060811058 4.4858812804615829 -4.6980215936329719 7.0260086604527068 14.375666678933536 2.3929246918575187 2.9702305112363225 8.878513463565282 7.2750014967388585 7.7665740793401543 8.8967424011230474 -0.31099759378740865 -0.47732762283359476 10.193349343425822 8.5752212824644882 -3.9420595227706317 6.4724464149773127 1.2049368000030518 12.704573983857127 4.3364572797502792 0.086981928603429556 9.6756301116943373 7.2185855748999224 3.1431181271870932 -4.7618136089672367 -2.5079070390237823 4.3579622174131458 6.6561041057365644 6.7857817216352991 15.437008937199913 11.024593617365911 -3.2446194276577089 6.1288853547921995 1.9451394626237068 4.3110659551947093 5.5933894893397458 3.8739118135892427 3.897611067248457 10.315169444084169 5.8080366364165918 6.4758920805794862 2.189081285958705
leaf_weight=384 41 26 237 72 847 60 193 51 37 35 44 31 85 27 134 20 85 71 53 41 83 109 1570 49 85 37 498 70 27 22 20 62 153 159 54 1300 40 20 33 21 76 20 131 27 358 339 29 233 33 48 26 41 41 97 73 23 26 179 20 67 42 69
leaf_count=384 41 26 237 72 847 60 193 51 37 35 44 31 85 27 134 20 85 71 53 41 83 109 1570 49 85 37 498 70 27 22 20 62 153 159 54 1300 40 20 33 21 76 20 131 27 358 339 29 233 33 48 26 41 41 97 73 23 26 179 20 67 42 69
internal_value=-8.78592e-09 4.65133 2.55778 7.72083 -4.34297 -1.86911 3.90968 9.23018 5.02266 -0.405354 -4.63199 9.52079 9.92603 -0.793869 10.476 9.23089 6.553 6.01023 6.01276 3.12998 2.69555 4.46969 -4.27135 6.5104 11.6974 2.85885 2.31721 6.87592 3.82261 3.71031 13.3321 2.06083 -1.29231 11.5379 12.3327 -4.3556 4.55403 -3.00157 10.1415 0.864864 -1.83553 5.59561 7.46294 0.0657392 -5.51637 -2.2262 2.35455 7.13078 4.3343 13.3801 8.41218 -1.42678 8.18573 3.78683 4.82482 5.60051 6.66469 3.21142 7.78957 6.69714 4.95563 3.59555
internal_weight=8984 4338 2579 1759 4646 486 1771 1128 631 808 4160 1062 936 740 793 365 175 443 479 1292 188 215 2955 126 190 1164 735 143 68 82 105 110 630 428 269 2870 66 404 87 83 450 128 228 180 1205 374 49 286 116 182 75 85 126 429 153 116 157 276 43 87 73 178
internal_count=8984 4338 2579 1759 4646 486 1771 1128 631 808 4160 1062 936 740 793 365 175 443 479 1292 188 215 2955 126 190 1164 735 143 68 82 105 110 630 428 269 2870 66 404 87 83 450 128 228 180 1205 374 49 286 116 182 75 85 126 429 153 116 157 276 43 87 73 178
is_linear=0
shrinkage=0.05


Tree=2
num_leaves=63
num_cat=0
split_feature=7 12 5 11 15 12 5 15 13 0 12 13 12 7 1 8 7 10 12 7 0 13 0 10 7 7 5 7 1 4 4 10 7 5 7 7 15 15 5 5 1 12 7 12 7 12 7 12 4 10 9 6 12 13 7 13 4 12 5 13 12 0
split_gain=6.5515e+07 1.00634e+07 3.72966e+06 2.58602e+06 1.19917e+06 1.10855e+06 1.0657e+06 553367 523506 479158 467703 566861 464257 389948 384134 361609 357901 337980 324977 298936 285565 285314 265065 254431 241930 240588 224783 301422 201075 198959 188442 182918 178585 174604 155141 151098 145404 436962 142256 134409 131087 123894 123067 122312 111209 111208 109647 108331 98158.9 98045.6 95402.8 95059.6 89167.1 156643 125714 123811 109921 97250.8 87294.5 84826.7 262430 109240
threshold=101.26559895833334 13.500000000000002 157.44750000000002 89.242500000000021 30.500000000000004 14.500000000000002 359.23333333333341 10.500000000000002 2.0000000000000004 43.378750000000004 14.500000000000002 2.0000000000000004 2.5000000000000004 266.6419044384059 58.885000000000005 2.5387500000000003 202.49062500000005 22.105000000000004 11.500000000000002 246.32562500000003 342.32500000000005 3.5000000000000004 296.08750000000003 14.887500000000001 240.90451388888891 219.10572916666669 103.03750000000001 209.11111111111114 335.03750000000008 282.16666666666674 92.451250000000002 20.595000000000002 91.458655753968273 88.711250000000021 167.54166666666671 78.578229166666674 43.000000000000007 37.500000000000007 376.19125000000003 88.711250000000021 124.0425 20.500000000000004 294.50729166666673 12.500000000000002 38.817055921052635 15.500000000000002 294.50729166666673 12.500000000000002 290.97500000000008 19.327500000000004 276.83750000000003 88.300416666666692 7.5000000000000009 1.0000000180025095e-35 244.40489130434784 3.5000000000000004 80.010000000000019 2.5000000000000004 85.268750000000026 1.0000000180025095e-35 8.5000000000000018 174.7708333333334
decision_type=10 2 10 8 2 2 10 2 2 2 2 2 2 10 10 8 10 10 2 10 2 2 2 8 10 10 8 10 8 10 10 8 8 10 10 10 2 2 8 10 10 2 10 2 10 2 10 2 10 10 10 10 2 2 10 2 8 2 10 2 2 2
left_child=4 2 12 7 5 39 18 38 19 44 24 29 28 34 -13 17 21 26 22 -5 -8 -10 25 51 -9 -4 27 -16 -2 -12 -28 -17 -7 -15 58 -25 37 41 -3 -1 -29 45 -18 -35 -6 -32 -20 -36 -21 -26 -22 -11 53 54 -24 -54 -55 -58 -14 -27 61 -61
right_child=1 3 6 8 9 32 20 10 16 23 11 14 13 33 15 31 42 -19 46 48 50 -23 52 35 49 59 30 40 -30 -31 36 -33 -34 43 47 -37 -38 -39 -40 -41 -42 -43 -44 -45 -46 -47 -48 -49 -50 -51 -52 -53 55 56 -56 -57 57 -59 -60 60 -62 -63
leaf_value=-3.0596219539099065 1.2981027129368905 2.684910119934516 0.90709407111449591 0.08610972967502234 -5.6055298384199759 2.1118591515223186 4.2725596125120537 3.5279815746288676 8.2412406502543263 1.4741088179024784 4.805449791388078 3.1107707309722903 -2.7731719817739826 5.450461606626158 4.5845353101429192 4.9732322213550413 6.5539629248862568 15.848267456463404 4.2459475841051271 3.4699484902043496 6.5083107376977596 3.4157712644070721 -1.2168865907192232 -4.2261324766258088 6.6747080588827332 3.7549070316812272 6.0075380972453525 11.861136183627817 6.9112513078583619 8.5465806094082932 8.9829821830987928 10.664611415863037 7.3782453797080301 -0.29544765631998743 -0.8637931150139162 -2.721380241667287 13.177910452373958 4.1116115036010745 7.6091509775681931 1.1446900177001955 7.7066086039823647 9.6615161500658306 9.6081784510612493 4.1196344477789744 -4.6356835495519935 11.803300715267444 7.2236160392761235 1.8145133105699314 7.2546890894571945 10.473363876342773 9.1382074774765396 -2.3435391870755997 5.3043027842486348 2.1329984638336543 3.2509271841596914 1.3626404476008918 6.4550785617130559 4.3234808716681092 -1.0631660721433445 0.92821229747363498 0.68130134794351871 3.9867321955209429
leaf_weight=384 39 44 248 74 752 60 167 51 37 22 77 20 181 27 38 48 188 28 81 93 217 178 20 2658 49 161 21 43 27 66 40 20 22 62 266 178 59 25 22 20 34 140 40 21 487 277 50 44 21 26 41 63 27 37 74 76 82 154 127 35 139 176
leaf_count=384 39 44 248 74 752 60 167 51 37 22 77 20 181 27 38 48 188 28 81 93 217 178 20 2658 49 161 21 43 27 66 40 20 22 62 266 178 59 25 22 20 34 140 40 21 487 277 50 44 21 26 41 63 27 37 74 76 82 154 127 35 139 176
internal_value=1.18535e-08 4.41876 2.42989 7.33479 -4.12582 -1.77565 3.69804 8.76867 4.77152 -4.40039 9.04475 9.42973 -0.421045 -0.785082 9.95225 10.1293 5.70972 10.4651 3.01509 2.56078 5.8835 4.2462 2.76275 -4.0509 6.18488 2.18492 10.2425 8.2284 3.59439 6.53213 10.6546 6.64717 3.52479 1.95779 -1.2733 -4.13169 10.835 10.5482 4.32632 -2.85149 10.0267 10.9003 7.08979 0.821621 -5.22432 11.4474 5.38246 -0.483646 4.16714 7.99158 6.92624 -1.35544 3.69587 4.06072 2.30033 2.39589 4.66686 5.06412 -2.06807 2.80507 2.36815 3.47939
internal_weight=8984 4338 2579 1759 4646 486 1785 1128 631 4160 1062 936 794 728 793 773 443 705 1360 188 425 215 1229 2921 126 759 677 115 66 143 562 68 82 110 618 2836 541 482 66 404 77 457 228 83 1239 317 131 310 114 75 258 85 470 367 94 103 273 236 308 511 350 211
internal_count=8984 4338 2579 1759 4646 486 1785 1128 631 4160 1062 936 794 728 793 773 443 705 1360 188 425 215 1229 2921 126 759 677 115 66 143 562 68 82 110 618 2836 541 482 66 404 77 457 228 83 1239 317 131 310 114 75 258 85 470 367 94 103 273 236 308 511 350 211
is_linear=0
shrinkage=0.05


Tree=3
num_leaves=63
num_cat=0
split_feature=7 12 5 11 15 12 5 15 4 12 6 12 13 7 13 7 8 7 0 10 7 13 4 5 7 7 0 10 7 4 7 7 10 1 10 12 7 12 5 5 13 15 9 12 12 3 7 13 6 7 1 12 12 10 9 10 12 13 0 6 3 7
split_gain=5.91273e+07 9.08226e+06 3.36672e+06 2.33389e+06 1.08225e+06 1.00427e+06 949833 499413 484090 433811 433790 422102 511592 352466 345470 343289 328561 297535 257722 231605 218342 212075 210738 198305 713604 194078 189352 189649 186343 184925 184450 179896 176206 173246 166383 165419 161804 159484 159493 157580 156657 154349 141742 130685 122453 164962 119939 119079 116067 114914 112136 111751 111511 102362 100535 89838.4 114611 319220 96445 105040 89652.8 88605.3
threshold=101.26559895833334 13.500000000000002 160.03750000000002 89.242500000000021 30.500000000000004 13.500000000000002 359.23333333333341 10.500000000000002 216.10000000000002 2.5000000000000004 43.947291666666672 14.500000000000002 2.0000000000000004 110.59722222222224 2.0000000000000004 266.6419044384059 2.5387500000000003 294.50729166666673 342.32500000000005 14.887500000000001 240.90451388888891 3.5000000000000004 53.741250000000008 1.3062500000000001 240.90451388888891 156.06044871794873 419.92000000000007 13.162500000000003 224.30270833333336 240.98750000000004 129.63497023809526 207.31677018633545 22.001250000000002 335.03750000000008 20.595000000000002 12.500000000000002 60.736979166666679 12.500000000000002 101.47500000000001 88.711250000000021 5.5000000000000009 4.5000000000000009 198.03500000000003 16.500000000000004 20.500000000000004 300.02500000000003 202.49062500000005 5.5000000000000009 80.58645833333334 268.52794117647062 139.30875000000006 7.5000000000000009 11.500000000000002 17.68416666666667 149.60375000000002 16.562500000000004 8.5000000000000018 1.0000000180025095e-35 174.7708333333334 270.91666666666669 79.226250000000007 271.72916666666669
decision_type=10 2 10 8 2 2 10 2 10 2 8 2 2 10 2 10 8 10 2 8 10 2 10 10 10 10 2 8 10 8 10 10 10 8 8 2 10 2 10 10 2 2 10 2 2 8 10 2 10 10 8 2 2 10 10 10 2 2 2 10 10 10
left_child=4 2 9 7 5 50 17 43 14 33 -6 20 29 -14 -5 37 23 26 -8 60 -9 -16 -7 30 25 -25 28 -28 42 -13 48 -23 44 -2 -18 -19 -21 38 -11 -17 46 -24 -4 -3 45 47 -10 49 -15 -26 -1 -44 -41 -51 -50 56 58 -58 -30 -60 -12 -49
right_child=1 3 6 8 10 22 18 11 40 15 19 12 13 16 21 39 34 35 -20 36 -22 31 41 24 32 -27 27 -29 55 -31 -32 -33 -34 -35 -36 -37 -38 -39 -40 52 -42 -43 51 -45 -46 -47 -48 61 54 53 -52 -53 -54 -55 -56 -57 57 -59 59 -61 -62 -63
leaf_value=-3.5828424396136636 1.407676476967044 1.3503530726983 0.82024408802117188 0.95940077652985412 -4.9946490592810324 7.5571948909759534 4.0589316987705804 3.3515825635954446 2.3923155411597223 -2.3463852697709466 0.27983202202753588 3.6357984654446867 3.9447303109935357 12.698519163131714 7.8291786000535302 5.1779387168310311 4.6863791810705306 3.9173248346949765 6.579928066194519 -4.2796540731377783 7.5919965375264482 2.6756496063868207 4.8347893756169542 3.4256081262099984 7.9377890925253602 7.6118090282786985 3.2498101492807017 8.5215357484916847 0.88842868988330559 7.4636119499802591 13.121628628899069 5.9114043674542618 15.20312526702881 6.5656886869006685 10.131380834579469 8.167306411743164 -3.5303206863055183 0.76876436209940646 -0.62611985996309738 -0.98706536403922152 7.7397775066796175 0.015054615943328195 4.2165719595370872 5.9037830124050386 8.9246498156052372 8.2676925937334698 5.7869359004621712 15.820535024007164 10.680686714649202 10.653611703713736 -1.8931686704357464 0.65300621607086873 2.6807161720097064 14.434850848804821 5.8335755161617122 6.1292602443695072 4.5210699689561045 0.32984803334662788 4.7072903886233934 2.854236124664824 -2.9698671992232164 12.054951614630028
leaf_weight=208 41 26 273 110 1174 20 167 51 31 272 44 47 28 20 37 27 47 272 258 1569 75 135 26 37 31 110 59 24 39 96 85 63 20 27 20 25 1332 91 267 43 93 46 66 40 104 48 162 21 20 96 186 33 40 22 23 20 69 133 119 214 41 61
leaf_count=208 41 26 273 110 1174 20 167 51 31 272 44 47 28 20 37 27 47 272 258 1569 75 135 26 37 31 110 59 24 39 96 85 63 20 27 20 25 1332 91 267 43 93 46 66 40 104 48 162 21 20 96 186 33 40 22 23 20 69 133 119 214 41 61
internal_value=-3.56916e-08 4.19782 2.3084 6.96805 -3.91953 -1.68687 3.52864 8.33023 4.53295 -0.366158 -4.18037 8.59251 8.95824 9.45463 3.27201 -0.717357 9.6563 2.87797 5.58932 -3.86022 5.87564 4.35451 3.01675 9.97734 9.54016 6.55814 2.48242 4.77416 2.28551 6.20552 11.602 3.70521 10.6279 3.45571 6.31175 4.27507 -3.9356 -1.16735 -1.49423 1.8599 6.054 1.75551 1.40798 4.11001 10.389 10.9348 5.24169 11.489 9.55169 10.6469 -2.78518 3.02872 0.78054 11.3586 8.08805 2.83507 2.72029 1.7615 3.24092 3.51644 -1.28767 13.0193
internal_weight=8984 4338 2579 1759 4646 486 1771 1128 631 808 4160 1062 936 793 345 740 765 1346 425 2986 126 235 92 698 550 147 1049 83 966 143 148 198 403 68 67 297 2901 630 539 110 286 72 372 66 383 279 193 231 63 149 394 99 83 118 43 594 574 202 372 333 85 82
internal_count=8984 4338 2579 1759 4646 486 1771 1128 631 808 4160 1062 936 793 345 740 765 1346 425 2986 126 235 92 698 550 147 1049 83 966 143 148 198 403 68 67 297 2901 630 539 110 286 72 372 66 383 279 193 231 63 149 394 99 83 118 43 594 574 202 372 333 85 82
is_linear=0
shrinkage=0.05


Tree=4
num_leaves=63
num_cat=0
split_feature=7 12 5 11 15 12 5 10 10 12 13 13 0 12 7 12 8 7 13 7 0 7 7 15 15 10 7 0 13 4 1 5 7 7 5 12 7 9 12 13 15 11 7 5 5 2 3 12 7 3 5 4 7 9 6 13 6 11 0 3 13 4
split_gain=5.33624e+07 8.19674e+06 3.04135e+06 2.1097e+06 976732 907969 872266 480325 476654 541084 504228 433075 398442 377376 317912 289336 285336 276947 280982 273042 268095 241838 222692 222033 383867 207664 200025 195862 185120 179865 164341 159138 313644 151183 142216 138670 136422 133674 133329 557411 215108 184896 132788 118725 118100 113010 104410 103794 101861 101605 100645 97274.8 93501.8 92820 92696.3 91895.2 81319.8 79460.9 77458.2 77247.8 187671 76406.7
threshold=101.26559895833334 13.500000000000002 157.44750000000002 88.257500000000007 30.500000000000004 14.500000000000002 346.28750000000008 25.836250000000007 23.001250000000006 15.500000000000002 2.0000000000000004 2.0000000000000004 42.797500000000007 2.5000000000000004 266.6419044384059 12.500000000000002 2.5387500000000003 202.49062500000005 3.5000000000000004 250.03840579710149 323.83750000000003 276.58225108225116 240.90451388888891 43.000000000000007 37.500000000000007 14.887500000000001 113.34895833333336 174.7708333333334 4.5000000000000009 288.28750000000008 335.03750000000008 1.3062500000000001 240.90451388888891 91.458655753968273 88.711250000000021 19.500000000000004 167.54166666666671 130.16500000000005 7.5000000000000009 1.0000000180025095e-35 6.5000000000000009 66.478750000000019 78.578229166666674 88.711250000000021 248.27125000000004 253.64625000000004 223.10000000000002 12.500000000000002 186.72916666666669 281.47500000000008 108.06250000000001 277.46250000000003 36.405520833333341 280.86166666666674 178.34583333333339 1.0000000180025095e-35 88.300416666666692 79.72375000000001 110.86000000000003 129.05000000000004 5.5000000000000009 80.010000000000019
decision_type=10 2 10 8 2 2 10 8 10 2 2 2 2 2 10 2 8 10 2 10 2 10 10 2 2 8 10 2 2 8 8 10 10 8 10 2 10 10 2 2 2 8 10 10 10 8 8 2 10 10 8 10 10 10 10 2 10 10 2 8 2 8
left_child=4 2 13 7 5 43 15 8 9 22 29 19 52 30 36 27 23 18 -13 -5 -8 28 50 24 26 56 -12 48 -9 -11 -2 57 37 -7 -16 49 -15 -33 40 -40 -29 -41 -27 58 -43 -17 -22 -36 -4 -34 -3 -21 -6 -19 -38 -42 -14 -28 -1 -20 -61 -57
right_child=1 3 6 11 12 33 20 21 -10 10 16 17 25 14 34 45 -18 53 59 51 46 -23 -24 -25 -26 42 31 38 -30 -31 -32 32 35 -35 47 -37 54 -39 39 41 55 44 -44 -45 -46 -47 -48 -49 -50 -51 -52 -53 -54 -55 -56 61 -58 -59 -60 60 -62 -63
leaf_value=-3.5986700543596699 1.1628137398988774 1.8286169225519355 -1.1639272671531546 0.25641516709611534 -5.1521556518447236 1.8944648562495907 3.5537838969169009 5.5575790008476806 14.498970897992454 3.7925276467057523 5.854265579800396 7.770198176457332 1.39379751032049 -1.8957983097811413 4.9190416450853709 4.5278420832098991 5.3869519286535006 6.0796771120431741 2.3857512605384112 3.1183240591934545 8.0091275041753587 8.1571434161242333 7.2702250398050143 12.556201614652363 3.5480300792625976 -3.818459666245527 12.585308761027322 1.3790823948420301 0.37736032289617205 7.8839143792788198 6.2374041663275825 10.278902350022243 11.878482049703599 6.7400034817782313 -0.28752189874649048 8.9396627392685204 1.3191866051766181 6.1819630643900707 5.0593673419108436 5.1702238519986476 2.3785135998019733 -0.37871348886071027 -2.4083839257990713 1.1796089696884156 1.6584478972493297 9.1122768497467046 5.6079745594855925 3.7796168236505419 1.6484914739367864 8.9341602225052679 5.2766863693625243 6.4062461899172876 -4.269655144677988 9.5581833703177317 -0.84233860317617659 2.2137462148126565 -2.1371887244875469 9.0604559671311158 -2.1619257658854871 2.0266416600995489 7.8491677093505858 4.2464191042957058
leaf_weight=163 39 33 44 84 639 60 168 35 30 61 34 39 22 308 27 41 44 221 123 82 55 34 127 56 28 2692 67 131 34 48 27 26 128 22 62 114 62 85 113 24 113 148 178 20 137 20 256 21 120 38 59 31 566 21 248 53 63 21 221 31 25 362
leaf_count=163 39 33 44 84 639 60 168 35 30 61 34 39 22 308 27 41 44 221 123 82 55 34 127 56 28 2692 67 131 34 48 27 26 128 22 62 114 62 85 113 24 113 148 178 20 137 20 256 21 120 38 59 31 566 21 248 53 63 21 221 31 25 362
internal_value=1.34387e-09 3.98793 2.19298 6.61964 -3.72356 -1.60253 3.33814 7.95667 8.29185 8.09968 8.73814 4.37703 -3.97135 -0.381482 -0.709693 2.66877 9.27275 5.21711 3.9245 2.41541 5.16321 4.70571 5.91318 9.55914 9.24891 -3.65887 9.56007 2.50403 3.00501 5.59424 3.23878 9.82311 9.39075 3.19449 1.76691 10.2824 -1.15051 7.14161 2.7483 2.05439 3.19266 0.955479 -3.73101 -2.57618 0.600554 6.03094 6.03262 0.741513 0.89394 11.2045 4.03988 4.02032 -4.73764 6.38153 -0.410034 3.64262 -1.22329 11.7442 -2.77179 3.08661 4.62598 3.98682
internal_weight=8984 4338 2579 1759 4646 486 1785 1102 999 969 750 657 4160 794 728 1306 641 460 218 197 479 103 219 597 541 2955 513 1245 69 109 66 479 391 82 110 280 618 111 1081 422 659 309 2870 404 285 61 311 83 164 166 92 113 1205 242 310 528 85 88 384 179 56 415
internal_count=8984 4338 2579 1759 4646 486 1785 1102 999 969 750 657 4160 794 728 1306 641 460 218 197 479 103 219 597 541 2955 513 1245 69 109 66 479 391 82 110 280 618 111 1081 422 659 309 2870 404 285 61 311 83 164 166 92 113 1205 242 310 528 85 88 384 179 56 415
is_linear=0
shrinkage=0.05


Tree=5
num_leaves=63
num_cat=0
split_feature=7 12 5 11 15 12 5 10 10 12 13 13 0 12 7 7 8 4 7 13 7 0 7 15 15 10 4 7 5 7 4 7 0 12 13 11 11 5 7 15 12 5 12 5 12 7 9 4 7 13 1 7 7 15 12 13 3 5 7 8 3 2
split_gain=4.81596e+07 7.39756e+06 2.74482e+06 1.904e+06 881500 824294 790173 433494 430180 488328 455066 390850 359925 340581 288884 281891 257516 250579 249945 253587 218259 207502 200980 200384 346440 186503 185568 180523 170923 175460 162836 148429 146240 151174 309070 182756 179587 143623 283063 132425 130608 128532 166480 127559 125149 121471 120641 97952.5 96788.8 94946.7 94670.8 94487.3 94433 93420.4 92101 108697 91698.7 91233.9 90935.1 87395.1 99195.5 88859.8
threshold=101.26559895833334 13.500000000000002 157.44750000000002 88.257500000000007 30.500000000000004 13.500000000000002 366.76125000000008 25.836250000000007 23.001250000000006 15.500000000000002 2.0000000000000004 2.0000000000000004 43.378750000000004 2.5000000000000004 239.35416666666671 294.50729166666673 2.5387500000000003 172.08750000000003 202.49062500000005 3.5000000000000004 276.58225108225116 342.32500000000005 240.90451388888891 43.000000000000007 37.500000000000007 14.887500000000001 53.741250000000008 113.34895833333336 63.545000000000009 224.30270833333336 290.97500000000008 160.22300724637685 174.7708333333334 7.5000000000000009 1.0000000180025095e-35 96.752500000000012 67.003750000000011 1.3062500000000001 240.90451388888891 4.5000000000000009 12.500000000000002 71.472500000000011 12.500000000000002 120.13750000000002 19.500000000000004 60.736979166666679 130.16500000000005 277.46250000000003 236.03692708333335 5.5000000000000009 129.26250000000005 167.54166666666671 227.55939236111112 27.500000000000004 12.500000000000002 2.0000000000000004 281.47500000000008 85.268750000000026 41.986964285714294 0.78875000000000017 177.10000000000002 244.27500000000003
decision_type=10 2 10 8 2 2 10 8 10 2 2 2 2 2 10 10 8 10 10 2 10 2 10 2 2 8 10 10 10 10 10 10 2 2 2 8 8 10 10 2 2 10 2 10 2 10 10 10 10 2 8 10 10 2 2 2 10 8 10 8 8 10
left_child=4 2 13 7 5 50 15 8 9 22 30 17 58 31 43 32 23 -5 19 -13 28 -8 57 24 27 -14 -7 -12 -9 -30 -11 -2 51 35 -35 48 -36 -29 46 -28 -17 -16 -43 54 56 -27 -39 -19 -34 -23 -1 -4 -37 -50 55 -15 -40 -3 -6 60 -20 -61
right_child=1 3 6 11 12 26 21 20 -10 10 16 18 25 14 41 40 -18 47 59 -21 -22 49 -24 -25 -26 45 39 37 29 -31 -32 -33 33 34 36 52 -38 38 44 -41 -42 42 -44 -45 -46 -47 -48 -49 53 -51 -52 -53 -54 -55 -56 -57 -58 -59 -60 61 -62 -63
leaf_value=-3.358214174976665 1.1039356591227729 1.5171508525979931 -1.9449321487024429 -0.054986209277477528 -4.7717852965500356 6.9996291080117237 3.7064386996825536 6.4920958172191279 13.774022331237795 3.7245105670277887 5.5615522116860925 7.3816881185922867 -1.1621220675636741 0.64252586509242215 3.9425861989298179 3.6366236710196569 5.1176042982123118 2.8269938417019382 5.9377209201151011 2.9322757496181149 7.7492861467249261 5.540547349001911 6.9067137804557026 11.928391633714948 3.3706286261124272 -3.8383877081072706 4.4076338800100183 11.156943288716404 -2.3974076318740845 3.7814920328281545 7.6634157137437304 5.926599288869788 4.4467032169757621 4.4837529223305834 4.9910938848148696 1.039244066954901 0.24288069935072035 9.7649572170697727 11.284557871520519 -0.056692032192064368 7.4041849975585938 -0.4751844256383474 3.314819975589451 0.017043664169983125 8.4926797431811956 -3.1813289584574687 5.8728647626147552 6.0341222971677784 3.6180638879099316 7.9235594184310347 -1.8029752110091732 1.3800734811899613 3.1817871826887134 1.3592848017379859 -0.056004390646429626 -2.3838429049214946 8.4874521506460088 4.9061593057617312 -3.842855357119912 5.8985637976710956 9.4526578877778622 2.7025499499761145
leaf_weight=181 39 29 25 72 859 20 150 22 30 65 34 39 85 33 31 288 44 93 49 179 34 185 127 56 28 1544 26 88 20 27 44 27 180 70 22 144 210 26 128 46 25 122 38 142 114 1292 85 32 136 54 213 147 80 69 68 294 38 63 380 133 34 26
leaf_count=181 39 29 25 72 859 20 150 22 30 65 34 39 85 33 31 288 44 93 49 179 34 185 127 56 28 1544 26 88 20 27 44 27 180 70 22 144 210 26 128 46 25 122 38 142 114 1292 85 32 136 54 213 147 80 69 68 294 38 63 380 133 34 26
internal_value=-1.05628e-08 3.78853 2.08333 6.28866 -3.53738 -1.5224 3.17124 7.55884 7.87726 7.6947 8.30123 4.15817 -3.77278 -0.362408 -0.674208 2.61592 8.80911 2.29464 4.95625 3.72827 4.47043 5.16411 5.61753 9.08118 8.78646 -3.46988 2.73895 9.08206 2.85476 1.15217 5.31453 3.07684 2.23395 2.48641 1.57176 2.93998 0.693142 9.33195 8.92121 1.55543 3.93755 0.995868 0.424942 -1.26822 9.76826 -3.53905 6.78453 3.64802 3.60066 6.07897 -2.51744 0.896788 1.80444 2.85779 -1.73027 -2.07843 10.6443 3.83788 -4.48688 6.06245 7.37757 5.37595
internal_weight=8984 4338 2579 1759 4646 486 1785 1102 999 969 750 657 4160 794 728 1396 641 197 460 218 103 389 219 597 541 2921 92 513 69 47 109 66 1083 911 302 609 232 479 391 72 313 191 160 537 280 2836 111 125 385 239 394 172 224 205 395 327 166 92 1239 242 83 159
internal_count=8984 4338 2579 1759 4646 486 1785 1102 999 969 750 657 4160 794 728 1396 641 197 460 218 103 389 219 597 541 2921 92 513 69 47 109 66 1083 911 302 609 232 479 391 72 313 191 160 537 280 2836 111 125 385 239 394 172 224 205 395 327 166 92 1239 242 83 159
is_linear=0
shrinkage=0.05


Tree=6
num_leaves=63
num_cat=0
split_feature=7 12 5 11 15 7 12 12 7 5 7 13 10 7 6 13 2 5 3 7 0 7 13 2 12 13 0 12 5 10 7 5 7 3 7 11 4 9 12 4 7 10 10 1 5 6 7 6 7 12 12 13 0 5 13 9 7 2 7 12 15 13
split_gain=4.34697e+07 6.76349e+06 2.5864e+06 1.67357e+06 726859 669560 629844 436256 392108 584450 446853 363888 336983 326166 317673 290975 258744 254600 248564 228358 224874 211907 194011 192274 182168 179198 170990 170350 223773 167542 146542 140273 130074 126753 123438 113778 143074 113014 112220 99520.5 98762.6 92302.4 87870.3 86621.5 80767.1 75643.1 149864 74721.4 73114.1 71188 118183 163563 94821.9 70779.3 84105.6 70604.9 68516.8 67813.9 67489.4 66704.3 64229.7 62782.1
threshold=96.005533625731005 13.500000000000002 169.01250000000002 89.242500000000021 30.500000000000004 279.13250000000005 13.500000000000002 2.5000000000000004 276.58225108225116 124.22250000000001 162.77343750000003 2.0000000000000004 22.105000000000004 167.54166666666671 42.721875000000004 2.0000000000000004 195.01250000000002 389.49125000000009 61.505000000000003 202.49062500000005 345.90000000000003 246.32562500000003 3.5000000000000004 141.04500000000004 12.500000000000002 3.5000000000000004 122.03750000000001 14.500000000000002 162.15000000000003 14.887500000000001 160.22300724637685 160.03750000000002 224.30270833333336 223.10000000000002 60.736979166666679 44.650833333333338 103.03750000000001 256.2675000000001 11.500000000000002 243.12500000000003 294.50729166666673 13.012500000000001 12.962500000000004 139.30875000000006 85.268750000000026 154.61145833333336 165.27708333333337 92.238888888888908 240.90451388888891 11.500000000000002 8.5000000000000018 1.0000000180025095e-35 179.85125000000002 272.33750000000003 1.0000000180025095e-35 203.93875000000003 315.29166666666669 63.516250000000007 132.1015974967062 12.500000000000002 34.500000000000007 5.5000000000000009
decision_type=10 2 10 8 2 10 2 2 10 8 10 2 10 10 8 2 8 10 10 10 2 10 2 8 2 2 2 2 10 8 10 8 10 8 10 10 10 10 2 10 10 8 10 8 10 10 10 10 10 2 2 2 2 10 2 10 10 10 10 2 2 2
left_child=4 2 7 8 6 20 43 30 9 10 58 21 16 44 -6 -11 37 38 -17 22 32 -5 -13 -12 31 -22 57 -20 35 47 -2 -15 41 -19 -31 -29 -37 60 53 -18 -21 55 -27 -1 59 46 -24 -16 -25 50 52 -52 -34 54 -7 -4 -23 -8 -3 -9 -10 -48
right_child=1 3 5 11 14 17 26 13 12 15 23 19 -14 24 29 18 39 33 27 40 25 56 45 48 -26 42 -28 28 -30 34 -32 -33 49 -35 -36 36 -38 -39 -40 -41 -42 -43 -44 -45 -46 -47 61 -49 -50 -51 51 -53 -54 -55 -56 -57 -58 -59 -60 -61 -62 -63
leaf_value=-3.0814546432327758 1.4189074948430063 -1.0368370771408082 1.2613344320136568 -0.023565428965800519 -4.3212479753839483 3.960413361958095 2.2238820658173672 -2.9267551570743713 7.9050690331178561 3.6313237704336645 7.5495482206344606 6.5153493128039619 14.376594870431084 -0.65881137802159495 1.3822136163711549 2.5856822078878228 5.03785542685252 8.9278299896805375 4.8313670931635677 5.3110573675721255 0.83764998759660458 2.5796737623520389 1.9567425620029955 2.2005538439750674 2.4908068167535884 3.9562133230592895 6.3148427480743052 6.5877529819806417 6.5736793560641154 -3.6850374179409737 5.6732852101325992 1.6620434812292821 0.49156951824339423 5.2701934045151724 -3.0358800955587317 7.0536656868763465 10.43955303980754 11.26906298933358 5.6121072276946045 7.4436543804983941 8.0471119085699314 0.69128504756669451 6.7393281619723258 -1.5726260355397976 -0.86551292295003468 0.68692183284198549 4.0768371129035952 -2.0168188786897505 5.4324071059908192 4.4786638882756238 3.8936775207519534 0.012894888222217561 3.0428412086027534 3.6883668932066125 0.7900696984563883 4.1336210232973105 5.2167489104800753 -1.3002350091934205 2.2365877785990316 -0.65735045351633214 10.936230139298873 7.5078195285797129
leaf_weight=203 48 32 46 74 1105 35 43 154 85 48 68 44 21 316 22 22 52 27 37 188 36 78 85 35 76 92 21 33 112 1631 35 82 41 193 1329 39 156 58 62 248 40 243 41 179 137 34 40 61 35 40 37 102 326 295 52 40 36 20 31 41 22 20
leaf_count=203 48 32 46 74 1105 35 43 154 85 48 68 44 21 316 22 22 52 27 37 188 36 78 85 35 76 92 21 33 112 1631 35 82 41 193 1329 39 156 58 62 248 40 243 41 179 137 34 40 61 35 40 37 102 326 295 52 40 36 20 31 41 22 20
internal_value=3.71626e-09 3.57377 1.94847 5.95443 -3.38478 3.08686 -1.51245 -0.238661 7.10756 6.30237 4.06308 3.90801 8.18115 -0.594097 -3.59512 7.30931 7.90135 4.32819 7.75177 4.67837 2.29735 2.05997 3.54073 5.65596 0.247689 3.9671 2.40755 8.05324 8.40386 -3.33145 3.21292 -0.180645 1.97485 5.71909 -3.39357 9.30289 9.76238 9.49172 3.639 7.02665 5.79107 1.18951 4.81417 -2.37444 -1.79592 2.80954 3.30726 -1.11587 3.81648 2.44807 2.28755 1.04591 2.75782 3.31876 2.0655 2.59728 3.41243 1.10511 0.573896 -2.4496 8.5283 5.2205
internal_weight=8984 4370 2597 1773 4614 1708 466 889 1134 648 201 639 486 806 4148 447 465 664 399 451 1044 188 223 138 474 169 84 377 340 3043 83 398 875 220 2960 228 195 165 444 300 228 329 133 382 332 179 145 83 70 546 506 139 367 382 87 86 114 63 63 195 107 60
internal_count=8984 4370 2597 1773 4614 1708 466 889 1134 648 201 639 486 806 4148 447 465 664 399 451 1044 188 223 138 474 169 84 377 340 3043 83 398 875 220 2960 228 195 165 444 300 228 329 133 382 332 179 145 83 70 546 506 139 367 382 87 86 114 63 63 195 107 60
is_linear=0
shrinkage=0.05


Tree=7
num_leaves=63
num_cat=0
split_feature=7 12 5 11 15 7 12 12 10 10 12 13 13 7 7 7 0 4 8 13 4 7 13 15 7 15 15 5 12 7 10 3 4 5 7 7 5 7 12 7 12 9 3 12 13 12 4 0 12 13 9 3 0 0 5 1 5 4 10 6 7 1
split_gain=3.92314e+07 6.10405e+06 2.33423e+06 1.51313e+06 655990 609369 569889 393721 381898 383898 432110 387354 324461 320893 294745 290931 274538 244095 227991 218621 209653 191837 213269 178796 176485 172819 311605 170864 162894 156622 151058 145664 139142 132660 132255 132114 119263 234409 117875 115797 106530 104989 96622.2 92159.4 88848.4 86337.7 84653.7 83432.7 82158.3 169319 80915.4 78763.5 78705.3 76662.2 75095.4 73115.1 70052.1 68563.7 68277 67824.8 136418 67552.7
threshold=96.005533625731005 13.500000000000002 169.01250000000002 88.257500000000007 30.500000000000004 297.38203125000007 12.500000000000002 2.5000000000000004 25.427500000000006 23.001250000000006 15.500000000000002 2.0000000000000004 2.0000000000000004 129.63497023809526 170.1401041666667 42.748541666666675 345.90000000000003 53.741250000000008 2.5387500000000003 3.5000000000000004 169.01250000000002 202.49062500000005 3.5000000000000004 10.500000000000002 240.90451388888891 43.000000000000007 37.500000000000007 340.25250000000005 12.500000000000002 113.34895833333336 14.887500000000001 215.71750000000006 288.28750000000008 45.076250000000009 160.22300724637685 224.30270833333336 1.3062500000000001 240.90451388888891 11.500000000000002 59.521733511586461 19.500000000000004 130.16500000000005 248.20000000000002 12.500000000000002 3.5000000000000004 15.500000000000002 277.46250000000003 258.18250000000006 8.5000000000000018 1.0000000180025095e-35 280.86166666666674 281.47500000000008 141.04500000000004 174.7708333333334 85.268750000000026 170.20916666666668 108.06250000000001 333.46500000000003 10.97916666666667 154.61145833333336 162.77343750000003 362.2000000000001
decision_type=10 2 10 8 2 10 2 2 8 10 2 2 2 10 10 8 2 10 8 2 10 10 2 2 10 2 2 10 2 10 8 8 8 10 10 10 10 10 2 10 2 10 8 2 2 2 10 2 2 2 10 10 2 2 10 10 8 8 10 10 10 10
left_child=4 2 7 8 6 16 52 34 9 10 24 32 20 -10 54 -6 35 -8 25 -18 -5 22 -14 -15 56 26 29 38 33 -13 -17 -21 -12 -16 -2 47 55 41 44 -32 51 -38 -29 48 -7 -19 -22 -4 53 -50 61 -39 -1 -37 -9 -31 -3 -26 -44 60 -24 -23
right_child=1 3 5 12 15 27 17 14 13 -11 11 18 21 23 28 30 19 45 -20 31 46 50 59 -25 57 -27 -28 42 -30 36 39 -33 -34 -35 -36 43 37 40 -40 -41 -42 -43 58 -45 -46 -47 -48 -49 49 -51 -52 -53 -54 -55 -56 -57 -58 -59 -60 -61 -62 -63
leaf_value=-2.8793678136098957 1.3479621451348067 1.485108900792671 0.5772495317365135 -0.10393118218217097 -4.2317452228731582 3.7627788395288273 6.8080515645799187 -2.3123634397234749 -0.84734573914454536 13.095392124469464 3.1702035806218132 4.9624761237817658 6.4786358558613317 3.7801023882085634 2.5696580314636233 -1.1075550814469657 0.88190364795923237 -2.0167211112521946 4.5055675753138287 6.5879446276733962 2.5372388549941651 5.4749133579395526 1.8006317689476246 8.5283832765394632 8.7402772480791278 10.879141889299666 2.8249756761959621 8.1554147683657146 2.3835075858434043 10.969547087495977 -3.5384122308207626 3.6426484577558362 6.7687439034382511 -0.4685600967513181 5.3896209989275254 0.61228086075612476 8.9361011322874297 10.272580921649933 5.6570590343881157 -2.9357267709917698 7.6940776908606807 5.3052616955252256 3.2812514524070586 5.3404452438354495 1.5648412617735374 1.7925489451370986 5.5146528691053396 2.2769315295130297 3.6724263032277431 0.42253202610545693 8.4320445560273676 7.6802538821571762 -1.3835585600257079 2.865206998765947 -0.79775303863256963 7.6411768176338901 4.3531771490971245 5.6704571896507625 5.3723137891540924 0.65257572952438814 4.8864736885305433 2.5551373720846393
leaf_weight=231 48 33 222 71 864 112 21 199 26 26 61 34 46 55 40 84 50 21 44 62 94 199 83 31 22 56 28 26 75 66 1698 130 48 353 35 42 26 128 47 1502 114 85 49 25 78 51 32 107 57 135 21 38 142 374 139 22 60 105 192 34 63 22
leaf_count=231 48 33 222 71 864 112 21 199 26 26 61 34 46 55 40 84 50 21 44 62 94 199 83 31 22 56 28 26 75 66 1698 130 48 353 35 42 26 128 47 1502 114 85 49 25 78 51 32 107 57 135 21 38 142 374 139 22 60 105 192 34 63 22
internal_value=1.315e-08 3.39508 1.85105 5.6567 -3.21554 2.93251 -1.43683 -0.226728 6.78831 7.09959 6.93888 7.51044 3.77126 4.02013 -0.564392 -3.41537 2.32148 2.06492 7.97901 3.82683 2.06899 4.48782 3.44029 5.49169 4.99038 8.23501 7.96131 4.39222 0.248179 8.24166 -3.20058 4.59373 4.75488 -0.159327 3.05228 1.94279 8.47442 8.10013 3.41507 -3.25553 8.87095 6.15573 5.25957 2.36522 2.86047 0.681512 3.29341 1.13003 2.24288 1.38734 5.46609 9.67916 -2.30992 2.63775 -1.68949 10.1375 3.33548 6.20224 4.94716 2.66382 3.13219 5.18426
internal_weight=8984 4370 2597 1773 4614 1708 466 889 1108 996 970 750 665 112 806 4148 1204 93 641 242 197 468 226 86 220 597 541 504 468 513 3284 192 109 393 83 962 479 391 237 3200 280 111 267 633 190 72 126 329 608 192 242 166 373 416 338 88 93 127 241 180 146 221
internal_count=8984 4370 2597 1773 4614 1708 466 889 1108 996 970 750 665 112 806 4148 1204 93 641 242 197 468 226 86 220 597 541 504 468 513 3284 192 109 393 83 962 479 391 237 3200 280 111 267 633 190 72 126 329 608 192 242 166 373 416 338 88 93 127 241 180 146 221
is_linear=0
shrinkage=0.05


Tree=8
num_leaves=63
num_cat=0
split_feature=7 12 5 11 15 12 5 10 8 13 4 0 5 7 12 7 5 1 12 7 0 8 7 7 1 10 5 0 12 13 7 4 12 13 7 13 7 7 5 13 7 9 13 12 5 7 2 12 12 7 12 13 8 12 2 7 3 2 5 10 15 4
split_gain=3.54072e+07 5.4373e+06 2.02189e+06 1.40196e+06 645021 605203 595930 338664 340103 340978 311106 278045 266373 377604 259000 246998 232029 221133 215499 200889 191490 186241 166831 156502 154626 154238 139998 155589 152808 137801 133458 130858 122137 117993 153568 115865 113434 112495 109604 109228 107506 104771 104338 98984.9 98627.9 96425.3 100660 95290.3 94077.9 92228.7 89659.8 237649 129394 80720.9 78063.2 76224.8 75294.6 74202.2 70721.2 65942.4 65459.1 64732.3
threshold=101.26559895833334 13.500000000000002 157.44750000000002 88.257500000000007 30.500000000000004 14.500000000000002 346.28750000000008 25.836250000000007 2.5387500000000003 2.0000000000000004 216.10000000000002 43.378750000000004 120.13750000000002 296.02083333333343 3.5000000000000004 266.6419044384059 42.837500000000013 132.03333333333339 11.500000000000002 156.06044871794873 323.83750000000003 0.088750000000000023 85.657265625000022 222.69078125000004 335.03750000000008 22.105000000000004 269.55750000000006 426.80625000000003 3.5000000000000004 2.0000000000000004 129.63497023809526 290.97500000000008 14.500000000000002 3.5000000000000004 240.90451388888891 5.5000000000000009 264.42013888888897 91.458655753968273 88.711250000000021 2.0000000000000004 207.31677018633545 140.81000000000003 5.5000000000000009 12.500000000000002 88.711250000000021 294.50729166666673 288.28750000000008 14.500000000000002 16.500000000000004 209.11111111111114 8.5000000000000018 1.0000000180025095e-35 0.27625000000000005 11.500000000000002 269.00125000000008 36.405520833333341 223.10000000000002 69.230000000000018 101.47500000000001 14.887500000000001 81.500000000000014 214.97500000000005
decision_type=10 2 10 8 2 2 10 8 8 2 10 2 8 10 2 10 10 10 2 10 2 10 10 10 8 10 10 2 2 2 10 10 2 2 10 2 10 8 10 2 10 10 2 2 10 10 10 2 2 10 2 2 10 2 10 10 8 8 10 8 2 8
left_child=4 2 14 7 5 44 18 8 9 31 16 55 13 19 24 39 -5 -15 26 -11 -8 -9 59 -23 -2 30 27 50 -29 -18 57 -3 -24 -32 -35 36 -36 -7 -17 61 -31 -37 45 58 -1 -12 -47 -21 -43 -10 52 -52 -4 -40 -20 -6 -22 -14 -41 -13 -61 -16
right_child=1 3 6 10 11 37 20 21 49 12 42 22 25 17 15 38 29 -19 54 47 56 23 32 -25 -26 -27 -28 28 -30 40 33 -33 -34 34 35 41 -38 -39 53 43 -42 48 -44 -45 -46 46 -48 -49 -50 -51 51 -53 -54 -55 -56 -57 -58 -59 -60 60 -62 -63
leaf_value=-2.2826612621312963 0.50066593007607896 3.2116551998783565 0.84575216464664293 6.2098938838029518 -4.2378496875703888 1.4855193890134495 2.8685712019602461 7.8316529479893777 1.3753869912454062 1.2868006164208055 3.4646566652059558 -1.573070629803758 8.5493582942269075 13.917487621307373 -0.62581131871865725 4.380926232154553 0.70174174586663385 6.9243129583505478 3.2373354114891812 2.9065353460311893 6.641989339915189 -0.29902776109761209 -2.4830212394396467 4.2852662338373753 4.6811185347067346 12.235298715318953 2.6538899811370684 5.3070207780721237 0.2909615020860325 2.1084950013479715 9.8180116077045838 6.2403294363021855 1.7985072297434652 5.5386213898658756 4.6430249834060673 12.010714492797852 8.0206812325839341 5.6653364073146477 -0.84320817880852283 -2.1788006366143828 4.5508147366119154 6.5611853136335103 6.1229764344817719 0.26505295087288067 1.3188094758987428 7.7880925578455775 3.4224249383677612 6.3262891523404559 9.8230509662628194 4.8899364643863272 3.0462423671036962 -0.56205261702057707 2.5645301974025561 2.2773899602144958 5.8415157345838331 -3.4527766015437162 4.6029254224471519 5.1764357235696581 -0.86717416923493151 -3.08706944876492 -0.28490751357305621 2.1040556548497618
leaf_weight=384 55 68 219 39 646 60 168 22 28 32 150 76 22 20 49 26 111 26 87 25 55 29 36 52 37 21 444 49 22 142 91 75 31 62 30 30 145 22 43 247 66 35 95 82 20 31 23 110 60 56 64 159 219 40 43 593 256 63 176 2757 21 39
leaf_count=384 55 68 219 39 646 60 168 22 28 32 150 76 22 20 49 26 111 26 87 25 55 29 36 52 37 21 444 49 22 142 91 75 31 62 30 30 145 22 43 247 66 35 95 82 20 31 23 110 60 56 64 159 219 40 43 593 256 63 176 2757 21 39
internal_value=4.54528e-10 3.24845 1.78653 5.39188 -3.0331 -1.30946 2.72024 6.48181 6.76325 7.04278 3.56372 -3.23446 7.45819 5.95359 -0.312568 -0.639483 2.56938 9.96482 2.16696 4.8487 4.22876 3.75202 -2.96824 2.64398 2.18193 8.03151 1.95342 1.52854 3.75275 2.12431 7.86742 4.80012 -0.502016 8.20854 7.80395 8.27212 7.44165 2.60693 1.54809 -1.04158 2.88346 9.43477 4.75427 -1.32486 -2.10437 4.11689 5.92864 5.693 8.62131 3.71842 1.28963 0.473512 1.70514 0.660695 4.09872 -3.8621 4.96353 6.04943 -1.63306 -3.02613 -3.06589 0.584016
internal_weight=8984 4338 2579 1759 4646 486 1785 1102 999 915 657 4160 772 213 794 702 358 46 1306 167 479 103 2921 81 92 559 1176 732 71 319 538 143 67 453 362 300 175 82 109 593 208 125 299 505 404 204 54 135 95 84 661 223 438 83 130 1239 311 85 423 2854 2778 88
internal_count=8984 4338 2579 1759 4646 486 1785 1102 999 915 657 4160 772 213 794 702 358 46 1306 167 479 103 2921 81 92 559 1176 732 71 319 538 143 67 453 362 300 175 82 109 593 208 125 299 505 404 204 54 135 95 84 661 223 438 83 130 1239 311 85 423 2854 2778 88
is_linear=0
shrinkage=0.05


Tree=9
num_leaves=63
num_cat=0
split_feature=7 12 5 11 7 15 12 12 13 12 13 7 13 7 6 0 12 7 13 7 7 3 13 7 13 4 7 13 9 2 3 1 7 1 15 7 10 4 8 7 7 8 12 10 3 6 12 5 4 5 12 13 12 13 1 8 3 9 12 1 7 15
split_gain=3.1955e+07 4.91192e+06 1.67415e+06 1.35666e+06 583770 582132 547360 409129 331750 308206 291129 283109 419023 559654 252974 206253 215756 183941 182819 160807 156074 155228 154058 199932 144067 141102 140596 198463 138623 138053 130238 128923 128265 121521 105797 105705 102474 123414 102455 102102 101691 94900.2 92160.9 90668.6 135830 88036.6 82826.4 91315.3 80922.1 77258.3 76541.5 74719.8 74669.3 156197 72842.2 75797.3 78898.2 72841.2 81803.2 72633.8 72547.1 72460.6
threshold=101.26559895833334 14.500000000000002 160.03750000000002 88.257500000000007 297.38203125000007 30.500000000000004 13.500000000000002 12.500000000000002 2.0000000000000004 3.5000000000000004 2.0000000000000004 271.72916666666669 3.5000000000000004 162.77343750000003 37.946458333333347 345.90000000000003 12.500000000000002 288.0851957070708 3.5000000000000004 79.79218005952383 296.02083333333343 215.71750000000006 5.5000000000000009 240.90451388888891 2.0000000000000004 53.741250000000008 202.49062500000005 3.5000000000000004 324.66333333333336 134.05875000000003 250.05000000000004 335.03750000000008 129.63497023809526 241.13750000000002 4.5000000000000009 224.30270833333336 10.97916666666667 384.25000000000006 0.37625000000000014 199.87083333333337 132.1015974967062 1.6275000000000004 11.500000000000002 15.830000000000004 75.300000000000011 120.63437500000002 20.500000000000004 87.818750000000009 80.010000000000019 143.81666666666669 18.500000000000004 4.5000000000000009 8.5000000000000018 1.0000000180025095e-35 362.2000000000001 0.78875000000000017 172.08750000000003 198.03500000000003 6.5000000000000009 111.02875000000002 240.90451388888891 16.500000000000004
decision_type=10 2 10 8 10 2 2 2 2 2 2 10 2 10 8 2 2 10 2 10 10 8 2 10 2 10 10 2 10 8 8 8 10 8 2 10 10 10 10 10 10 8 2 10 8 10 2 10 10 8 2 2 2 2 10 8 8 10 2 8 10 2
left_child=5 2 7 8 15 6 59 9 33 31 17 12 32 40 -7 16 35 -5 -17 -16 45 -20 29 -24 38 -8 27 -12 -13 -15 -6 -2 61 -3 -27 57 -32 -38 -11 -26 -14 -34 -39 44 -21 -9 47 -29 -23 -47 -35 -48 -37 -54 55 56 -28 -4 -59 -1 -18 -10
right_child=1 3 4 10 30 14 25 20 11 24 26 28 13 22 19 18 60 -19 21 43 -22 48 23 -25 39 34 54 46 -30 -31 36 -33 41 50 -36 52 37 42 -40 -41 -42 -43 -44 -45 -46 49 51 -49 -50 -51 -52 -53 53 -55 -56 -57 -58 58 -60 -61 -62 -63
leaf_value=-2.974328819024477 0.60943713177714443 2.0128203298364364 0.50649727357701324 0.5948529539950963 6.7280414814172786 -3.8736726625201992 5.94381281375885 -0.11503269628155977 8.5244586878809425 -0.043305312318576351 6.6332773045131139 7.6380611640391969 -1.7674091843458322 6.6511096375711851 -2.9634438965410572 0.67049589276313792 2.3581791113723409 3.8404007009949006 5.9764153098714523 3.1606632875359577 5.8650701349431822 0.43454591855406766 5.795729528773915 11.868469553408417 -1.9234026030872642 3.7458579233059517 5.2345899723671581 1.6644217158963042 11.005048246944654 3.8336155381623436 2.622926218700409 4.3692598361718025 9.7818886402041425 6.232802685824308 -0.24445960751694182 2.3926114990207412 4.8630868403613574 1.5770192830288998 3.9137588665598915 -0.48328869879058645 2.3865421992233573 5.9581136775016788 4.6205122067814788 -2.2972448375876819 -1.5997189510700316 1.5063192093938591 2.8858974685723133 4.7942085173394942 3.6264978607841161 4.194427118581884 3.4389154183558932 -0.40795461138089495 3.3162637760562284 0.30499549755390659 2.4284744342168172 4.6815192722588135 8.7524654524666925 3.527253731902765 0.43606965039905748 -1.5536040438127285 5.9328374439477924 5.4720867752081759
leaf_weight=139 57 42 261 116 43 797 20 64 29 74 35 303 26 89 3190 50 22 70 69 23 22 24 33 23 281 26 37 41 34 85 125 38 86 66 46 420 260 61 21 219 34 20 42 107 43 125 33 54 115 34 39 36 62 141 24 139 28 49 38 255 40 59
leaf_count=139 57 42 261 116 43 797 20 64 29 74 35 303 26 89 3190 50 22 70 69 23 22 24 33 23 281 26 37 41 34 85 125 38 86 66 46 420 260 61 21 219 34 20 42 107 43 125 33 54 115 34 39 36 62 141 24 139 28 49 38 255 40 59
internal_value=-8.57024e-09 3.08603 1.81194 5.30782 2.69457 -2.88144 -1.24399 0.0919868 6.47337 -0.53125 3.46727 6.86504 6.09028 4.887 -3.07274 2.12059 1.80475 1.8163 3.38517 -2.88293 1.84722 4.03774 6.00887 8.28989 -0.953499 2.22852 4.18643 3.21528 7.97776 5.27475 4.09008 2.11337 7.88901 4.28586 1.19649 1.62215 3.85764 4.28282 0.831414 -1.29263 0.586497 9.06042 2.81806 -1.39825 0.0592021 1.45084 2.48583 3.44346 3.07537 2.08113 5.19507 1.16737 2.01205 1.22469 5.03405 5.34059 6.74998 0.924143 2.17708 -2.05482 4.66441 6.47798
internal_weight=8984 4338 2757 1581 1822 4646 486 935 968 690 613 821 484 290 4160 1291 1033 186 258 3363 245 208 230 56 595 92 427 199 337 174 531 95 194 147 72 971 488 363 95 500 60 106 103 173 66 223 164 95 139 159 105 69 623 203 228 204 65 348 87 394 62 88
internal_count=8984 4338 2757 1581 1822 4646 486 935 968 690 613 821 484 290 4160 1291 1033 186 258 3363 245 208 230 56 595 92 427 199 337 174 531 95 194 147 72 971 488 363 95 500 60 106 103 173 66 223 164 95 139 159 105 69 623 203 228 204 65 348 87 394 62 88
is_linear=0
shrinkage=0.05


Tree=10
num_leaves=63
num_cat=0
split_feature=7 12 5 11 15 12 7 12 12 13 10 4 7 7 7 0 13 7 13 7 5 10 5 7 12 4 7 13 3 13 7 3 7 13 12 5 7 9 5 10 3 7 2 9 4 13 7 9 8 12 12 13 0 13 7 15 6 11 10 5 10 3
split_gain=2.88394e+07 4.44582e+06 1.66004e+06 1.14623e+06 525374 495662 467502 278389 277996 342586 312621 275622 235256 206470 205056 202359 183251 165627 164238 137029 131529 128452 143677 279612 123787 122196 112912 110734 110546 110170 108575 106750 94994.6 92679.8 90606.7 87271.7 86472.6 84303.2 84151.2 81828.4 122587 80325.2 85976.7 79318.8 79165.6 101167 102815 81755 75696.1 75501.3 79774.9 149974 97304.2 75263.2 65275.7 64015.1 61315.6 61137.6 61007.2 60065.5 85392.7 58569
threshold=101.26559895833334 13.500000000000002 169.01250000000002 89.242500000000021 30.500000000000004 14.500000000000002 297.38203125000007 2.5000000000000004 15.500000000000002 2.0000000000000004 22.531250000000004 216.10000000000002 47.812447916666677 110.59722222222224 167.54166666666671 362.2000000000001 3.5000000000000004 240.90451388888891 2.0000000000000004 79.79218005952383 340.25250000000005 14.72916666666667 141.04500000000004 209.11111111111114 12.500000000000002 240.98750000000004 160.22300724637685 3.5000000000000004 323.37875000000003 2.0000000000000004 212.52500000000003 276.50000000000006 91.458655753968273 5.5000000000000009 11.500000000000002 88.711250000000021 207.31677018633545 205.33875000000003 146.10000000000005 15.830000000000004 75.300000000000011 294.50729166666673 288.28750000000008 276.83750000000003 91.016666666666694 3.5000000000000004 270.27844202898558 290.11000000000007 1.8262500000000004 12.500000000000002 7.5000000000000009 1.0000000180025095e-35 187.13750000000002 3.5000000000000004 236.03692708333335 22.500000000000004 228.25000000000003 90.220000000000013 14.887500000000001 118.08375000000002 18.102500000000003 53.866250000000001
decision_type=10 2 10 8 2 2 10 2 2 2 10 10 8 10 10 2 2 10 2 10 10 10 8 10 2 8 10 2 8 2 10 10 8 2 2 10 10 10 8 10 8 10 10 8 10 2 10 10 8 2 2 2 2 2 10 2 10 10 8 10 10 10
left_child=4 2 7 8 5 35 15 26 10 25 17 18 -6 -11 -9 30 -17 38 56 58 34 44 23 55 29 -10 -2 -20 -18 54 37 -25 61 41 53 -1 -29 -4 -3 40 -21 -13 -43 -22 -15 -46 -47 -48 -24 50 52 -52 -32 -8 -16 -23 -5 -45 -14 -19 -61 -7
right_child=1 3 6 11 12 32 20 14 9 13 -12 33 19 21 24 16 28 59 27 39 43 22 48 31 -26 -27 -28 36 -30 -31 49 -33 -34 -35 -36 -37 -38 -39 -40 -41 -42 42 -44 57 45 46 47 -49 -50 -51 51 -53 -54 -55 -56 -57 -58 -59 -60 60 -62 -63
leaf_value=-2.0688834071547415 0.99667106588249621 0.76840654982460865 0.31499654023629153 -0.24021228143117496 -3.550919014971484 3.1803793115615848 3.2811159709601534 -1.4394201299930112 1.8965248594681423 2.3899563497967189 10.418718767166139 3.0994120761957662 -1.3883363611222088 3.2627459235813308 0.68739526487629998 0.54720412465028978 5.4037952513857324 3.7312114078348331 5.469084293777879 3.0026302088861883 4.1062313224215599 4.7505496875099515 8.5930991945554265 8.3633178605108842 2.0539757655051196 5.0659113156508253 4.7651724760872982 1.7753123497659411 2.7196372899939032 -0.55889377007726582 0.18623309048513573 5.0754033767815798 5.1729516766288066 5.607732377994445 4.9025248084930668 1.3189093333482742 4.0187023204470433 2.5958625063007954 3.6497736988011109 -2.1823825957549512 -1.5197330585745878 7.3254241590146663 3.0597325506664461 8.2003225492394503 8.137822795348864 4.5740167937780685 5.9724719838997755 8.762547164493137 5.3661854743957527 4.637197107535143 3.1611557335853577 0.55644280314445493 2.5693267009572018 1.2581809119154246 3.9999578142166139 0.9323017455282665 2.2423129429942685 4.86253851314678 -2.8148002309116129 4.5875495898273755 7.7979756139657077 0.011719189711979458
leaf_weight=384 46 45 197 72 1088 25 112 316 48 27 20 145 77 23 58 43 88 55 37 23 210 23 199 98 76 83 35 135 68 320 48 33 22 93 47 20 63 51 58 107 43 27 21 23 60 95 97 36 20 26 75 210 398 78 20 21 38 34 2822 53 34 35
leaf_count=384 46 45 197 72 1088 25 112 316 48 27 20 145 77 23 58 43 88 55 37 23 210 23 199 98 76 83 35 135 68 320 48 33 22 93 47 20 63 51 58 107 43 27 21 23 60 95 97 36 20 26 75 210 398 78 20 21 38 34 2822 53 34 35
internal_value=-1.57466e-08 2.93172 1.60979 4.8699 -2.73737 -1.18179 2.51567 -0.166595 5.82453 6.25949 4.40803 3.16337 -2.9191 6.68093 -0.452826 1.98047 3.43718 3.91736 2.21193 -2.69534 3.79421 6.84526 7.44489 6.37677 0.204903 3.90461 2.62504 2.9583 4.23378 -0.148186 1.69202 7.53506 2.3625 4.3111 2.93689 -1.90117 2.48912 0.784046 2.39092 -1.32834 0.056242 3.6863 5.45918 4.55521 6.08561 6.31105 5.83032 6.72768 8.2984 1.98948 1.89531 1.24189 2.31285 2.45065 1.53677 2.9282 0.617387 6.20936 -2.77691 5.02456 5.8422 1.33199
internal_weight=8984 4338 2579 1759 4646 486 1708 871 1128 863 265 631 4160 732 790 1204 199 245 345 3072 504 705 394 175 474 131 81 235 156 398 1005 131 82 286 237 404 198 248 103 173 66 193 48 267 311 288 228 133 219 757 731 285 446 190 78 44 110 57 2899 142 87 60
internal_count=8984 4338 2579 1759 4646 486 1708 871 1128 863 265 631 4160 732 790 1204 199 245 345 3072 504 705 394 175 474 131 81 235 156 398 1005 131 82 286 237 404 198 248 103 173 66 193 48 267 311 288 228 133 219 757 731 285 446 190 78 44 110 57 2899 142 87 60
is_linear=0
shrinkage=0.05


Tree=11
num_leaves=63
num_cat=0
split_feature=7 12 5 11 7 15 12 13 2 12 0 0 12 6 5 7 13 4 12 12 13 13 7 7 10 11 11 13 7 7 3 5 7 1 15 12 7 12 5 7 7 10 4 3 7 9 2 7 3 0 10 2 13 7 3 0 10 7 11 7 5 7
split_gain=2.60276e+07 4.02006e+06 1.38006e+06 1.1276e+06 505397 474150 448812 349150 297770 287586 218866 198836 196311 188430 185132 353787 223312 179607 172619 243886 224734 185124 167496 143646 127288 134877 126944 126531 125726 125219 112196 104419 167887 103573 99859.5 97935.8 97669.1 96292.9 123151 89527.5 88060.3 87712.9 85198.6 84743.5 84121.2 78781.8 88978.1 80170.4 76562.4 148966 73439.9 72312.8 72078.2 65675.7 63790.7 62714.7 61933.3 60889.9 58530.5 57781.7 57315.7 57133.8
threshold=101.26559895833334 14.500000000000002 146.10000000000005 84.512500000000017 297.38203125000007 30.500000000000004 12.500000000000002 2.0000000000000004 51.857500000000009 12.500000000000002 42.797500000000007 174.7708333333334 3.5000000000000004 228.25000000000003 100.01250000000002 209.11111111111114 2.0000000000000004 53.741250000000008 12.500000000000002 7.5000000000000009 1.0000000180025095e-35 1.0000000180025095e-35 294.50729166666673 296.02083333333343 22.105000000000004 44.650833333333338 96.992500000000021 2.0000000000000004 85.657265625000022 296.02083333333343 250.05000000000004 39.960000000000008 165.27708333333337 335.03750000000008 4.5000000000000009 14.500000000000002 239.35416666666671 12.500000000000002 340.25250000000005 189.33161458333339 231.06250000000003 14.582500000000001 243.12500000000003 296.08750000000003 296.02083333333343 231.52250000000004 179.67625000000004 224.30270833333336 217.18750000000003 367.02875000000006 20.501250000000002 114.22000000000001 3.5000000000000004 151.78416149068326 305.10000000000008 124.0425 11.112500000000002 36.405520833333341 69.612500000000026 211.02678571428575 64.985000000000014 60.378046875000003
decision_type=10 2 10 8 10 2 2 2 10 2 2 2 2 8 8 10 2 10 2 2 2 2 10 10 10 10 8 2 10 10 8 10 10 8 2 2 10 2 10 10 10 10 8 8 10 10 10 10 8 2 10 10 2 10 8 2 10 10 10 10 10 8
left_child=5 2 9 8 11 6 55 13 -3 12 57 39 33 -5 15 -10 44 -8 19 21 -21 40 31 50 25 -18 48 42 61 51 -6 -9 -33 -2 -19 -30 60 38 52 -4 -13 -27 -14 -43 -16 46 56 -48 49 -23 53 -17 -32 -11 -15 -1 -34 -7 -54 -28 -29 -12
right_child=1 3 4 7 30 10 17 22 14 23 28 18 27 54 16 29 24 34 -20 20 -22 26 -24 -25 -26 41 59 36 35 -31 37 32 45 -35 -36 -37 -38 -39 -40 -41 -42 43 -44 -45 -46 -47 47 -49 -50 -51 -52 -53 58 -55 -56 -57 -58 -59 -60 -61 -62 -63
leaf_value=-2.575470870961257 0.26254543035394617 0.3055911952799017 -1.0310855581930705 -0.21202490729529685 6.1270941152129064 -3.6755909955557522 5.8264210245826034 5.8886189161514757 1.4656087725290232 -0.74558815916448284 -2.8507145595472561 -1.7545759124415263 -0.062719370893858095 2.2444180880067419 2.9000141571810905 7.5435510653715871 4.0433490016111513 3.1325528156012297 4.5610650614780539 3.4691821606953939 0.042147174056607568 2.8542446601256897 6.3057595935132769 5.5072403049469001 10.680181121826173 6.1426877695322037 0.85974134700466898 -2.6667723048300971 -2.1742293665806454 9.9235938299269915 3.2061024250816708 1.5809550306649618 4.0932775963982229 4.055316317478816 -0.57108949533162212 1.6597164354016707 -0.061093587660789497 5.882023791262978 4.0440825563594389 1.1868168197686857 1.3832366353488184 7.8367896348131172 3.7575179362297058 5.42772269703093 5.6678553757116656 6.1356774430525931 0.41728621780872344 3.4331830688224865 2.7760330852239754 6.0778087593118357 3.5582843101941624 4.1564127547107637 3.769328509569168 1.3312664799276712 4.8643824354807537 -1.2960991912516791 7.0691087627410898 -2.9634313269343902 0.72510019694268701 2.5142769648965482 -1.2616386506357726 -2.4006291925137466
leaf_weight=183 45 22 70 82 43 639 22 49 56 54 1223 28 54 103 47 26 41 28 68 60 236 89 72 20 22 180 99 105 36 21 121 93 139 30 52 31 125 38 239 130 111 279 20 42 66 38 30 83 314 60 26 40 20 129 30 201 20 566 75 113 235 1665
leaf_count=183 45 22 70 82 43 639 22 49 56 54 1223 28 54 103 47 26 41 28 68 60 236 89 72 20 22 180 99 105 36 21 121 93 139 30 52 31 125 38 239 130 111 279 20 42 66 38 30 83 314 60 26 40 20 129 30 201 20 566 75 113 235 1665
internal_value=-1.10205e-09 2.78514 1.63251 4.79513 2.37492 -2.6005 -1.1227 3.3698 6.0461 -0.0531003 -2.77315 1.86819 -0.617093 1.67312 6.20011 4.56544 6.5454 1.82545 2.11567 1.96586 0.736816 2.41279 4.06596 1.45909 6.95187 6.80053 2.75496 -0.950593 -2.54155 6.56074 3.67766 3.70918 3.44418 1.77965 0.725185 -0.400314 -1.2562 3.46402 3.26207 0.410551 0.751159 7.02617 0.969777 7.52158 4.51663 4.00315 3.70522 2.6325 3.21894 4.15232 1.07171 5.49074 2.39679 0.718424 2.83539 -1.9058 4.4676 -3.34108 1.36599 1.74164 -1.69558 -2.59123
internal_weight=8984 4338 2757 1581 1914 4646 486 739 842 843 4160 1378 614 215 820 143 677 102 1178 1110 296 814 524 229 564 542 675 539 2955 87 536 452 403 75 80 67 465 493 455 200 139 501 74 321 113 310 272 113 463 149 209 66 216 183 133 384 159 1205 95 212 340 2888
internal_count=8984 4338 2757 1581 1914 4646 486 739 842 843 4160 1378 614 215 820 143 677 102 1178 1110 296 814 524 229 564 542 675 539 2955 87 536 452 403 75 80 67 465 493 455 200 139 501 74 321 113 310 272 113 463 149 209 66 216 183 133 384 159 1205 95 212 340 2888
is_linear=0
shrinkage=0.05


Tree=12
num_leaves=63
num_cat=0
split_feature=7 12 5 11 5 15 12 10 10 12 13 4 12 0 8 7 13 0 8 12 13 11 4 15 15 12 7 13 5 7 7 7 4 0 5 13 5 7 12 9 3 13 13 12 7 5 9 7 13 12 9 7 12 0 13 9 5 10 1 1 7 10
split_gain=2.34899e+07 3.63034e+06 1.36201e+06 934248 464434 427920 407859 259950 285229 271945 235694 223934 201308 197768 164914 161559 155993 155210 150474 149297 273343 158563 135834 135181 252285 123388 122233 117107 116200 112995 110661 102037 101941 95902.5 92587.7 93707.6 88475.6 143243 88387 87785.8 87611.4 86717.6 82675.9 93672.3 79869.7 76138.3 75743.3 75026.3 90164.3 115711 74164.2 76846 71156.5 76674.5 70021.1 81993 67425.6 68587.2 64855.3 63113.4 57367.7 52847.7
threshold=101.26559895833334 13.500000000000002 138.10000000000005 88.257500000000007 318.91250000000008 30.500000000000004 14.500000000000002 25.836250000000007 23.001250000000006 15.500000000000002 2.0000000000000004 218.87125000000006 11.500000000000002 43.378750000000004 2.5387500000000003 286.85724637681164 2.0000000000000004 323.83750000000003 0.088750000000000023 7.5000000000000009 1.0000000180025095e-35 94.986250000000027 194.12500000000003 43.000000000000007 37.500000000000007 4.5000000000000009 222.69078125000004 3.5000000000000004 108.06250000000001 85.657265625000022 113.34895833333336 205.17744791666669 254.56666666666669 197.02250000000004 418.57000000000005 5.5000000000000009 1.3062500000000001 240.90451388888891 14.500000000000002 174.65250000000003 154.05250000000004 1.0000000180025095e-35 2.0000000000000004 11.500000000000002 91.458655753968273 88.711250000000021 130.16500000000005 156.06044871794873 4.5000000000000009 20.500000000000004 231.52250000000004 281.15451388888897 1.5000000000000002 434.01250000000005 5.5000000000000009 237.53250000000003 229.05625000000003 17.162500000000005 335.03750000000008 170.20916666666668 36.405520833333341 14.887500000000001
decision_type=10 2 10 8 10 2 2 8 10 2 2 10 2 2 8 10 2 2 10 2 2 8 10 2 2 2 10 2 10 10 10 10 8 2 10 2 10 10 2 10 10 2 2 2 8 10 10 10 2 2 10 10 2 2 2 10 10 8 8 10 10 8
left_child=5 2 15 7 12 6 45 8 9 28 32 16 19 60 23 25 -5 -6 -9 21 -21 33 41 24 30 58 -20 -18 -3 61 -12 -22 -11 -4 -19 -36 59 46 -31 -30 -39 -23 -27 -44 -8 -1 -38 -29 -49 -50 51 -42 53 -35 55 -13 -14 -58 -2 -32 -7 -15
right_child=1 3 4 11 17 13 44 18 -10 10 14 54 56 29 -16 -17 27 34 26 20 31 22 -24 -25 -26 42 -28 47 39 38 36 -33 -34 52 35 -37 37 40 -40 -41 50 -43 43 -45 -46 -47 -48 48 49 -51 -52 -53 -54 -55 -56 -57 57 -59 -60 -61 -62 -63
leaf_value=-1.875776667900694 0.038922282457351687 2.6883895714716477 -0.74448503136634825 0.54711275220962996 2.2724316473143942 -3.4897980589246602 1.203600041908212 6.5624638698317783 10.335213165283204 1.964378056364755 3.6746482522172088 2.9346705790037757 2.5178671728667559 -1.1567966086691932 3.248967762968757 1.9874186476071676 5.2950607360937667 3.2254216883078977 -0.70144073223245562 2.7426574213696377 -2.2515824269503355 -1.1182035179321583 2.6328059732615952 8.7593680620193481 1.5571169428527356 0.80011979043483739 3.3499669927817126 0.7808552508724147 7.4052936179297308 -2.0655179099076326 8.8321399775418374 0.24750379213764179 5.0445325097099678 2.8449056872477136 4.2584789975900064 7.6031470127105711 7.1458948979010959 5.5442553049110508 1.5767306181692309 4.1576089438096977 8.5745641374588022 1.0003937951229671 -1.7685501618398316 -0.30316350858571917 4.7255319020964883 1.2885530872642994 4.0619435165910165 4.6110125522987522 3.9920118445699866 0.61624155933658287 8.7876647499629428 5.9267176096466763 2.3685019016822135 6.0045988827943804 5.0900054691912056 5.541897610071544 3.3097555175423623 7.0422856616973881 2.9610698521137238 5.7397898273034533 -2.8087216682304925 -2.4931981174920974
leaf_weight=384 55 110 20 114 261 646 60 22 30 48 34 163 98 76 44 60 39 236 29 112 48 65 100 56 28 56 52 58 28 36 66 274 61 48 129 25 26 83 31 81 40 188 298 172 22 20 85 51 44 60 70 87 221 32 91 37 32 20 29 22 593 2778
leaf_count=384 55 110 20 114 261 646 60 22 30 48 34 163 98 76 44 60 39 236 29 112 48 65 100 56 28 56 52 58 28 36 66 274 61 48 129 25 26 83 31 81 40 188 298 172 22 20 85 51 44 60 70 87 221 32 91 37 32 20 29 22 593 2778
internal_value=6.05551e-09 2.64588 1.45133 4.39731 2.13205 -2.47048 -1.06656 5.28704 5.53362 5.38497 5.83759 2.90494 1.57103 -2.63449 6.2031 -0.488222 2.08184 3.21617 2.89544 1.3383 0.615018 1.80404 1.07272 6.42083 6.17876 -0.731727 1.89946 2.77612 3.83487 -2.40996 6.43101 -0.125031 3.68813 2.60826 3.84775 4.80144 6.62666 6.30428 -0.380298 4.99188 6.90685 0.45609 -1.0159 -1.23228 2.14851 -1.71913 4.78431 2.3149 2.88893 2.04445 7.48093 6.76069 2.83104 4.10878 3.94018 3.41701 3.29006 4.74534 1.04776 8.05905 -3.16383 -2.45761
internal_weight=8984 4338 2579 1759 1909 4646 486 1102 999 969 750 657 1258 4160 641 670 366 651 103 1108 434 674 353 597 541 610 81 252 219 2921 513 322 109 321 390 154 479 391 67 109 280 253 526 470 82 404 111 213 155 104 197 127 301 80 291 200 150 52 84 88 1239 2854
internal_count=8984 4338 2579 1759 1909 4646 486 1102 999 969 750 657 1258 4160 641 670 366 651 103 1108 434 674 353 597 541 610 81 252 219 2921 513 322 109 321 390 154 479 391 67 109 280 253 526 470 82 404 111 213 155 104 197 127 301 80 291 200 150 52 84 88 1239 2854
is_linear=0
shrinkage=0.05


Tree=13
num_leaves=63
num_cat=0
split_feature=7 12 7 11 5 0 7 13 0 2 7 15 5 5 10 6 5 7 13 7 12 12 4 9 3 7 10 11 0 5 7 0 5 7 15 11 10 3 10 3 13 2 12 3 10 7 1 15 5 13 10 0 5 7 7 9 9 1 9 5 15 5
split_gain=2.11996e+07 3.29216e+06 1.13831e+06 927247 394897 393184 346571 292706 263057 254840 245399 224716 193792 176921 173609 159547 157635 307069 183746 141769 132338 127906 125218 111072 133272 109796 107060 113996 106670 102677 99542.4 94138.4 87584.2 140823 84990.8 83888.3 82162.2 75469.8 74311 75087.1 63819.4 61999.8 58564.8 57442.3 57044 56359.9 55975.5 54623.9 54450.1 54428 55299.2 54010.1 53773.9 53194.9 81491.5 53896.4 51866.9 50843.2 49814.4 86622.7 57779.1 52415.5
threshold=101.26559895833334 14.500000000000002 227.55939236111112 84.512500000000017 122.03750000000001 132.03333333333339 297.38203125000007 2.0000000000000004 419.92000000000007 51.857500000000009 60.736979166666679 4.5000000000000009 112.08875000000002 146.10000000000005 17.577500000000004 228.25000000000003 100.01250000000002 209.11111111111114 2.0000000000000004 294.50729166666673 12.500000000000002 11.500000000000002 97.117500000000021 285.07000000000005 303.08291666666673 296.02083333333343 22.105000000000004 44.650833333333338 32.568750000000009 366.76125000000008 320.33333333333343 280.15000000000003 39.960000000000008 202.49062500000005 36.500000000000007 77.281250000000014 15.712500000000004 265.08250000000004 14.582500000000001 296.08750000000003 2.0000000000000004 114.22000000000001 19.500000000000004 211.16375000000002 14.277500000000003 315.29166666666669 414.50000000000006 22.500000000000004 423.65000000000003 5.5000000000000009 13.308750000000002 342.32500000000005 76.188750000000013 123.39510416666668 167.54166666666671 306.94000000000005 237.53250000000003 241.13750000000002 179.55750000000003 177.25000000000003 22.500000000000004 167.00375000000003
decision_type=10 2 10 8 10 2 10 2 2 10 10 2 10 8 10 8 8 10 2 10 2 2 10 8 10 10 10 10 2 8 10 2 10 10 2 10 8 10 10 8 2 10 2 8 10 10 10 2 10 2 8 2 10 10 10 10 8 8 8 8 2 8
left_child=5 2 4 9 20 10 13 15 31 -3 28 -12 42 21 29 -5 17 47 37 32 40 -4 -10 30 -25 41 27 -20 -1 35 -8 -6 -9 -34 -35 56 -13 44 53 58 -2 -19 -7 -37 -18 -17 -26 -11 -32 -21 -51 -31 -42 -29 -55 -56 -15 -46 61 60 -60 -40
right_child=1 3 6 7 8 12 23 19 22 16 11 36 -14 14 -16 45 18 25 26 49 -22 -23 -24 24 46 -27 -28 38 -30 51 48 -33 33 34 -36 43 -38 -39 39 -41 52 -43 -44 -45 57 -47 -48 -49 -50 50 -52 -53 -54 54 55 -57 -58 -59 59 -61 -62 -63
leaf_value=-3.3286558569500997 0.56937963586104545 0.15633549040014094 -1.0954073582428048 -0.24814330582938543 0.37276218255516147 -1.1488436896988399 2.213847258555151 5.3452125843690368 2.4813968267510922 2.6154413838540354 2.3380383767684303 0.64970502342496605 3.8831439655760058 3.9175686162114149 6.5573686957359314 1.7442786228729457 1.0648650592023676 6.8587633738150977 3.6231549233925051 7.5665909895530126 0.50314021656531416 1.5720848177008484 7.3920186633155458 8.2458978425372731 4.7057078673622827 9.1088619050525477 9.7159920139746241 3.3064707240332734 -2.5774067387274169 2.2423771946175584 3.253692311996069 1.8268534423320888 2.0765358716781654 4.2724031777083873 0.92870201042720257 2.6341778011857602 -2.0847916096722328 6.0167309079851421 9.3668603617970536 4.8504166113478799 -2.3068381407194667 3.7224415816739205 1.5519786921414465 1.0720452398797498 2.1246851994877769 3.8611224389543723 1.7682534585828369 -0.52582241380214689 4.9872675556247517 6.6811257839202884 3.1840358248123759 3.9680380029442874 -0.98081872363580525 7.9695952521430122 4.7902455365303718 7.6312180137634273 2.061115043727975 5.2366663115365171 6.5081578622261693 7.6547231729825347 3.7903392164996177 7.0970881390927447
leaf_weight=597 38 22 83 82 440 229 226 49 34 31 30 28 23 50 21 82 22 26 41 26 131 98 21 22 55 21 22 23 2266 103 195 149 182 200 21 69 1451 35 41 42 144 40 22 400 21 51 23 25 59 20 26 81 163 36 101 20 152 35 48 90 33 67
leaf_count=597 38 22 83 82 440 229 226 49 34 31 30 28 23 50 21 82 22 26 41 26 131 98 21 22 55 21 22 23 2266 103 195 149 182 200 21 69 1451 35 41 42 144 40 22 400 21 51 23 25 59 20 26 81 163 36 101 20 152 35 48 90 33 67
internal_value=2.42173e-09 2.51359 1.47052 4.33253 0.242238 -2.34695 2.31088 3.04001 1.0494 5.46693 -2.4621 -1.94612 -0.509596 1.77197 2.06601 1.48651 5.60941 4.10101 5.92802 3.67742 -0.849812 0.34887 4.35636 3.293 4.80894 5.9599 6.29673 6.15794 -2.73406 1.9557 2.97718 0.740605 3.34918 3.10648 3.95468 1.66877 -2.03302 4.08774 6.36538 6.82138 -1.36354 4.95796 -0.912118 1.30187 3.22216 2.556 3.83954 1.21309 3.65637 5.73804 4.70451 3.00204 -1.6028 5.55219 5.88118 5.25983 2.52063 4.06967 7.11808 6.58712 5.4009 7.95876
internal_weight=8984 4338 2757 1581 1120 4646 1637 739 644 842 4372 1509 274 1057 876 215 820 143 677 524 476 181 55 580 100 87 564 542 2863 855 480 589 452 403 221 671 1479 113 501 321 345 66 251 469 78 133 78 56 254 72 46 184 307 180 157 121 202 56 279 171 81 108
internal_count=8984 4338 2757 1581 1120 4646 1637 739 644 842 4372 1509 274 1057 876 215 820 143 677 524 476 181 55 580 100 87 564 542 2863 855 480 589 452 403 221 671 1479 113 501 321 345 66 251 469 78 133 78 56 254 72 46 184 307 180 157 121 202 56 279 171 81 108
is_linear=0
shrinkage=0.05


Tree=14
num_leaves=63
num_cat=0
split_feature=7 12 5 11 0 5 7 15 15 15 10 7 4 12 12 15 12 13 0 7 11 15 7 1 5 13 12 5 13 0 7 13 7 7 10 5 2 5 12 13 15 9 9 9 7 4 9 7 4 8 9 12 11 13 5 4 3 2 10 7 9 15
split_gain=1.91326e+07 2.97575e+06 1.12419e+06 766606 355992 322938 221791 212974 211531 204317 381177 332244 200220 199666 185278 176112 166556 177203 163087 145871 145158 123362 106417 106317 106148 105110 93800.8 111743 92848.7 89225.8 85183.5 80513 80478.9 79654.4 87692 138548 75599.1 74325.5 72631.3 68267.9 67018.6 66647.7 64598.3 64169.6 61327.5 59255.3 55501.8 58428.9 54688.5 51644.1 50904.7 50520.9 100362 155924 52360 50252.3 65906.6 62495.7 49906.5 48876.7 48161 47676.3
threshold=101.26559895833334 13.500000000000002 169.01250000000002 89.007500000000007 119.80375000000002 385.18333333333334 59.521733511586461 10.500000000000002 4.5000000000000009 36.500000000000007 23.031250000000004 292.93025362318843 216.10000000000002 2.5000000000000004 13.500000000000002 28.500000000000004 15.500000000000002 2.0000000000000004 86.046250000000001 167.54166666666671 90.773750000000007 43.000000000000007 212.52500000000003 204.02500000000003 150.87500000000003 2.0000000000000004 11.500000000000002 45.076250000000009 5.5000000000000009 30.280000000000005 160.22300724637685 3.5000000000000004 335.60416666666669 110.59722222222224 15.062500000000002 120.13750000000002 237.61250000000001 376.19125000000003 18.500000000000004 5.5000000000000009 12.500000000000002 326.33750000000009 301.06000000000006 237.53250000000003 207.31677018633545 384.25000000000006 135.57125000000002 250.03840579710149 133.84875000000002 0.31875000000000003 250.06625000000005 7.5000000000000009 67.502500000000012 1.0000000180025095e-35 245.13500000000002 323.05375000000004 163.10500000000002 80.741250000000022 13.162500000000003 202.49062500000005 234.87500000000003 15.500000000000002
decision_type=10 2 10 8 2 10 10 2 2 2 10 10 10 2 2 2 2 2 2 10 8 2 10 10 10 2 2 10 2 2 10 2 10 10 8 8 10 8 2 2 2 8 10 10 10 8 8 10 8 10 8 2 10 2 10 8 10 8 10 10 10 2
left_child=4 2 13 7 6 20 29 37 -8 10 15 18 25 30 -6 16 24 36 -11 -15 41 -20 -22 -23 -9 59 27 -21 32 -1 -2 -27 48 -19 46 -36 -18 -3 -38 43 -16 51 -10 -14 -33 -26 47 -35 -7 61 -30 58 -53 -54 -55 56 57 -37 -4 -5 -57 -48
right_child=1 3 5 12 14 28 8 9 42 11 -12 -13 39 19 40 -17 17 33 21 26 22 23 -24 -25 45 31 -28 -29 50 -31 -32 44 -34 34 35 55 38 -39 -40 -41 -42 -43 -44 -45 -46 -47 49 -49 -50 -51 -52 52 53 54 -56 60 -58 -59 -60 -61 -62 -63
leaf_value=-3.2057124028136408 0.79439653002697497 0.81397721415216273 2.4527055627313157 -1.1891702565454669 -1.1025305076230227 3.8166885784227556 2.3498066959709956 2.3325313129425047 -2.0066736777052454 -1.6574822673662788 11.354413703918459 7.2281848085687521 2.5996561618149281 -1.2299635438696495 4.4472531511670068 6.6313316708368975 0.75999870848655704 2.6986334292784981 1.3960792091584975 2.2455791021648208 0.41872212174884249 5.8497706433137262 1.6651071674476314 2.0932637389629121 7.099420205029574 4.506970854063292 1.2270175526296343 -0.6362566064750782 4.1623193925426856 -2.4839336897491471 4.0676334282330107 1.3648479244720053 4.898089388305066 8.4170661735534669 4.8242605545988653 8.6677379540034707 5.5028474916730614 4.3733482534235177 1.9742376265525818 4.6606089701994939 0.45265690599169051 4.6551279737846931 0.26325419545173645 4.9915183102383338 3.2541143405768609 3.603686765829722 3.140667015573253 4.6408997263227194 2.1462144016219464 3.0442861810960671 7.3977961158752441 3.7753515529632566 3.4091926148063258 -1.0882172057162161 1.0387186440519798 4.5534962760077589 9.5224227758554303 5.4985186794825971 4.3922928589721062 1.1535634780609154 7.7906971549987789 5.7894235544938306
leaf_weight=532 46 44 145 31 291 73 29 100 1526 21 25 47 160 316 21 151 25 23 62 38 226 48 707 31 22 37 143 293 31 2194 35 135 51 20 93 28 35 22 25 94 21 32 32 34 63 27 23 21 149 47 20 50 57 46 78 27 39 35 43 79 20 65
leaf_count=532 46 44 145 31 291 73 29 100 1526 21 25 47 160 316 21 151 25 23 62 38 226 48 707 31 22 37 143 293 31 2194 35 135 51 20 93 28 35 22 25 94 21 32 32 34 63 27 23 21 149 47 20 50 57 46 78 27 39 35 43 79 20 65
internal_value=3.6813e-09 2.38791 1.3064 3.97359 -2.2296 2.05186 -2.35122 4.75622 -1.8813 4.92781 5.27182 3.52706 2.58143 -0.155438 -0.654469 5.08772 4.74241 5.16043 2.45327 -0.397843 1.71921 3.06551 1.3632 4.3757 3.26671 1.76895 0.156904 -0.305411 3.47282 -2.62479 2.20876 2.36605 3.10698 5.56334 5.72097 6.33857 3.07007 2.00043 4.03259 3.5547 2.44996 2.45572 -1.96005 3.01885 1.96598 5.1732 4.87176 6.48293 2.69551 4.38244 5.43113 2.28774 1.79244 1.24467 0.249694 7.28374 7.90705 6.90706 2.89633 0.493339 5.93103 5.09713
internal_weight=8984 4338 2579 1759 4646 1708 4313 1126 1587 1060 851 209 633 871 333 826 675 526 162 790 1384 141 933 79 149 345 474 331 324 2726 81 235 273 441 418 242 85 66 60 288 42 451 1558 194 198 49 176 41 222 135 51 419 231 181 124 149 102 63 188 110 47 88
internal_count=8984 4338 2579 1759 4646 1708 4313 1126 1587 1060 851 209 633 871 333 826 675 526 162 790 1384 141 933 79 149 345 474 331 324 2726 81 235 273 441 418 242 85 66 60 288 42 451 1558 194 198 49 176 41 222 135 51 419 231 181 124 149 102 63 188 110 47 88
is_linear=0
shrinkage=0.05


Tree=15
num_leaves=63
num_cat=0
split_feature=7 12 5 11 7 15 12 13 2 7 7 0 4 7 10 5 7 13 12 13 13 7 12 12 0 7 10 7 15 10 11 3 12 5 5 7 12 7 7 2 7 15 3 0 10 10 3 10 3 3 13 12 2 2 13 12 8 9 13 10 2 10
split_gain=1.72672e+07 2.7014e+06 944033 764375 357086 327624 324876 245308 217735 200617 156106 150239 145825 134647 133519 133478 264120 153837 132685 230429 155709 118783 111675 140331 98462.1 98113 96569.9 96217 93320.3 88983.8 97020.9 87659.9 74446.9 87627.3 73412.3 124409 73230.1 69259.6 68016.1 66049.7 74124.4 67831.2 65244.3 76237.6 82516.2 63508.7 87996.5 63468.6 80322.3 63148.5 61881.1 59352.6 55245.6 54077.1 53895.1 51450.2 50371.8 49784 49762.2 49887.5 48772.5 47544.9
threshold=101.26559895833334 14.500000000000002 146.10000000000005 84.512500000000017 297.38203125000007 30.500000000000004 12.500000000000002 2.0000000000000004 51.857500000000009 266.6419044384059 47.812447916666677 174.7708333333334 53.741250000000008 246.32562500000003 17.577500000000004 100.01250000000002 209.11111111111114 2.0000000000000004 7.5000000000000009 1.0000000180025095e-35 1.0000000180025095e-35 294.50729166666673 3.5000000000000004 12.500000000000002 334.50000000000006 79.79218005952383 19.327500000000004 296.02083333333343 9.5000000000000018 22.105000000000004 44.650833333333338 250.05000000000004 12.500000000000002 340.25250000000005 39.960000000000008 165.27708333333337 15.500000000000002 189.33161458333339 231.06250000000003 179.67625000000004 229.14583333333334 9.5000000000000018 331.61125000000004 445.50000000000006 12.962500000000004 19.327500000000004 77.218750000000014 15.016250000000003 294.63125000000008 265.08250000000004 3.5000000000000004 11.500000000000002 473.2000000000001 114.22000000000001 2.0000000000000004 5.5000000000000009 1.6275000000000004 264.64500000000004 5.5000000000000009 13.308750000000002 139.78875000000005 14.277500000000003
decision_type=10 2 10 8 10 2 2 2 10 10 8 2 10 10 10 8 10 2 2 2 2 10 2 2 2 10 8 10 2 10 10 8 2 10 10 10 2 10 10 10 10 2 8 2 8 10 8 10 8 10 2 2 8 10 2 2 8 8 2 8 8 10
left_child=5 2 9 8 11 6 60 13 -3 22 -7 37 -8 -5 18 16 -10 49 20 -20 38 34 24 54 -2 -12 -11 53 -22 30 -19 -6 33 50 -9 57 -14 -4 -13 41 -41 -37 43 -30 -45 46 -27 56 -49 61 -33 -21 -44 -18 -24 -39 -32 -36 -23 -60 -1 -17
right_child=1 3 4 7 31 10 12 21 15 26 25 14 36 -15 -16 17 27 29 19 51 28 58 23 -25 -26 45 -28 -29 42 -31 47 32 -34 -35 35 39 -38 55 -40 40 -42 -43 52 44 -46 -47 -48 48 -50 -51 -52 -53 -54 -55 -56 -57 -58 -59 59 -61 -62 -63
leaf_value=-2.1750192310275707 0.096553997106330336 0.037370830232446847 -1.0233030904723066 -0.44289643656876354 5.1978120870368434 -2.776306706434116 5.223688766089353 4.8531621804042739 1.0114896661468915 0.67759201665503088 -2.148385403403601 -1.7372196086815426 -1.6836085855960847 2.2083691475369114 5.138318654894829 0.92589998407797391 6.2511055662081798 3.2434194675305998 2.9891983622915292 -0.29827306860289865 1.2121475661026413 6.9607936840790972 0.26247667156733001 0.59313212030235385 4.0941795051097873 2.4106202470404763 3.4237041155099868 8.3616453443254741 2.7271292964512246 8.8256799741224814 4.8904916617003353 2.686299685548899 4.9699734913675409 3.3259556899135583 -0.39758888632059097 3.1048145538339251 1.6175030849416676 -0.81326393447816381 1.0204536123587207 0.50802988691462414 3.1610389958839029 5.1012636043131359 2.207523640824689 2.8367995873741485 7.1200213345614349 -1.7124073192187883 -1.208043138186137 6.6188308909226254 4.2493783058509944 5.4516932896205361 0.9813109789396588 1.8983016669750215 -0.25711847322958487 3.3220211791992185 -1.290399394929409 1.4958586584548561 7.5234514093399047 2.0375089710853138 6.1015432453155523 2.7799767521711498 -1.0430386531140123 3.6691420023994787
leaf_weight=174 43 22 70 72 43 1088 22 49 56 89 2899 28 24 143 28 22 26 41 89 211 152 26 65 174 24 28 50 21 307 22 198 121 38 239 32 104 56 32 111 36 98 72 144 23 22 103 42 241 42 35 95 36 27 40 398 98 20 61 20 26 210 56
leaf_count=174 43 22 70 72 43 1088 22 49 56 89 2899 28 24 143 28 22 26 41 89 211 152 26 65 174 24 28 50 21 307 22 198 121 38 239 32 104 56 32 111 36 98 72 144 23 22 103 42 241 42 35 95 36 27 40 398 98 20 61 20 26 210 56
internal_value=3.25961e-09 2.26851 1.32365 3.91619 1.93768 -2.11812 -0.889705 2.74267 4.94616 -0.0704744 -2.26164 1.51175 1.61858 1.3205 1.72686 5.07786 3.68984 5.37104 1.6438 0.807863 1.98886 3.32619 -0.413211 -0.617446 1.52854 -2.07936 1.6654 5.41384 2.30267 5.70841 5.58188 3.03271 2.84387 2.66631 3.02574 2.80354 0.62717 0.244692 0.464951 3.28472 2.44829 3.92154 2.61961 3.00885 4.93082 -0.92265 0.239422 5.77325 6.26718 3.68718 1.93642 0.0218755 1.81837 4.4759 -1.07239 0.927459 5.13205 1.19963 5.21237 4.22414 -1.55597 2.89541
internal_weight=8984 4338 2757 1581 1914 4646 486 739 842 843 4160 1378 102 215 1178 820 143 677 1150 336 814 524 704 637 67 3072 139 87 675 564 542 536 493 455 452 403 80 200 139 310 134 176 523 352 45 173 70 501 283 113 216 247 171 66 463 130 218 93 72 46 384 78
internal_count=8984 4338 2757 1581 1914 4646 486 739 842 843 4160 1378 102 215 1178 820 143 677 1150 336 814 524 704 637 67 3072 139 87 675 564 542 536 493 455 452 403 80 200 139 310 134 176 523 352 45 173 70 501 283 113 216 247 171 66 463 130 218 93 72 46 384 78
is_linear=0
shrinkage=0.05


Tree=16
num_leaves=63
num_cat=0
split_feature=7 12 7 11 7 0 12 2 13 7 5 5 5 5 7 13 6 12 12 15 0 5 7 12 5 12 7 11 0 13 10 11 10 4 13 13 5 7 2 4 2 9 11 15 15 2 13 4 15 15 3 3 7 2 4 7 7 6 13 10 8 8
split_gain=1.55839e+07 2.48007e+06 913864 671100 335070 288514 260041 233037 225250 172446 169137 146580 133208 124093 237554 138838 122917 120760 117705 117024 108672 107645 105509 94180.1 155725 87326.3 86835.9 85309.1 82505.7 80749.6 80307.9 87561.4 78103.3 77414.2 69243.4 68818.6 65921.7 105244 80787.2 65529.7 81208.2 63550.9 60077.3 59944 168325 57417.6 90945.9 66467.2 60922.3 57187.1 56991.5 51233.6 49201.2 48804.6 48562.2 47166.3 45067.8 44930 44910.4 45023.4 44496.6 43841
threshold=96.005533625731005 14.500000000000002 202.49062500000005 84.512500000000017 297.38203125000007 132.03333333333339 6.5000000000000009 51.857500000000009 2.0000000000000004 60.736979166666679 146.10000000000005 112.08875000000002 110.52500000000002 100.01250000000002 209.11111111111114 2.0000000000000004 228.25000000000003 11.500000000000002 12.500000000000002 4.5000000000000009 158.54583333333338 304.15000000000003 294.50729166666673 12.500000000000002 340.25250000000005 12.500000000000002 296.02083333333343 55.268333333333338 30.280000000000005 3.5000000000000004 22.105000000000004 44.650833333333338 15.712500000000004 139.10750000000004 1.0000000180025095e-35 5.5000000000000009 39.960000000000008 189.33161458333339 208.02250000000004 82.642500000000027 321.01250000000005 285.07000000000005 90.220000000000013 43.000000000000007 37.500000000000007 80.741250000000022 5.5000000000000009 379.45000000000005 18.500000000000004 19.500000000000004 265.08250000000004 305.10000000000008 132.1015974967062 114.22000000000001 105.08333333333334 264.42013888888897 240.90451388888891 305.41666666666669 5.5000000000000009 13.308750000000002 0.3262500000000001 0.57625000000000015
decision_type=10 2 10 8 10 2 2 10 2 10 8 10 10 8 10 2 8 2 2 2 2 8 10 2 8 2 10 10 2 2 10 10 8 8 2 2 10 10 10 8 10 8 10 2 2 10 2 8 2 2 10 8 10 10 10 10 10 8 2 8 8 8
left_child=5 2 6 7 10 9 11 -3 16 28 17 -2 -7 14 52 50 -5 -4 21 -11 -13 61 36 24 29 34 53 -25 -1 -6 31 -17 -21 -23 -8 39 -10 -38 -39 -22 -41 -26 -43 44 45 54 48 56 55 -50 -15 -18 -9 -16 -33 -47 -48 -35 -24 -60 -45 -12
right_child=1 3 4 8 23 12 25 13 22 19 18 20 -14 15 26 30 51 -19 -20 32 35 33 58 27 41 -27 -28 -29 -30 -31 -32 43 -34 57 -36 -37 37 38 -40 40 -42 42 -44 60 -46 46 47 -49 49 -51 -52 -53 -54 -55 -56 -57 -58 -59 59 -61 -62 -63
leaf_value=-2.9123209262924985 -1.1233427062826722 -0.18016734023888906 -0.87211627364158639 -0.26808606260796874 2.5519126978874205 -0.73734540500179613 0.91473787652869376 -0.99525373935699468 4.5181625095280742 1.7048447299003602 1.6013438833130342 -0.90569265938323484 3.5091611272096639 2.7506367078194254 5.9385501696513252 3.0812485600390089 1.6635830787779058 1.3048701233270521 3.6301073564837374 0.97090411071593952 1.1572767406702043 3.3513295818406803 6.6127540093201862 7.0736456000286596 3.0387334546542064 0.2020473835132425 7.9435630253383103 3.3160084410147235 -2.2222469769646778 0.70760030429975129 8.3843959765000786 4.9513336675507684 -1.7941684572498593 2.3958739278645349 -1.5636813901196565 -0.26201353540291661 1.7251126443112597 4.0318983073358412 2.0890893972660529 1.9982623308151961 4.857844795783361 6.8172465602556871 3.5079282000660896 8.1792592744032557 1.1966371277968089 2.4497729777596717 5.3143841198512485 4.5580004408955572 7.6238308473066851 4.884241933218191 5.1791085706438338 4.0115610226988796 2.0685788266752896 3.155920138768852 7.9080763049241973 4.9849448916880652 8.044160885281034 1.1655755502858052 5.7964661407470706 2.6409778861472244 5.6374095088905767 0.75545857512634951
leaf_weight=532 76 24 124 82 125 241 31 20 55 25 273 46 20 78 26 41 103 131 72 26 104 104 26 23 219 126 21 44 2331 113 22 21 1439 145 310 37 170 154 82 80 36 24 32 33 24 43 21 32 22 142 35 30 38 40 41 32 54 152 20 26 36 349
leaf_count=532 76 24 124 82 125 241 31 20 55 25 273 46 20 78 26 41 103 131 72 26 104 104 26 23 219 126 21 44 2331 113 22 21 1439 145 310 37 170 154 82 80 36 24 32 33 24 43 21 32 22 142 35 30 38 40 41 32 54 152 20 26 36 349
internal_value=-2.50465e-09 2.13979 1.23719 3.71169 1.83782 -2.02663 -0.133046 4.67638 2.62062 -2.12345 1.40599 0.840026 -0.411943 4.81817 3.49072 5.10249 1.25448 0.246257 1.67607 -1.68721 1.33249 1.53854 3.17169 2.84292 2.61267 -0.922755 5.14315 4.60594 -2.35048 1.67625 5.42299 5.30279 -1.7451 2.17733 -1.33837 1.7331 2.89368 2.67361 3.35685 2.06864 2.88572 3.42309 4.92621 5.48459 5.26601 5.50538 5.2543 6.46582 4.7119 5.25175 3.50282 2.1932 1.01208 4.25211 6.9066 3.53145 7.27982 1.76623 4.95175 4.01293 6.85308 1.12672
internal_weight=8984 4370 2776 1594 1930 4614 846 846 748 4353 1350 379 261 822 145 677 215 255 1095 1490 303 1023 533 580 513 467 87 67 2863 238 564 542 1465 401 341 257 461 406 236 220 116 275 56 501 432 408 346 107 239 164 113 133 58 66 62 75 75 297 72 46 69 622
internal_count=8984 4370 2776 1594 1930 4614 846 846 748 4353 1350 379 261 822 145 677 215 255 1095 1490 303 1023 533 580 513 467 87 67 2863 238 564 542 1465 401 341 257 461 406 236 220 116 275 56 501 432 408 346 107 239 164 113 133 58 66 62 75 75 297 72 46 69 622
is_linear=0
shrinkage=0.05


Tree=17
num_leaves=63
num_cat=0
split_feature=7 12 7 11 7 0 0 2 13 5 7 10 7 5 5 6 12 12 8 15 5 1 7 15 9 3 7 13 12 12 0 4 0 7 13 12 9 10 5 4 2 5 7 9 2 7 5 4 7 5 7 9 0 1 1 15 15 7 9 15 5 5
split_gain=1.40674e+07 2.25333e+06 857899 580939 302401 252768 232592 206607 205342 153293 147157 155558 141690 117471 115738 113134 108434 107044 104697 111045 99518 95828.7 94382.7 87903.3 86160.7 105203 83764.7 81118.7 78064.3 94123.8 72382.2 69866.3 66174 76624 65566.6 65094.8 64922.4 82707.2 59559.1 58689.1 81145.9 58179.8 95461.7 59162.8 75350.1 55345.9 53959.3 58640.9 48911.4 51488.5 60994.6 84904.4 55898.3 47239.3 47164.5 47034.3 50164.9 47015.7 49337.4 45890.3 51411.9 45367.8
threshold=91.458655753968273 14.500000000000002 202.49062500000005 84.512500000000017 297.38203125000007 132.03333333333339 269.00125000000008 51.857500000000009 2.0000000000000004 143.81666666666669 110.59722222222224 23.001250000000006 59.521733511586461 105.0125 101.47500000000001 209.74479166666669 12.500000000000002 11.500000000000002 2.5387500000000003 10.500000000000002 304.15000000000003 156.01250000000002 294.50729166666673 22.500000000000004 285.07000000000005 303.08291666666673 320.33333333333343 5.5000000000000009 7.5000000000000009 12.500000000000002 32.568750000000009 139.10750000000004 250.05000000000004 253.24826388888894 1.0000000180025095e-35 15.500000000000002 158.76000000000002 17.062500000000004 112.08875000000002 82.642500000000027 321.01250000000005 39.960000000000008 165.27708333333337 231.52250000000004 179.67625000000004 229.14583333333334 88.711250000000021 366.76125000000008 125.27443609022558 91.016666666666694 272.96112689393948 189.51750000000001 105.0125 414.50000000000006 215.71750000000006 9.5000000000000018 36.500000000000007 315.29166666666669 225.06500000000003 43.000000000000007 191.50250000000003 376.19125000000003
decision_type=10 2 10 8 10 2 2 10 2 8 10 10 10 10 10 8 2 2 10 2 8 8 10 2 8 10 10 2 2 2 2 8 2 10 2 2 10 10 10 10 10 10 10 10 10 10 8 10 10 10 10 10 2 10 8 2 2 10 8 2 8 8
left_child=5 2 6 7 9 12 28 -3 15 17 -9 18 30 -7 -8 -5 20 -4 19 61 -11 46 41 35 26 -26 -6 32 38 34 -1 -22 33 -23 -30 -14 -29 -38 -2 -16 -41 -10 -43 44 55 -46 47 -21 -48 52 51 -51 -50 -27 -35 -44 -57 -17 -59 60 -34 -12
right_child=1 3 4 8 24 13 14 10 22 16 11 -13 23 -15 39 57 -18 -19 -20 21 31 27 -24 -25 25 53 -28 36 29 -31 -32 -33 59 54 -36 -37 37 -39 -40 40 -42 42 43 -45 45 -47 48 -49 49 50 -52 -53 -54 -55 -56 56 -58 58 -60 -61 -62 -63
leaf_value=-2.7313841983301557 -1.1027678595383963 -0.17115901013215384 -0.88897699450707846 -0.65172449906667085 1.7223884696355172 -0.71684910321230844 -1.9629244316741827 1.2098992688115686 4.1996053855927267 1.0605021267963517 1.0379052913614684 9.0218920564651484 -1.8419484933217367 3.2768547439575197 1.0354861297390678 1.277643009560073 3.4221004587809247 1.2033819944947028 1.2327529124591663 3.0811267277529075 3.1837630723531429 1.3589474201202394 4.7041671257879996 -1.7245120057542076 7.0895908334038484 3.9703578381104907 3.045663673131485 7.9562031972975964 0.92926379533914416 0.14588799048926085 -2.1096947737124832 1.6779149544409631 6.4168688600713555 4.6805391499772666 -1.7014603647466442 1.4841988421584431 6.3571947249499239 3.2359135581225886 0.54075146290616927 1.4399204909801484 4.8209358109746665 1.1748376496059378 2.7901221277622081 4.8201326003200133 -0.033742314018309121 2.4222918423421591 4.1885269720202833 5.96142225265503 6.048081007003784 6.4573570791880286 6.686498366322434 2.8991021491979296 8.7242660999298103 1.2718484259170035 2.437962174254495 6.2522030410766609 3.2195652588208521 1.9257944103443263 5.072992686033249 6.7850501105898902 3.7290625979823453 4.1122545291980108
leaf_weight=597 75 24 117 60 226 232 20 32 61 629 28 20 24 20 66 102 75 128 23 43 104 44 72 1501 22 55 254 21 26 131 2170 297 22 64 266 38 44 41 208 36 35 97 104 38 32 81 39 30 50 30 57 38 32 23 37 25 30 33 20 21 93 21
leaf_count=597 75 24 117 60 226 232 20 32 61 629 28 20 24 20 66 102 75 128 23 43 104 44 72 1501 22 55 254 21 26 131 2170 297 22 64 266 38 44 41 208 36 35 97 104 38 32 81 39 30 50 30 57 38 32 23 37 25 30 33 20 21 93 21
internal_value=8.68445e-09 2.01857 1.15995 3.50901 1.74593 -1.93927 -0.150515 4.40232 2.49857 1.33569 4.53457 4.66789 -2.02886 -0.399888 1.59015 1.19175 1.58658 0.204174 4.55596 4.65719 1.45292 4.81695 3.01887 -1.6483 2.70078 4.03593 2.42262 4.28807 -0.537603 -0.967651 -2.24383 2.06846 3.84346 3.10036 -1.46722 0.196658 5.46669 4.85164 0.10519 2.10885 3.10662 2.7596 2.54377 2.97212 2.71394 1.72678 5.45856 4.26481 5.81281 6.11883 5.48014 4.46892 7.09245 3.17464 3.859 3.4155 4.59804 1.90536 3.11342 4.63574 4.24325 2.35548
internal_weight=8984 4402 2793 1609 1930 4582 863 854 755 1350 830 798 4330 252 157 215 1105 245 778 755 1030 706 540 1563 580 100 480 387 706 423 2767 401 281 145 292 62 106 85 283 137 71 468 407 310 272 113 319 73 246 207 125 68 82 78 101 159 55 155 53 136 115 49
internal_count=8984 4402 2793 1609 1930 4582 863 854 755 1350 830 798 4330 252 157 215 1105 245 778 755 1030 706 540 1563 580 100 480 387 706 423 2767 401 281 145 292 62 106 85 283 137 71 468 407 310 272 113 319 73 246 207 125 68 82 78 101 159 55 155 53 136 115 49
is_linear=0
shrinkage=0.05


Tree=18
num_leaves=63
num_cat=0
split_feature=7 12 5 11 5 0 1 10 12 13 7 4 12 15 12 10 12 13 0 0 4 5 15 7 7 5 5 12 5 4 2 12 5 12 7 11 7 8 3 5 13 0 3 0 15 15 2 13 7 2 1 12 9 8 15 13 12 9 11 11 15 5
split_gain=1.27002e+07 1.9973e+06 760563 515571 268611 253163 166635 209567 201798 170462 149029 143253 135929 133052 132021 167727 111609 205762 110930 104006 100705 99355.6 95728.8 94981.6 93474.6 80141.7 79816.7 77765.2 77739.4 129621 68069.9 67298.3 80602.2 63562.4 62072 61267.4 60998.7 59173.4 58820.6 58700.9 71143.7 55798.3 66654.5 55580.1 53119.1 83159.6 52655.1 51416.7 58335.8 65530.9 54638.2 50448.7 67128.6 47690.6 47387.3 46046.9 45842.8 45656.6 45042.3 41173.2 40073.8 39610.1
threshold=101.26559895833334 13.500000000000002 138.10000000000005 88.257500000000007 318.91250000000008 106.23666666666668 58.885000000000005 23.031250000000004 15.500000000000002 2.0000000000000004 56.552812500000009 216.10000000000002 11.500000000000002 4.5000000000000009 11.500000000000002 18.562500000000004 7.5000000000000009 1.0000000180025095e-35 179.85125000000002 323.83750000000003 88.748750000000015 42.837500000000013 6.5000000000000009 239.35416666666671 139.70104575163404 71.472500000000011 122.03750000000001 3.5000000000000004 100.01250000000002 366.76125000000008 234.11250000000004 19.500000000000004 447.50000000000006 17.500000000000004 197.43682291666667 58.340000000000011 292.93025362318843 0.27625000000000005 331.61125000000004 418.57000000000005 5.5000000000000009 256.08750000000003 281.47500000000008 30.280000000000005 35.500000000000007 23.500000000000004 211.23750000000004 5.5000000000000009 294.50729166666673 288.28750000000008 156.01250000000002 15.500000000000002 301.06000000000006 0.3912500000000001 20.500000000000004 2.0000000000000004 11.500000000000002 160.22375000000002 45.287500000000009 68.314166666666679 25.500000000000004 232.11250000000004
decision_type=10 2 10 8 10 2 10 10 2 2 10 10 2 2 2 10 2 2 2 2 10 10 2 10 10 10 8 2 8 10 10 2 8 2 10 10 10 8 8 10 2 2 8 2 2 2 10 2 10 10 10 2 10 8 2 2 2 10 10 10 2 8
left_child=5 2 23 6 12 10 -3 8 24 30 43 21 16 -12 -7 -16 18 -18 -4 -6 -11 -5 -20 27 -8 -25 36 -2 29 54 -10 41 -33 -32 -19 46 -26 -23 44 -21 -41 42 58 -1 45 -24 -14 48 -13 -50 -49 -15 -53 -52 -22 -29 -27 -28 -30 -60 -36 -55
right_child=1 3 4 11 19 14 7 -9 9 20 13 47 35 51 15 -17 17 34 22 39 28 37 38 25 26 56 57 55 31 -31 33 32 -34 -35 60 -37 -38 -39 -40 40 -42 -43 -44 -45 -46 -47 -48 50 49 -51 53 52 -54 61 -56 -57 -58 -59 59 -61 -62 -63
